digraph Tree {
node [shape=box, style="filled", color="black"] ;
0 [label="TCP_sport <= 42303.0\ngini = 0.279\nsamples = 5400\nvalue = [4497, 903]\nclass = 0", fillcolor="#ea9a61"] ;
1 [label="TCP_sport <= 33332.5\ngini = 0.044\nsamples = 3603\nvalue = [3521, 82]\nclass = 0", fillcolor="#e6843e"] ;
0 -> 1 [labeldistance=2.5, labelangle=45, headlabel="True"] ;
2 [label="sport <= 40483.0\ngini = 0.011\nsamples = 3009\nvalue = [2993, 16]\nclass = 0", fillcolor="#e5823a"] ;
1 -> 2 ;
3 [label="TCP_RST <= 0.5\ngini = 0.001\nsamples = 2672\nvalue = [2670, 2]\nclass = 0", fillcolor="#e58139"] ;
2 -> 3 ;
4 [label="UDP_chksum <= 62085.5\ngini = 0.001\nsamples = 2649\nvalue = [2648, 1]\nclass = 0", fillcolor="#e58139"] ;
3 -> 4 ;
5 [label="gini = 0.0\nsamples = 2590\nvalue = [2590, 0]\nclass = 0", fillcolor="#e58139"] ;
4 -> 5 ;
6 [label="UDP_chksum <= 62119.5\ngini = 0.033\nsamples = 59\nvalue = [58, 1]\nclass = 0", fillcolor="#e5833c"] ;
4 -> 6 ;
7 [label="Protocol <= 5.5\ngini = 0.278\nsamples = 6\nvalue = [5, 1]\nclass = 0", fillcolor="#ea9a61"] ;
6 -> 7 ;
8 [label="gini = 0.0\nsamples = 3\nvalue = [3, 0]\nclass = 0", fillcolor="#e58139"] ;
7 -> 8 ;
9 [label="Protocol <= 11.5\ngini = 0.444\nsamples = 3\nvalue = [2, 1]\nclass = 0", fillcolor="#f2c09c"] ;
7 -> 9 ;
10 [label="gini = 0.0\nsamples = 1\nvalue = [0, 1]\nclass = 1", fillcolor="#399de5"] ;
9 -> 10 ;
11 [label="gini = 0.0\nsamples = 2\nvalue = [2, 0]\nclass = 0", fillcolor="#e58139"] ;
9 -> 11 ;
12 [label="gini = 0.0\nsamples = 53\nvalue = [53, 0]\nclass = 0", fillcolor="#e58139"] ;
6 -> 12 ;
13 [label="sport <= 1612.0\ngini = 0.083\nsamples = 23\nvalue = [22, 1]\nclass = 0", fillcolor="#e68742"] ;
3 -> 13 ;
14 [label="gini = 0.0\nsamples = 1\nvalue = [0, 1]\nclass = 1", fillcolor="#399de5"] ;
13 -> 14 ;
15 [label="gini = 0.0\nsamples = 22\nvalue = [22, 0]\nclass = 0", fillcolor="#e58139"] ;
13 -> 15 ;
16 [label="UDP_sport <= 42887.0\ngini = 0.08\nsamples = 337\nvalue = [323, 14]\nclass = 0", fillcolor="#e68642"] ;
2 -> 16 ;
17 [label="payload_bytes <= 162.0\ngini = 0.5\nsamples = 22\nvalue = [11, 11]\nclass = 0", fillcolor="#ffffff"] ;
16 -> 17 ;
18 [label="sport <= 40614.0\ngini = 0.153\nsamples = 12\nvalue = [11, 1]\nclass = 0", fillcolor="#e78c4b"] ;
17 -> 18 ;
19 [label="gini = 0.0\nsamples = 1\nvalue = [0, 1]\nclass = 1", fillcolor="#399de5"] ;
18 -> 19 ;
20 [label="gini = 0.0\nsamples = 11\nvalue = [11, 0]\nclass = 0", fillcolor="#e58139"] ;
18 -> 20 ;
21 [label="gini = 0.0\nsamples = 10\nvalue = [0, 10]\nclass = 1", fillcolor="#399de5"] ;
17 -> 21 ;
22 [label="DNS_id <= 3.5\ngini = 0.019\nsamples = 315\nvalue = [312, 3]\nclass = 0", fillcolor="#e5823b"] ;
16 -> 22 ;
23 [label="gini = 0.0\nsamples = 267\nvalue = [267, 0]\nclass = 0", fillcolor="#e58139"] ;
22 -> 23 ;
24 [label="UDP_chksum <= 48055.5\ngini = 0.117\nsamples = 48\nvalue = [45, 3]\nclass = 0", fillcolor="#e78946"] ;
22 -> 24 ;
25 [label="gini = 0.0\nsamples = 43\nvalue = [43, 0]\nclass = 0", fillcolor="#e58139"] ;
24 -> 25 ;
26 [label="UDP_sport <= 50897.0\ngini = 0.48\nsamples = 5\nvalue = [2, 3]\nclass = 1", fillcolor="#bddef6"] ;
24 -> 26 ;
27 [label="UDP_chksum <= 60846.5\ngini = 0.444\nsamples = 3\nvalue = [2, 1]\nclass = 0", fillcolor="#f2c09c"] ;
26 -> 27 ;
28 [label="gini = 0.0\nsamples = 2\nvalue = [2, 0]\nclass = 0", fillcolor="#e58139"] ;
27 -> 28 ;
29 [label="gini = 0.0\nsamples = 1\nvalue = [0, 1]\nclass = 1", fillcolor="#399de5"] ;
27 -> 29 ;
30 [label="gini = 0.0\nsamples = 2\nvalue = [0, 2]\nclass = 1", fillcolor="#399de5"] ;
26 -> 30 ;
31 [label="TCP_sport <= 33362.0\ngini = 0.198\nsamples = 594\nvalue = [528, 66]\nclass = 0", fillcolor="#e89152"] ;
1 -> 31 ;
32 [label="gini = 0.0\nsamples = 17\nvalue = [0, 17]\nclass = 1", fillcolor="#399de5"] ;
31 -> 32 ;
33 [label="TCP_window <= 3549.0\ngini = 0.155\nsamples = 577\nvalue = [528, 49]\nclass = 0", fillcolor="#e78d4b"] ;
31 -> 33 ;
34 [label="TCP_sport <= 37744.0\ngini = 0.421\nsamples = 116\nvalue = [81, 35]\nclass = 0", fillcolor="#f0b78f"] ;
33 -> 34 ;
35 [label="gini = 0.0\nsamples = 37\nvalue = [37, 0]\nclass = 0", fillcolor="#e58139"] ;
34 -> 35 ;
36 [label="TCP_sport <= 38842.5\ngini = 0.494\nsamples = 79\nvalue = [44, 35]\nclass = 0", fillcolor="#fae5d7"] ;
34 -> 36 ;
37 [label="dport_class <= 6.0\ngini = 0.303\nsamples = 43\nvalue = [8, 35]\nclass = 1", fillcolor="#66b3eb"] ;
36 -> 37 ;
38 [label="gini = 0.0\nsamples = 3\nvalue = [3, 0]\nclass = 0", fillcolor="#e58139"] ;
37 -> 38 ;
39 [label="IP_id <= 55541.5\ngini = 0.219\nsamples = 40\nvalue = [5, 35]\nclass = 1", fillcolor="#55abe9"] ;
37 -> 39 ;
40 [label="TCP_seq <= 3934840576.0\ngini = 0.102\nsamples = 37\nvalue = [2, 35]\nclass = 1", fillcolor="#44a3e6"] ;
39 -> 40 ;
41 [label="TCP_seq <= 958149536.0\ngini = 0.054\nsamples = 36\nvalue = [1, 35]\nclass = 1", fillcolor="#3fa0e6"] ;
40 -> 41 ;
42 [label="sport <= 38140.0\ngini = 0.32\nsamples = 5\nvalue = [1, 4]\nclass = 1", fillcolor="#6ab6ec"] ;
41 -> 42 ;
43 [label="gini = 0.0\nsamples = 4\nvalue = [0, 4]\nclass = 1", fillcolor="#399de5"] ;
42 -> 43 ;
44 [label="gini = 0.0\nsamples = 1\nvalue = [1, 0]\nclass = 0", fillcolor="#e58139"] ;
42 -> 44 ;
45 [label="gini = 0.0\nsamples = 31\nvalue = [0, 31]\nclass = 1", fillcolor="#399de5"] ;
41 -> 45 ;
46 [label="gini = 0.0\nsamples = 1\nvalue = [1, 0]\nclass = 0", fillcolor="#e58139"] ;
40 -> 46 ;
47 [label="gini = 0.0\nsamples = 3\nvalue = [3, 0]\nclass = 0", fillcolor="#e58139"] ;
39 -> 47 ;
48 [label="gini = 0.0\nsamples = 36\nvalue = [36, 0]\nclass = 0", fillcolor="#e58139"] ;
36 -> 48 ;
49 [label="Protocol <= 7.5\ngini = 0.059\nsamples = 461\nvalue = [447, 14]\nclass = 0", fillcolor="#e6853f"] ;
33 -> 49 ;
50 [label="TCP_SYN <= 0.5\ngini = 0.016\nsamples = 374\nvalue = [371, 3]\nclass = 0", fillcolor="#e5823b"] ;
49 -> 50 ;
51 [label="gini = 0.0\nsamples = 311\nvalue = [311, 0]\nclass = 0", fillcolor="#e58139"] ;
50 -> 51 ;
52 [label="TCP_window <= 7264.0\ngini = 0.091\nsamples = 63\nvalue = [60, 3]\nclass = 0", fillcolor="#e68743"] ;
50 -> 52 ;
53 [label="TCP_sport <= 37617.5\ngini = 0.355\nsamples = 13\nvalue = [10, 3]\nclass = 0", fillcolor="#eda774"] ;
52 -> 53 ;
54 [label="gini = 0.0\nsamples = 6\nvalue = [6, 0]\nclass = 0", fillcolor="#e58139"] ;
53 -> 54 ;
55 [label="IP_id <= 29955.0\ngini = 0.49\nsamples = 7\nvalue = [4, 3]\nclass = 0", fillcolor="#f8e0ce"] ;
53 -> 55 ;
56 [label="dport <= 261.5\ngini = 0.375\nsamples = 4\nvalue = [1, 3]\nclass = 1", fillcolor="#7bbeee"] ;
55 -> 56 ;
57 [label="gini = 0.0\nsamples = 1\nvalue = [1, 0]\nclass = 0", fillcolor="#e58139"] ;
56 -> 57 ;
58 [label="gini = 0.0\nsamples = 3\nvalue = [0, 3]\nclass = 1", fillcolor="#399de5"] ;
56 -> 58 ;
59 [label="gini = 0.0\nsamples = 3\nvalue = [3, 0]\nclass = 0", fillcolor="#e58139"] ;
55 -> 59 ;
60 [label="gini = 0.0\nsamples = 50\nvalue = [50, 0]\nclass = 0", fillcolor="#e58139"] ;
52 -> 60 ;
61 [label="Protocol <= 9.5\ngini = 0.221\nsamples = 87\nvalue = [76, 11]\nclass = 0", fillcolor="#e99356"] ;
49 -> 61 ;
62 [label="TCP_seq <= 1417095872.0\ngini = 0.491\nsamples = 23\nvalue = [13, 10]\nclass = 0", fillcolor="#f9e2d1"] ;
61 -> 62 ;
63 [label="sport <= 38842.0\ngini = 0.278\nsamples = 12\nvalue = [2, 10]\nclass = 1", fillcolor="#61b1ea"] ;
62 -> 63 ;
64 [label="gini = 0.0\nsamples = 10\nvalue = [0, 10]\nclass = 1", fillcolor="#399de5"] ;
63 -> 64 ;
65 [label="gini = 0.0\nsamples = 2\nvalue = [2, 0]\nclass = 0", fillcolor="#e58139"] ;
63 -> 65 ;
66 [label="gini = 0.0\nsamples = 11\nvalue = [11, 0]\nclass = 0", fillcolor="#e58139"] ;
62 -> 66 ;
67 [label="entropy <= 7.315\ngini = 0.031\nsamples = 64\nvalue = [63, 1]\nclass = 0", fillcolor="#e5833c"] ;
61 -> 67 ;
68 [label="gini = 0.0\nsamples = 63\nvalue = [63, 0]\nclass = 0", fillcolor="#e58139"] ;
67 -> 68 ;
69 [label="gini = 0.0\nsamples = 1\nvalue = [0, 1]\nclass = 1", fillcolor="#399de5"] ;
67 -> 69 ;
70 [label="payload_bytes <= 5.5\ngini = 0.496\nsamples = 1797\nvalue = [976, 821]\nclass = 0", fillcolor="#fbebe0"] ;
0 -> 70 [labeldistance=2.5, labelangle=-45, headlabel="False"] ;
71 [label="TCP_window <= 3549.0\ngini = 0.241\nsamples = 827\nvalue = [711, 116]\nclass = 0", fillcolor="#e99659"] ;
70 -> 71 ;
72 [label="Protocol <= 6.0\ngini = 0.478\nsamples = 182\nvalue = [110, 72]\nclass = 0", fillcolor="#f6d3bb"] ;
71 -> 72 ;
73 [label="TCP_window <= 3479.5\ngini = 0.284\nsamples = 105\nvalue = [87, 18]\nclass = 0", fillcolor="#ea9b62"] ;
72 -> 73 ;
74 [label="IP_id <= 60824.5\ngini = 0.154\nsamples = 95\nvalue = [87, 8]\nclass = 0", fillcolor="#e78d4b"] ;
73 -> 74 ;
75 [label="TCP_ack <= 2178558592.0\ngini = 0.086\nsamples = 89\nvalue = [85, 4]\nclass = 0", fillcolor="#e68742"] ;
74 -> 75 ;
76 [label="gini = 0.0\nsamples = 63\nvalue = [63, 0]\nclass = 0", fillcolor="#e58139"] ;
75 -> 76 ;
77 [label="TCP_ack <= 2277766400.0\ngini = 0.26\nsamples = 26\nvalue = [22, 4]\nclass = 0", fillcolor="#ea985d"] ;
75 -> 77 ;
78 [label="gini = 0.0\nsamples = 1\nvalue = [0, 1]\nclass = 1", fillcolor="#399de5"] ;
77 -> 78 ;
79 [label="TCP_sport <= 51631.0\ngini = 0.211\nsamples = 25\nvalue = [22, 3]\nclass = 0", fillcolor="#e99254"] ;
77 -> 79 ;
80 [label="gini = 0.0\nsamples = 12\nvalue = [12, 0]\nclass = 0", fillcolor="#e58139"] ;
79 -> 80 ;
81 [label="sport <= 55974.0\ngini = 0.355\nsamples = 13\nvalue = [10, 3]\nclass = 0", fillcolor="#eda774"] ;
79 -> 81 ;
82 [label="dport_class <= 6.0\ngini = 0.5\nsamples = 6\nvalue = [3, 3]\nclass = 0", fillcolor="#ffffff"] ;
81 -> 82 ;
83 [label="gini = 0.0\nsamples = 2\nvalue = [2, 0]\nclass = 0", fillcolor="#e58139"] ;
82 -> 83 ;
84 [label="Protocol <= 3.5\ngini = 0.375\nsamples = 4\nvalue = [1, 3]\nclass = 1", fillcolor="#7bbeee"] ;
82 -> 84 ;
85 [label="gini = 0.0\nsamples = 1\nvalue = [1, 0]\nclass = 0", fillcolor="#e58139"] ;
84 -> 85 ;
86 [label="gini = 0.0\nsamples = 3\nvalue = [0, 3]\nclass = 1", fillcolor="#399de5"] ;
84 -> 86 ;
87 [label="gini = 0.0\nsamples = 7\nvalue = [7, 0]\nclass = 0", fillcolor="#e58139"] ;
81 -> 87 ;
88 [label="TCP_window <= 3188.0\ngini = 0.444\nsamples = 6\nvalue = [2, 4]\nclass = 1", fillcolor="#9ccef2"] ;
74 -> 88 ;
89 [label="gini = 0.0\nsamples = 4\nvalue = [0, 4]\nclass = 1", fillcolor="#399de5"] ;
88 -> 89 ;
90 [label="gini = 0.0\nsamples = 2\nvalue = [2, 0]\nclass = 0", fillcolor="#e58139"] ;
88 -> 90 ;
91 [label="gini = 0.0\nsamples = 10\nvalue = [0, 10]\nclass = 1", fillcolor="#399de5"] ;
73 -> 91 ;
92 [label="dport <= 261.5\ngini = 0.419\nsamples = 77\nvalue = [23, 54]\nclass = 1", fillcolor="#8dc7f0"] ;
72 -> 92 ;
93 [label="gini = 0.0\nsamples = 13\nvalue = [13, 0]\nclass = 0", fillcolor="#e58139"] ;
92 -> 93 ;
94 [label="pck_size <= 46.0\ngini = 0.264\nsamples = 64\nvalue = [10, 54]\nclass = 1", fillcolor="#5eafea"] ;
92 -> 94 ;
95 [label="gini = 0.0\nsamples = 5\nvalue = [5, 0]\nclass = 0", fillcolor="#e58139"] ;
94 -> 95 ;
96 [label="TCP_sport <= 57353.5\ngini = 0.155\nsamples = 59\nvalue = [5, 54]\nclass = 1", fillcolor="#4ba6e7"] ;
94 -> 96 ;
97 [label="TCP_chksum <= 9689.0\ngini = 0.069\nsamples = 56\nvalue = [2, 54]\nclass = 1", fillcolor="#40a1e6"] ;
96 -> 97 ;
98 [label="TCP_chksum <= 6345.5\ngini = 0.408\nsamples = 7\nvalue = [2, 5]\nclass = 1", fillcolor="#88c4ef"] ;
97 -> 98 ;
99 [label="gini = 0.0\nsamples = 5\nvalue = [0, 5]\nclass = 1", fillcolor="#399de5"] ;
98 -> 99 ;
100 [label="gini = 0.0\nsamples = 2\nvalue = [2, 0]\nclass = 0", fillcolor="#e58139"] ;
98 -> 100 ;
101 [label="gini = 0.0\nsamples = 49\nvalue = [0, 49]\nclass = 1", fillcolor="#399de5"] ;
97 -> 101 ;
102 [label="gini = 0.0\nsamples = 3\nvalue = [3, 0]\nclass = 0", fillcolor="#e58139"] ;
96 -> 102 ;
103 [label="TCP_ack <= 137486384.0\ngini = 0.127\nsamples = 645\nvalue = [601, 44]\nclass = 0", fillcolor="#e78a47"] ;
71 -> 103 ;
104 [label="Protocol <= 6.0\ngini = 0.312\nsamples = 155\nvalue = [125, 30]\nclass = 0", fillcolor="#eb9f69"] ;
103 -> 104 ;
105 [label="TCP_window <= 6410.0\ngini = 0.106\nsamples = 107\nvalue = [101, 6]\nclass = 0", fillcolor="#e78845"] ;
104 -> 105 ;
106 [label="TCP_chksum <= 619.0\ngini = 0.284\nsamples = 35\nvalue = [29, 6]\nclass = 0", fillcolor="#ea9b62"] ;
105 -> 106 ;
107 [label="gini = 0.0\nsamples = 1\nvalue = [0, 1]\nclass = 1", fillcolor="#399de5"] ;
106 -> 107 ;
108 [label="TCP_seq <= 2650313600.0\ngini = 0.251\nsamples = 34\nvalue = [29, 5]\nclass = 0", fillcolor="#e9975b"] ;
106 -> 108 ;
109 [label="gini = 0.0\nsamples = 18\nvalue = [18, 0]\nclass = 0", fillcolor="#e58139"] ;
108 -> 109 ;
110 [label="dport_class <= 6.0\ngini = 0.43\nsamples = 16\nvalue = [11, 5]\nclass = 0", fillcolor="#f1ba93"] ;
108 -> 110 ;
111 [label="gini = 0.0\nsamples = 7\nvalue = [7, 0]\nclass = 0", fillcolor="#e58139"] ;
110 -> 111 ;
112 [label="IP_id <= 15381.5\ngini = 0.494\nsamples = 9\nvalue = [4, 5]\nclass = 1", fillcolor="#d7ebfa"] ;
110 -> 112 ;
113 [label="gini = 0.0\nsamples = 3\nvalue = [0, 3]\nclass = 1", fillcolor="#399de5"] ;
112 -> 113 ;
114 [label="IP_id <= 40537.0\ngini = 0.444\nsamples = 6\nvalue = [4, 2]\nclass = 0", fillcolor="#f2c09c"] ;
112 -> 114 ;
115 [label="gini = 0.0\nsamples = 3\nvalue = [3, 0]\nclass = 0", fillcolor="#e58139"] ;
114 -> 115 ;
116 [label="TCP_seq <= 4054530304.0\ngini = 0.444\nsamples = 3\nvalue = [1, 2]\nclass = 1", fillcolor="#9ccef2"] ;
114 -> 116 ;
117 [label="gini = 0.0\nsamples = 2\nvalue = [0, 2]\nclass = 1", fillcolor="#399de5"] ;
116 -> 117 ;
118 [label="gini = 0.0\nsamples = 1\nvalue = [1, 0]\nclass = 0", fillcolor="#e58139"] ;
116 -> 118 ;
119 [label="gini = 0.0\nsamples = 72\nvalue = [72, 0]\nclass = 0", fillcolor="#e58139"] ;
105 -> 119 ;
120 [label="TCP_window <= 6432.0\ngini = 0.5\nsamples = 48\nvalue = [24, 24]\nclass = 0", fillcolor="#ffffff"] ;
104 -> 120 ;
121 [label="sport_class <= 12.5\ngini = 0.461\nsamples = 36\nvalue = [13, 23]\nclass = 1", fillcolor="#a9d4f4"] ;
120 -> 121 ;
122 [label="sport <= 44409.5\ngini = 0.397\nsamples = 11\nvalue = [8, 3]\nclass = 0", fillcolor="#efb083"] ;
121 -> 122 ;
123 [label="Protocol <= 11.5\ngini = 0.375\nsamples = 4\nvalue = [1, 3]\nclass = 1", fillcolor="#7bbeee"] ;
122 -> 123 ;
124 [label="gini = 0.0\nsamples = 3\nvalue = [0, 3]\nclass = 1", fillcolor="#399de5"] ;
123 -> 124 ;
125 [label="gini = 0.0\nsamples = 1\nvalue = [1, 0]\nclass = 0", fillcolor="#e58139"] ;
123 -> 125 ;
126 [label="gini = 0.0\nsamples = 7\nvalue = [7, 0]\nclass = 0", fillcolor="#e58139"] ;
122 -> 126 ;
127 [label="TCP_sport <= 57680.5\ngini = 0.32\nsamples = 25\nvalue = [5, 20]\nclass = 1", fillcolor="#6ab6ec"] ;
121 -> 127 ;
128 [label="TCP_seq <= 206815440.0\ngini = 0.165\nsamples = 22\nvalue = [2, 20]\nclass = 1", fillcolor="#4da7e8"] ;
127 -> 128 ;
129 [label="gini = 0.0\nsamples = 1\nvalue = [1, 0]\nclass = 0", fillcolor="#e58139"] ;
128 -> 129 ;
130 [label="TCP_chksum <= 3054.0\ngini = 0.091\nsamples = 21\nvalue = [1, 20]\nclass = 1", fillcolor="#43a2e6"] ;
128 -> 130 ;
131 [label="sport <= 54169.0\ngini = 0.5\nsamples = 2\nvalue = [1, 1]\nclass = 0", fillcolor="#ffffff"] ;
130 -> 131 ;
132 [label="gini = 0.0\nsamples = 1\nvalue = [0, 1]\nclass = 1", fillcolor="#399de5"] ;
131 -> 132 ;
133 [label="gini = 0.0\nsamples = 1\nvalue = [1, 0]\nclass = 0", fillcolor="#e58139"] ;
131 -> 133 ;
134 [label="gini = 0.0\nsamples = 19\nvalue = [0, 19]\nclass = 1", fillcolor="#399de5"] ;
130 -> 134 ;
135 [label="gini = 0.0\nsamples = 3\nvalue = [3, 0]\nclass = 0", fillcolor="#e58139"] ;
127 -> 135 ;
136 [label="TCP_ack <= 103364688.0\ngini = 0.153\nsamples = 12\nvalue = [11, 1]\nclass = 0", fillcolor="#e78c4b"] ;
120 -> 136 ;
137 [label="gini = 0.0\nsamples = 11\nvalue = [11, 0]\nclass = 0", fillcolor="#e58139"] ;
136 -> 137 ;
138 [label="gini = 0.0\nsamples = 1\nvalue = [0, 1]\nclass = 1", fillcolor="#399de5"] ;
136 -> 138 ;
139 [label="sport <= 42447.0\ngini = 0.056\nsamples = 490\nvalue = [476, 14]\nclass = 0", fillcolor="#e6853f"] ;
103 -> 139 ;
140 [label="gini = 0.0\nsamples = 1\nvalue = [0, 1]\nclass = 1", fillcolor="#399de5"] ;
139 -> 140 ;
141 [label="Protocol <= 1.5\ngini = 0.052\nsamples = 489\nvalue = [476, 13]\nclass = 0", fillcolor="#e6843e"] ;
139 -> 141 ;
142 [label="gini = 0.0\nsamples = 1\nvalue = [0, 1]\nclass = 1", fillcolor="#399de5"] ;
141 -> 142 ;
143 [label="TCP_FIN <= 0.5\ngini = 0.048\nsamples = 488\nvalue = [476, 12]\nclass = 0", fillcolor="#e6843e"] ;
141 -> 143 ;
144 [label="IP_id <= 1022.0\ngini = 0.03\nsamples = 453\nvalue = [446, 7]\nclass = 0", fillcolor="#e5833c"] ;
143 -> 144 ;
145 [label="IP_len <= 48.0\ngini = 0.204\nsamples = 26\nvalue = [23, 3]\nclass = 0", fillcolor="#e89153"] ;
144 -> 145 ;
146 [label="gini = 0.0\nsamples = 23\nvalue = [23, 0]\nclass = 0", fillcolor="#e58139"] ;
145 -> 146 ;
147 [label="gini = 0.0\nsamples = 3\nvalue = [0, 3]\nclass = 1", fillcolor="#399de5"] ;
145 -> 147 ;
148 [label="IP_id <= 57725.5\ngini = 0.019\nsamples = 427\nvalue = [423, 4]\nclass = 0", fillcolor="#e5823b"] ;
144 -> 148 ;
149 [label="gini = 0.0\nsamples = 380\nvalue = [380, 0]\nclass = 0", fillcolor="#e58139"] ;
148 -> 149 ;
150 [label="IP_id <= 58199.0\ngini = 0.156\nsamples = 47\nvalue = [43, 4]\nclass = 0", fillcolor="#e78d4b"] ;
148 -> 150 ;
151 [label="Protocol <= 8.0\ngini = 0.49\nsamples = 7\nvalue = [3, 4]\nclass = 1", fillcolor="#cee6f8"] ;
150 -> 151 ;
152 [label="gini = 0.0\nsamples = 3\nvalue = [3, 0]\nclass = 0", fillcolor="#e58139"] ;
151 -> 152 ;
153 [label="gini = 0.0\nsamples = 4\nvalue = [0, 4]\nclass = 1", fillcolor="#399de5"] ;
151 -> 153 ;
154 [label="gini = 0.0\nsamples = 40\nvalue = [40, 0]\nclass = 0", fillcolor="#e58139"] ;
150 -> 154 ;
155 [label="TCP_window <= 8207.5\ngini = 0.245\nsamples = 35\nvalue = [30, 5]\nclass = 0", fillcolor="#e9965a"] ;
143 -> 155 ;
156 [label="gini = 0.0\nsamples = 23\nvalue = [23, 0]\nclass = 0", fillcolor="#e58139"] ;
155 -> 156 ;
157 [label="TCP_window <= 8416.0\ngini = 0.486\nsamples = 12\nvalue = [7, 5]\nclass = 0", fillcolor="#f8dbc6"] ;
155 -> 157 ;
158 [label="gini = 0.0\nsamples = 5\nvalue = [0, 5]\nclass = 1", fillcolor="#399de5"] ;
157 -> 158 ;
159 [label="gini = 0.0\nsamples = 7\nvalue = [7, 0]\nclass = 0", fillcolor="#e58139"] ;
157 -> 159 ;
160 [label="dport <= 261.5\ngini = 0.397\nsamples = 970\nvalue = [265, 705]\nclass = 1", fillcolor="#83c2ef"] ;
70 -> 160 ;
161 [label="gini = 0.0\nsamples = 90\nvalue = [90, 0]\nclass = 0", fillcolor="#e58139"] ;
160 -> 161 ;
162 [label="dport_class <= 9.5\ngini = 0.319\nsamples = 880\nvalue = [175, 705]\nclass = 1", fillcolor="#6ab5eb"] ;
160 -> 162 ;
163 [label="sport <= 57046.0\ngini = 0.268\nsamples = 839\nvalue = [134, 705]\nclass = 1", fillcolor="#5fb0ea"] ;
162 -> 163 ;
164 [label="Protocol <= 6.0\ngini = 0.229\nsamples = 812\nvalue = [107, 705]\nclass = 1", fillcolor="#57ace9"] ;
163 -> 164 ;
165 [label="TCP_window <= 8730.5\ngini = 0.419\nsamples = 264\nvalue = [79, 185]\nclass = 1", fillcolor="#8ec7f0"] ;
164 -> 165 ;
166 [label="TCP_window <= 4093.0\ngini = 0.492\nsamples = 181\nvalue = [79, 102]\nclass = 1", fillcolor="#d2e9f9"] ;
165 -> 166 ;
167 [label="sport <= 47102.0\ngini = 0.356\nsamples = 121\nvalue = [28, 93]\nclass = 1", fillcolor="#75bbed"] ;
166 -> 167 ;
168 [label="Protocol <= 3.0\ngini = 0.455\nsamples = 20\nvalue = [13, 7]\nclass = 0", fillcolor="#f3c5a4"] ;
167 -> 168 ;
169 [label="TCP_RST <= 0.5\ngini = 0.346\nsamples = 9\nvalue = [2, 7]\nclass = 1", fillcolor="#72b9ec"] ;
168 -> 169 ;
170 [label="pck_size <= 141.0\ngini = 0.219\nsamples = 8\nvalue = [1, 7]\nclass = 1", fillcolor="#55abe9"] ;
169 -> 170 ;
171 [label="gini = 0.0\nsamples = 6\nvalue = [0, 6]\nclass = 1", fillcolor="#399de5"] ;
170 -> 171 ;
172 [label="TCP_sport <= 44139.0\ngini = 0.5\nsamples = 2\nvalue = [1, 1]\nclass = 0", fillcolor="#ffffff"] ;
170 -> 172 ;
173 [label="gini = 0.0\nsamples = 1\nvalue = [1, 0]\nclass = 0", fillcolor="#e58139"] ;
172 -> 173 ;
174 [label="gini = 0.0\nsamples = 1\nvalue = [0, 1]\nclass = 1", fillcolor="#399de5"] ;
172 -> 174 ;
175 [label="gini = 0.0\nsamples = 1\nvalue = [1, 0]\nclass = 0", fillcolor="#e58139"] ;
169 -> 175 ;
176 [label="gini = 0.0\nsamples = 11\nvalue = [11, 0]\nclass = 0", fillcolor="#e58139"] ;
168 -> 176 ;
177 [label="TCP_PSH <= 0.5\ngini = 0.253\nsamples = 101\nvalue = [15, 86]\nclass = 1", fillcolor="#5caeea"] ;
167 -> 177 ;
178 [label="TCP_window <= 1460.0\ngini = 0.032\nsamples = 61\nvalue = [1, 60]\nclass = 1", fillcolor="#3c9fe5"] ;
177 -> 178 ;
179 [label="TCP_seq <= 2240134400.0\ngini = 0.133\nsamples = 14\nvalue = [1, 13]\nclass = 1", fillcolor="#48a5e7"] ;
178 -> 179 ;
180 [label="TCP_chksum <= 50564.5\ngini = 0.375\nsamples = 4\nvalue = [1, 3]\nclass = 1", fillcolor="#7bbeee"] ;
179 -> 180 ;
181 [label="gini = 0.0\nsamples = 1\nvalue = [1, 0]\nclass = 0", fillcolor="#e58139"] ;
180 -> 181 ;
182 [label="gini = 0.0\nsamples = 3\nvalue = [0, 3]\nclass = 1", fillcolor="#399de5"] ;
180 -> 182 ;
183 [label="gini = 0.0\nsamples = 10\nvalue = [0, 10]\nclass = 1", fillcolor="#399de5"] ;
179 -> 183 ;
184 [label="gini = 0.0\nsamples = 47\nvalue = [0, 47]\nclass = 1", fillcolor="#399de5"] ;
178 -> 184 ;
185 [label="entropy <= 5.064\ngini = 0.455\nsamples = 40\nvalue = [14, 26]\nclass = 1", fillcolor="#a4d2f3"] ;
177 -> 185 ;
186 [label="gini = 0.0\nsamples = 10\nvalue = [10, 0]\nclass = 0", fillcolor="#e58139"] ;
185 -> 186 ;
187 [label="TCP_ack <= 1207780992.0\ngini = 0.231\nsamples = 30\nvalue = [4, 26]\nclass = 1", fillcolor="#57ace9"] ;
185 -> 187 ;
188 [label="TCP_seq <= 3143951360.0\ngini = 0.5\nsamples = 6\nvalue = [3, 3]\nclass = 0", fillcolor="#ffffff"] ;
187 -> 188 ;
189 [label="gini = 0.0\nsamples = 3\nvalue = [3, 0]\nclass = 0", fillcolor="#e58139"] ;
188 -> 189 ;
190 [label="gini = 0.0\nsamples = 3\nvalue = [0, 3]\nclass = 1", fillcolor="#399de5"] ;
188 -> 190 ;
191 [label="IP_len <= 97.0\ngini = 0.08\nsamples = 24\nvalue = [1, 23]\nclass = 1", fillcolor="#42a1e6"] ;
187 -> 191 ;
192 [label="gini = 0.0\nsamples = 1\nvalue = [1, 0]\nclass = 0", fillcolor="#e58139"] ;
191 -> 192 ;
193 [label="gini = 0.0\nsamples = 23\nvalue = [0, 23]\nclass = 1", fillcolor="#399de5"] ;
191 -> 193 ;
194 [label="TCP_seq <= 2665087872.0\ngini = 0.255\nsamples = 60\nvalue = [51, 9]\nclass = 0", fillcolor="#ea975c"] ;
166 -> 194 ;
195 [label="gini = 0.0\nsamples = 36\nvalue = [36, 0]\nclass = 0", fillcolor="#e58139"] ;
194 -> 195 ;
196 [label="IP_id <= 32644.5\ngini = 0.469\nsamples = 24\nvalue = [15, 9]\nclass = 0", fillcolor="#f5cdb0"] ;
194 -> 196 ;
197 [label="TCP_chksum <= 23096.0\ngini = 0.375\nsamples = 12\nvalue = [3, 9]\nclass = 1", fillcolor="#7bbeee"] ;
196 -> 197 ;
198 [label="IP_id <= 8843.0\ngini = 0.5\nsamples = 6\nvalue = [3, 3]\nclass = 0", fillcolor="#ffffff"] ;
197 -> 198 ;
199 [label="gini = 0.0\nsamples = 2\nvalue = [2, 0]\nclass = 0", fillcolor="#e58139"] ;
198 -> 199 ;
200 [label="TCP_ack <= 3930196480.0\ngini = 0.375\nsamples = 4\nvalue = [1, 3]\nclass = 1", fillcolor="#7bbeee"] ;
198 -> 200 ;
201 [label="gini = 0.0\nsamples = 3\nvalue = [0, 3]\nclass = 1", fillcolor="#399de5"] ;
200 -> 201 ;
202 [label="gini = 0.0\nsamples = 1\nvalue = [1, 0]\nclass = 0", fillcolor="#e58139"] ;
200 -> 202 ;
203 [label="gini = 0.0\nsamples = 6\nvalue = [0, 6]\nclass = 1", fillcolor="#399de5"] ;
197 -> 203 ;
204 [label="gini = 0.0\nsamples = 12\nvalue = [12, 0]\nclass = 0", fillcolor="#e58139"] ;
196 -> 204 ;
205 [label="gini = 0.0\nsamples = 83\nvalue = [0, 83]\nclass = 1", fillcolor="#399de5"] ;
165 -> 205 ;
206 [label="TCP_seq <= 3969992704.0\ngini = 0.097\nsamples = 548\nvalue = [28, 520]\nclass = 1", fillcolor="#44a2e6"] ;
164 -> 206 ;
207 [label="Protocol <= 16.5\ngini = 0.079\nsamples = 537\nvalue = [22, 515]\nclass = 1", fillcolor="#41a1e6"] ;
206 -> 207 ;
208 [label="TCP_dataofs <= 6.5\ngini = 0.072\nsamples = 534\nvalue = [20, 514]\nclass = 1", fillcolor="#41a1e6"] ;
207 -> 208 ;
209 [label="TCP_seq <= 761015456.0\ngini = 0.042\nsamples = 461\nvalue = [10, 451]\nclass = 1", fillcolor="#3d9fe6"] ;
208 -> 209 ;
210 [label="TCP_window <= 4990.0\ngini = 0.236\nsamples = 22\nvalue = [3, 19]\nclass = 1", fillcolor="#58ace9"] ;
209 -> 210 ;
211 [label="gini = 0.0\nsamples = 19\nvalue = [0, 19]\nclass = 1", fillcolor="#399de5"] ;
210 -> 211 ;
212 [label="gini = 0.0\nsamples = 3\nvalue = [3, 0]\nclass = 0", fillcolor="#e58139"] ;
210 -> 212 ;
213 [label="TCP_window <= 9130.0\ngini = 0.031\nsamples = 439\nvalue = [7, 432]\nclass = 1", fillcolor="#3c9fe5"] ;
209 -> 213 ;
214 [label="payload_bytes <= 144.0\ngini = 0.071\nsamples = 189\nvalue = [7, 182]\nclass = 1", fillcolor="#41a1e6"] ;
213 -> 214 ;
215 [label="TCP_window <= 5296.5\ngini = 0.034\nsamples = 173\nvalue = [3, 170]\nclass = 1", fillcolor="#3c9fe5"] ;
214 -> 215 ;
216 [label="Protocol <= 15.5\ngini = 0.012\nsamples = 161\nvalue = [1, 160]\nclass = 1", fillcolor="#3a9ee5"] ;
215 -> 216 ;
217 [label="gini = 0.0\nsamples = 149\nvalue = [0, 149]\nclass = 1", fillcolor="#399de5"] ;
216 -> 217 ;
218 [label="TCP_chksum <= 61163.5\ngini = 0.153\nsamples = 12\nvalue = [1, 11]\nclass = 1", fillcolor="#4ba6e7"] ;
216 -> 218 ;
219 [label="gini = 0.0\nsamples = 11\nvalue = [0, 11]\nclass = 1", fillcolor="#399de5"] ;
218 -> 219 ;
220 [label="gini = 0.0\nsamples = 1\nvalue = [1, 0]\nclass = 0", fillcolor="#e58139"] ;
218 -> 220 ;
221 [label="TCP_seq <= 1630083776.0\ngini = 0.278\nsamples = 12\nvalue = [2, 10]\nclass = 1", fillcolor="#61b1ea"] ;
215 -> 221 ;
222 [label="gini = 0.0\nsamples = 9\nvalue = [0, 9]\nclass = 1", fillcolor="#399de5"] ;
221 -> 222 ;
223 [label="Protocol <= 13.5\ngini = 0.444\nsamples = 3\nvalue = [2, 1]\nclass = 0", fillcolor="#f2c09c"] ;
221 -> 223 ;
224 [label="gini = 0.0\nsamples = 2\nvalue = [2, 0]\nclass = 0", fillcolor="#e58139"] ;
223 -> 224 ;
225 [label="gini = 0.0\nsamples = 1\nvalue = [0, 1]\nclass = 1", fillcolor="#399de5"] ;
223 -> 225 ;
226 [label="entropy <= 4.846\ngini = 0.375\nsamples = 16\nvalue = [4, 12]\nclass = 1", fillcolor="#7bbeee"] ;
214 -> 226 ;
227 [label="gini = 0.0\nsamples = 2\nvalue = [2, 0]\nclass = 0", fillcolor="#e58139"] ;
226 -> 227 ;
228 [label="Protocol <= 8.0\ngini = 0.245\nsamples = 14\nvalue = [2, 12]\nclass = 1", fillcolor="#5aade9"] ;
226 -> 228 ;
229 [label="TCP_seq <= 1521598080.0\ngini = 0.5\nsamples = 4\nvalue = [2, 2]\nclass = 0", fillcolor="#ffffff"] ;
228 -> 229 ;
230 [label="gini = 0.0\nsamples = 2\nvalue = [0, 2]\nclass = 1", fillcolor="#399de5"] ;
229 -> 230 ;
231 [label="gini = 0.0\nsamples = 2\nvalue = [2, 0]\nclass = 0", fillcolor="#e58139"] ;
229 -> 231 ;
232 [label="gini = 0.0\nsamples = 10\nvalue = [0, 10]\nclass = 1", fillcolor="#399de5"] ;
228 -> 232 ;
233 [label="gini = 0.0\nsamples = 250\nvalue = [0, 250]\nclass = 1", fillcolor="#399de5"] ;
213 -> 233 ;
234 [label="entropy <= 5.086\ngini = 0.236\nsamples = 73\nvalue = [10, 63]\nclass = 1", fillcolor="#58ade9"] ;
208 -> 234 ;
235 [label="gini = 0.0\nsamples = 3\nvalue = [3, 0]\nclass = 0", fillcolor="#e58139"] ;
234 -> 235 ;
236 [label="TCP_sport <= 48581.0\ngini = 0.18\nsamples = 70\nvalue = [7, 63]\nclass = 1", fillcolor="#4fa8e8"] ;
234 -> 236 ;
237 [label="TCP_seq <= 3064931712.0\ngini = 0.494\nsamples = 9\nvalue = [4, 5]\nclass = 1", fillcolor="#d7ebfa"] ;
236 -> 237 ;
238 [label="gini = 0.0\nsamples = 4\nvalue = [4, 0]\nclass = 0", fillcolor="#e58139"] ;
237 -> 238 ;
239 [label="gini = 0.0\nsamples = 5\nvalue = [0, 5]\nclass = 1", fillcolor="#399de5"] ;
237 -> 239 ;
240 [label="TCP_window <= 4972.0\ngini = 0.094\nsamples = 61\nvalue = [3, 58]\nclass = 1", fillcolor="#43a2e6"] ;
236 -> 240 ;
241 [label="Protocol <= 15.5\ngini = 0.038\nsamples = 51\nvalue = [1, 50]\nclass = 1", fillcolor="#3d9fe6"] ;
240 -> 241 ;
242 [label="gini = 0.0\nsamples = 47\nvalue = [0, 47]\nclass = 1", fillcolor="#399de5"] ;
241 -> 242 ;
243 [label="entropy <= 5.87\ngini = 0.375\nsamples = 4\nvalue = [1, 3]\nclass = 1", fillcolor="#7bbeee"] ;
241 -> 243 ;
244 [label="gini = 0.0\nsamples = 1\nvalue = [1, 0]\nclass = 0", fillcolor="#e58139"] ;
243 -> 244 ;
245 [label="gini = 0.0\nsamples = 3\nvalue = [0, 3]\nclass = 1", fillcolor="#399de5"] ;
243 -> 245 ;
246 [label="TCP_sport <= 50926.5\ngini = 0.32\nsamples = 10\nvalue = [2, 8]\nclass = 1", fillcolor="#6ab6ec"] ;
240 -> 246 ;
247 [label="gini = 0.0\nsamples = 7\nvalue = [0, 7]\nclass = 1", fillcolor="#399de5"] ;
246 -> 247 ;
248 [label="IP_id <= 6314.5\ngini = 0.444\nsamples = 3\nvalue = [2, 1]\nclass = 0", fillcolor="#f2c09c"] ;
246 -> 248 ;
249 [label="gini = 0.0\nsamples = 1\nvalue = [0, 1]\nclass = 1", fillcolor="#399de5"] ;
248 -> 249 ;
250 [label="gini = 0.0\nsamples = 2\nvalue = [2, 0]\nclass = 0", fillcolor="#e58139"] ;
248 -> 250 ;
251 [label="IP_id <= 58293.5\ngini = 0.444\nsamples = 3\nvalue = [2, 1]\nclass = 0", fillcolor="#f2c09c"] ;
207 -> 251 ;
252 [label="gini = 0.0\nsamples = 2\nvalue = [2, 0]\nclass = 0", fillcolor="#e58139"] ;
251 -> 252 ;
253 [label="gini = 0.0\nsamples = 1\nvalue = [0, 1]\nclass = 1", fillcolor="#399de5"] ;
251 -> 253 ;
254 [label="TCP_seq <= 4158578816.0\ngini = 0.496\nsamples = 11\nvalue = [6, 5]\nclass = 0", fillcolor="#fbeade"] ;
206 -> 254 ;
255 [label="gini = 0.0\nsamples = 5\nvalue = [5, 0]\nclass = 0", fillcolor="#e58139"] ;
254 -> 255 ;
256 [label="TCP_seq <= 4254904064.0\ngini = 0.278\nsamples = 6\nvalue = [1, 5]\nclass = 1", fillcolor="#61b1ea"] ;
254 -> 256 ;
257 [label="gini = 0.0\nsamples = 5\nvalue = [0, 5]\nclass = 1", fillcolor="#399de5"] ;
256 -> 257 ;
258 [label="gini = 0.0\nsamples = 1\nvalue = [1, 0]\nclass = 0", fillcolor="#e58139"] ;
256 -> 258 ;
259 [label="gini = 0.0\nsamples = 27\nvalue = [27, 0]\nclass = 0", fillcolor="#e58139"] ;
163 -> 259 ;
260 [label="gini = 0.0\nsamples = 41\nvalue = [41, 0]\nclass = 0", fillcolor="#e58139"] ;
162 -> 260 ;
}
