digraph Tree {
node [shape=box, style="filled", color="black"] ;
0 [label="sport <= 5344.5\ngini = 0.282\nsamples = 5400\nvalue = [4483, 917]\nclass = 0", fillcolor="#ea9b62"] ;
1 [label="pck_size <= 3.5\ngini = 0.087\nsamples = 2224\nvalue = [2123, 101]\nclass = 0", fillcolor="#e68742"] ;
0 -> 1 [labeldistance=2.5, labelangle=45, headlabel="True"] ;
2 [label="Protocol <= 12.0\ngini = 0.485\nsamples = 70\nvalue = [29, 41]\nclass = 1", fillcolor="#c5e2f7"] ;
1 -> 2 ;
3 [label="pck_size <= 0.5\ngini = 0.495\nsamples = 58\nvalue = [26, 32]\nclass = 1", fillcolor="#daedfa"] ;
2 -> 3 ;
4 [label="Protocol <= 8.5\ngini = 0.48\nsamples = 40\nvalue = [16, 24]\nclass = 1", fillcolor="#bddef6"] ;
3 -> 4 ;
5 [label="Protocol <= 3.5\ngini = 0.473\nsamples = 39\nvalue = [15, 24]\nclass = 1", fillcolor="#b5daf5"] ;
4 -> 5 ;
6 [label="gini = 0.444\nsamples = 3\nvalue = [2, 1]\nclass = 0", fillcolor="#f2c09c"] ;
5 -> 6 ;
7 [label="Protocol <= 5.5\ngini = 0.461\nsamples = 36\nvalue = [13, 23]\nclass = 1", fillcolor="#a9d4f4"] ;
5 -> 7 ;
8 [label="gini = 0.451\nsamples = 32\nvalue = [11, 21]\nclass = 1", fillcolor="#a1d0f3"] ;
7 -> 8 ;
9 [label="gini = 0.5\nsamples = 4\nvalue = [2, 2]\nclass = 0", fillcolor="#ffffff"] ;
7 -> 9 ;
10 [label="gini = 0.0\nsamples = 1\nvalue = [1, 0]\nclass = 0", fillcolor="#e58139"] ;
4 -> 10 ;
11 [label="Protocol <= 3.5\ngini = 0.494\nsamples = 18\nvalue = [10, 8]\nclass = 0", fillcolor="#fae6d7"] ;
3 -> 11 ;
12 [label="gini = 0.0\nsamples = 1\nvalue = [0, 1]\nclass = 1", fillcolor="#399de5"] ;
11 -> 12 ;
13 [label="Protocol <= 7.0\ngini = 0.484\nsamples = 17\nvalue = [10, 7]\nclass = 0", fillcolor="#f7d9c4"] ;
11 -> 13 ;
14 [label="gini = 0.48\nsamples = 15\nvalue = [9, 6]\nclass = 0", fillcolor="#f6d5bd"] ;
13 -> 14 ;
15 [label="gini = 0.5\nsamples = 2\nvalue = [1, 1]\nclass = 0", fillcolor="#ffffff"] ;
13 -> 15 ;
16 [label="pck_size <= 0.5\ngini = 0.375\nsamples = 12\nvalue = [3, 9]\nclass = 1", fillcolor="#7bbeee"] ;
2 -> 16 ;
17 [label="Protocol <= 15.0\ngini = 0.469\nsamples = 8\nvalue = [3, 5]\nclass = 1", fillcolor="#b0d8f5"] ;
16 -> 17 ;
18 [label="gini = 0.32\nsamples = 5\nvalue = [1, 4]\nclass = 1", fillcolor="#6ab6ec"] ;
17 -> 18 ;
19 [label="gini = 0.444\nsamples = 3\nvalue = [2, 1]\nclass = 0", fillcolor="#f2c09c"] ;
17 -> 19 ;
20 [label="gini = 0.0\nsamples = 4\nvalue = [0, 4]\nclass = 1", fillcolor="#399de5"] ;
16 -> 20 ;
21 [label="IP_len <= 1460.0\ngini = 0.054\nsamples = 2154\nvalue = [2094, 60]\nclass = 0", fillcolor="#e6853f"] ;
1 -> 21 ;
22 [label="IP_ihl <= 5.5\ngini = 0.051\nsamples = 2145\nvalue = [2089, 56]\nclass = 0", fillcolor="#e6843e"] ;
21 -> 22 ;
23 [label="TCP_window <= 4346.0\ngini = 0.04\nsamples = 2047\nvalue = [2005, 42]\nclass = 0", fillcolor="#e6843d"] ;
22 -> 23 ;
24 [label="BOOTP_xid <= 401503600.0\ngini = 0.014\nsamples = 1410\nvalue = [1400, 10]\nclass = 0", fillcolor="#e5823a"] ;
23 -> 24 ;
25 [label="TCP_chksum <= 53711.0\ngini = 0.009\nsamples = 1352\nvalue = [1346, 6]\nclass = 0", fillcolor="#e5823a"] ;
24 -> 25 ;
26 [label="TCP_seq <= 4222943616.0\ngini = 0.003\nsamples = 1164\nvalue = [1162, 2]\nclass = 0", fillcolor="#e58139"] ;
25 -> 26 ;
27 [label="TCP_seq <= 3216868096.0\ngini = 0.002\nsamples = 1146\nvalue = [1145, 1]\nclass = 0", fillcolor="#e58139"] ;
26 -> 27 ;
28 [label="gini = 0.0\nsamples = 969\nvalue = [969, 0]\nclass = 0", fillcolor="#e58139"] ;
27 -> 28 ;
29 [label="TCP_seq <= 3227553536.0\ngini = 0.011\nsamples = 177\nvalue = [176, 1]\nclass = 0", fillcolor="#e5823a"] ;
27 -> 29 ;
30 [label="gini = 0.0\nsamples = 1\nvalue = [0, 1]\nclass = 1", fillcolor="#399de5"] ;
29 -> 30 ;
31 [label="gini = 0.0\nsamples = 176\nvalue = [176, 0]\nclass = 0", fillcolor="#e58139"] ;
29 -> 31 ;
32 [label="TCP_seq <= 4224733824.0\ngini = 0.105\nsamples = 18\nvalue = [17, 1]\nclass = 0", fillcolor="#e78845"] ;
26 -> 32 ;
33 [label="gini = 0.0\nsamples = 1\nvalue = [0, 1]\nclass = 1", fillcolor="#399de5"] ;
32 -> 33 ;
34 [label="gini = 0.0\nsamples = 17\nvalue = [17, 0]\nclass = 0", fillcolor="#e58139"] ;
32 -> 34 ;
35 [label="TCP_chksum <= 53742.5\ngini = 0.042\nsamples = 188\nvalue = [184, 4]\nclass = 0", fillcolor="#e6843d"] ;
25 -> 35 ;
36 [label="gini = 0.0\nsamples = 1\nvalue = [0, 1]\nclass = 1", fillcolor="#399de5"] ;
35 -> 36 ;
37 [label="TCP_window <= 3671.5\ngini = 0.032\nsamples = 187\nvalue = [184, 3]\nclass = 0", fillcolor="#e5833c"] ;
35 -> 37 ;
38 [label="dport <= 46745.0\ngini = 0.185\nsamples = 29\nvalue = [26, 3]\nclass = 0", fillcolor="#e89050"] ;
37 -> 38 ;
39 [label="gini = 0.0\nsamples = 26\nvalue = [26, 0]\nclass = 0", fillcolor="#e58139"] ;
38 -> 39 ;
40 [label="gini = 0.0\nsamples = 3\nvalue = [0, 3]\nclass = 1", fillcolor="#399de5"] ;
38 -> 40 ;
41 [label="gini = 0.0\nsamples = 158\nvalue = [158, 0]\nclass = 0", fillcolor="#e58139"] ;
37 -> 41 ;
42 [label="BOOTP_xid <= 482008192.0\ngini = 0.128\nsamples = 58\nvalue = [54, 4]\nclass = 0", fillcolor="#e78a48"] ;
24 -> 42 ;
43 [label="gini = 0.0\nsamples = 1\nvalue = [0, 1]\nclass = 1", fillcolor="#399de5"] ;
42 -> 43 ;
44 [label="Protocol <= 3.5\ngini = 0.1\nsamples = 57\nvalue = [54, 3]\nclass = 0", fillcolor="#e68844"] ;
42 -> 44 ;
45 [label="UDP_chksum <= 11732.0\ngini = 0.5\nsamples = 4\nvalue = [2, 2]\nclass = 0", fillcolor="#ffffff"] ;
44 -> 45 ;
46 [label="gini = 0.0\nsamples = 2\nvalue = [2, 0]\nclass = 0", fillcolor="#e58139"] ;
45 -> 46 ;
47 [label="gini = 0.0\nsamples = 2\nvalue = [0, 2]\nclass = 1", fillcolor="#399de5"] ;
45 -> 47 ;
48 [label="Protocol <= 16.5\ngini = 0.037\nsamples = 53\nvalue = [52, 1]\nclass = 0", fillcolor="#e6833d"] ;
44 -> 48 ;
49 [label="gini = 0.0\nsamples = 49\nvalue = [49, 0]\nclass = 0", fillcolor="#e58139"] ;
48 -> 49 ;
50 [label="UDP_chksum <= 31042.0\ngini = 0.375\nsamples = 4\nvalue = [3, 1]\nclass = 0", fillcolor="#eeab7b"] ;
48 -> 50 ;
51 [label="gini = 0.0\nsamples = 3\nvalue = [3, 0]\nclass = 0", fillcolor="#e58139"] ;
50 -> 51 ;
52 [label="gini = 0.0\nsamples = 1\nvalue = [0, 1]\nclass = 1", fillcolor="#399de5"] ;
50 -> 52 ;
53 [label="TCP_window <= 5525.5\ngini = 0.095\nsamples = 637\nvalue = [605, 32]\nclass = 0", fillcolor="#e68843"] ;
23 -> 53 ;
54 [label="gini = 0.0\nsamples = 16\nvalue = [0, 16]\nclass = 1", fillcolor="#399de5"] ;
53 -> 54 ;
55 [label="TCP_window <= 8131.5\ngini = 0.05\nsamples = 621\nvalue = [605, 16]\nclass = 0", fillcolor="#e6843e"] ;
53 -> 55 ;
56 [label="sport <= 1598.0\ngini = 0.203\nsamples = 96\nvalue = [85, 11]\nclass = 0", fillcolor="#e89153"] ;
55 -> 56 ;
57 [label="IP_id <= 3019.5\ngini = 0.337\nsamples = 14\nvalue = [3, 11]\nclass = 1", fillcolor="#6fb8ec"] ;
56 -> 57 ;
58 [label="dport_class <= 12.5\ngini = 0.5\nsamples = 6\nvalue = [3, 3]\nclass = 0", fillcolor="#ffffff"] ;
57 -> 58 ;
59 [label="TCP_chksum <= 27391.5\ngini = 0.375\nsamples = 4\nvalue = [3, 1]\nclass = 0", fillcolor="#eeab7b"] ;
58 -> 59 ;
60 [label="gini = 0.0\nsamples = 1\nvalue = [0, 1]\nclass = 1", fillcolor="#399de5"] ;
59 -> 60 ;
61 [label="gini = 0.0\nsamples = 3\nvalue = [3, 0]\nclass = 0", fillcolor="#e58139"] ;
59 -> 61 ;
62 [label="gini = 0.0\nsamples = 2\nvalue = [0, 2]\nclass = 1", fillcolor="#399de5"] ;
58 -> 62 ;
63 [label="gini = 0.0\nsamples = 8\nvalue = [0, 8]\nclass = 1", fillcolor="#399de5"] ;
57 -> 63 ;
64 [label="gini = 0.0\nsamples = 82\nvalue = [82, 0]\nclass = 0", fillcolor="#e58139"] ;
56 -> 64 ;
65 [label="TCP_FIN <= 0.5\ngini = 0.019\nsamples = 525\nvalue = [520, 5]\nclass = 0", fillcolor="#e5823b"] ;
55 -> 65 ;
66 [label="TCP_chksum <= 358.5\ngini = 0.012\nsamples = 514\nvalue = [511, 3]\nclass = 0", fillcolor="#e5823a"] ;
65 -> 66 ;
67 [label="TCP_chksum <= 273.5\ngini = 0.375\nsamples = 4\nvalue = [3, 1]\nclass = 0", fillcolor="#eeab7b"] ;
66 -> 67 ;
68 [label="gini = 0.0\nsamples = 3\nvalue = [3, 0]\nclass = 0", fillcolor="#e58139"] ;
67 -> 68 ;
69 [label="gini = 0.0\nsamples = 1\nvalue = [0, 1]\nclass = 1", fillcolor="#399de5"] ;
67 -> 69 ;
70 [label="TCP_ack <= 221861616.0\ngini = 0.008\nsamples = 510\nvalue = [508, 2]\nclass = 0", fillcolor="#e5813a"] ;
66 -> 70 ;
71 [label="TCP_ack <= 212872304.0\ngini = 0.067\nsamples = 29\nvalue = [28, 1]\nclass = 0", fillcolor="#e68640"] ;
70 -> 71 ;
72 [label="gini = 0.0\nsamples = 28\nvalue = [28, 0]\nclass = 0", fillcolor="#e58139"] ;
71 -> 72 ;
73 [label="gini = 0.0\nsamples = 1\nvalue = [0, 1]\nclass = 1", fillcolor="#399de5"] ;
71 -> 73 ;
74 [label="Protocol <= 10.5\ngini = 0.004\nsamples = 481\nvalue = [480, 1]\nclass = 0", fillcolor="#e58139"] ;
70 -> 74 ;
75 [label="gini = 0.0\nsamples = 438\nvalue = [438, 0]\nclass = 0", fillcolor="#e58139"] ;
74 -> 75 ;
76 [label="Protocol <= 11.5\ngini = 0.045\nsamples = 43\nvalue = [42, 1]\nclass = 0", fillcolor="#e6843e"] ;
74 -> 76 ;
77 [label="TCP_seq <= 1342910608.0\ngini = 0.5\nsamples = 2\nvalue = [1, 1]\nclass = 0", fillcolor="#ffffff"] ;
76 -> 77 ;
78 [label="gini = 0.0\nsamples = 1\nvalue = [1, 0]\nclass = 0", fillcolor="#e58139"] ;
77 -> 78 ;
79 [label="gini = 0.0\nsamples = 1\nvalue = [0, 1]\nclass = 1", fillcolor="#399de5"] ;
77 -> 79 ;
80 [label="gini = 0.0\nsamples = 41\nvalue = [41, 0]\nclass = 0", fillcolor="#e58139"] ;
76 -> 80 ;
81 [label="TCP_sport <= 1684.5\ngini = 0.298\nsamples = 11\nvalue = [9, 2]\nclass = 0", fillcolor="#eb9d65"] ;
65 -> 81 ;
82 [label="gini = 0.0\nsamples = 2\nvalue = [0, 2]\nclass = 1", fillcolor="#399de5"] ;
81 -> 82 ;
83 [label="gini = 0.0\nsamples = 9\nvalue = [9, 0]\nclass = 0", fillcolor="#e58139"] ;
81 -> 83 ;
84 [label="entropy <= 2.43\ngini = 0.245\nsamples = 98\nvalue = [84, 14]\nclass = 0", fillcolor="#e9965a"] ;
22 -> 84 ;
85 [label="entropy <= 2.207\ngini = 0.136\nsamples = 68\nvalue = [63, 5]\nclass = 0", fillcolor="#e78b49"] ;
84 -> 85 ;
86 [label="Protocol <= 5.5\ngini = 0.444\nsamples = 3\nvalue = [2, 1]\nclass = 0", fillcolor="#f2c09c"] ;
85 -> 86 ;
87 [label="gini = 0.0\nsamples = 1\nvalue = [0, 1]\nclass = 1", fillcolor="#399de5"] ;
86 -> 87 ;
88 [label="gini = 0.0\nsamples = 2\nvalue = [2, 0]\nclass = 0", fillcolor="#e58139"] ;
86 -> 88 ;
89 [label="Protocol <= 3.5\ngini = 0.116\nsamples = 65\nvalue = [61, 4]\nclass = 0", fillcolor="#e78946"] ;
85 -> 89 ;
90 [label="Protocol <= 2.0\ngini = 0.444\nsamples = 3\nvalue = [2, 1]\nclass = 0", fillcolor="#f2c09c"] ;
89 -> 90 ;
91 [label="gini = 0.0\nsamples = 1\nvalue = [1, 0]\nclass = 0", fillcolor="#e58139"] ;
90 -> 91 ;
92 [label="gini = 0.5\nsamples = 2\nvalue = [1, 1]\nclass = 0", fillcolor="#ffffff"] ;
90 -> 92 ;
93 [label="Protocol <= 4.5\ngini = 0.092\nsamples = 62\nvalue = [59, 3]\nclass = 0", fillcolor="#e68743"] ;
89 -> 93 ;
94 [label="IP_DF <= 0.5\ngini = 0.127\nsamples = 44\nvalue = [41, 3]\nclass = 0", fillcolor="#e78a47"] ;
93 -> 94 ;
95 [label="gini = 0.0\nsamples = 3\nvalue = [3, 0]\nclass = 0", fillcolor="#e58139"] ;
94 -> 95 ;
96 [label="gini = 0.136\nsamples = 41\nvalue = [38, 3]\nclass = 0", fillcolor="#e78b49"] ;
94 -> 96 ;
97 [label="gini = 0.0\nsamples = 18\nvalue = [18, 0]\nclass = 0", fillcolor="#e58139"] ;
93 -> 97 ;
98 [label="Protocol <= 15.0\ngini = 0.42\nsamples = 30\nvalue = [21, 9]\nclass = 0", fillcolor="#f0b78e"] ;
84 -> 98 ;
99 [label="Protocol <= 4.5\ngini = 0.375\nsamples = 28\nvalue = [21, 7]\nclass = 0", fillcolor="#eeab7b"] ;
98 -> 99 ;
100 [label="pck_size <= 52.0\ngini = 0.475\nsamples = 18\nvalue = [11, 7]\nclass = 0", fillcolor="#f6d1b7"] ;
99 -> 100 ;
101 [label="entropy <= 2.678\ngini = 0.457\nsamples = 17\nvalue = [11, 6]\nclass = 0", fillcolor="#f3c6a5"] ;
100 -> 101 ;
102 [label="Protocol <= 2.5\ngini = 0.469\nsamples = 16\nvalue = [10, 6]\nclass = 0", fillcolor="#f5cdb0"] ;
101 -> 102 ;
103 [label="gini = 0.0\nsamples = 1\nvalue = [1, 0]\nclass = 0", fillcolor="#e58139"] ;
102 -> 103 ;
104 [label="payload_bytes <= 20.0\ngini = 0.48\nsamples = 15\nvalue = [9, 6]\nclass = 0", fillcolor="#f6d5bd"] ;
102 -> 104 ;
105 [label="gini = 0.459\nsamples = 14\nvalue = [9, 5]\nclass = 0", fillcolor="#f3c7a7"] ;
104 -> 105 ;
106 [label="gini = 0.0\nsamples = 1\nvalue = [0, 1]\nclass = 1", fillcolor="#399de5"] ;
104 -> 106 ;
107 [label="gini = 0.0\nsamples = 1\nvalue = [1, 0]\nclass = 0", fillcolor="#e58139"] ;
101 -> 107 ;
108 [label="gini = 0.0\nsamples = 1\nvalue = [0, 1]\nclass = 1", fillcolor="#399de5"] ;
100 -> 108 ;
109 [label="gini = 0.0\nsamples = 10\nvalue = [10, 0]\nclass = 0", fillcolor="#e58139"] ;
99 -> 109 ;
110 [label="gini = 0.0\nsamples = 2\nvalue = [0, 2]\nclass = 1", fillcolor="#399de5"] ;
98 -> 110 ;
111 [label="entropy <= 4.868\ngini = 0.494\nsamples = 9\nvalue = [5, 4]\nclass = 0", fillcolor="#fae6d7"] ;
21 -> 111 ;
112 [label="gini = 0.0\nsamples = 3\nvalue = [0, 3]\nclass = 1", fillcolor="#399de5"] ;
111 -> 112 ;
113 [label="TCP_seq <= 3701196928.0\ngini = 0.278\nsamples = 6\nvalue = [5, 1]\nclass = 0", fillcolor="#ea9a61"] ;
111 -> 113 ;
114 [label="gini = 0.0\nsamples = 5\nvalue = [5, 0]\nclass = 0", fillcolor="#e58139"] ;
113 -> 114 ;
115 [label="gini = 0.0\nsamples = 1\nvalue = [0, 1]\nclass = 1", fillcolor="#399de5"] ;
113 -> 115 ;
116 [label="payload_bytes <= 5.5\ngini = 0.382\nsamples = 3176\nvalue = [2360, 816]\nclass = 0", fillcolor="#eead7d"] ;
0 -> 116 [labeldistance=2.5, labelangle=-45, headlabel="False"] ;
117 [label="IP_len <= 48.0\ngini = 0.244\nsamples = 1347\nvalue = [1155, 192]\nclass = 0", fillcolor="#e9965a"] ;
116 -> 117 ;
118 [label="gini = 0.0\nsamples = 519\nvalue = [519, 0]\nclass = 0", fillcolor="#e58139"] ;
117 -> 118 ;
119 [label="TCP_window <= 8684.0\ngini = 0.356\nsamples = 828\nvalue = [636, 192]\nclass = 0", fillcolor="#eda775"] ;
117 -> 119 ;
120 [label="TCP_window <= 7042.0\ngini = 0.412\nsamples = 661\nvalue = [469, 192]\nclass = 0", fillcolor="#f0b58a"] ;
119 -> 120 ;
121 [label="TCP_window <= 3479.5\ngini = 0.385\nsamples = 634\nvalue = [469, 165]\nclass = 0", fillcolor="#eead7f"] ;
120 -> 121 ;
122 [label="TCP_window <= 3444.0\ngini = 0.498\nsamples = 161\nvalue = [86, 75]\nclass = 0", fillcolor="#fcefe6"] ;
121 -> 122 ;
123 [label="Protocol <= 15.0\ngini = 0.431\nsamples = 102\nvalue = [70, 32]\nclass = 0", fillcolor="#f1bb94"] ;
122 -> 123 ;
124 [label="TCP_chksum <= 18085.5\ngini = 0.404\nsamples = 96\nvalue = [69, 27]\nclass = 0", fillcolor="#efb286"] ;
123 -> 124 ;
125 [label="TCP_sport <= 57462.0\ngini = 0.159\nsamples = 23\nvalue = [21, 2]\nclass = 0", fillcolor="#e78d4c"] ;
124 -> 125 ;
126 [label="TCP_ack <= 4126278912.0\ngini = 0.087\nsamples = 22\nvalue = [21, 1]\nclass = 0", fillcolor="#e68742"] ;
125 -> 126 ;
127 [label="gini = 0.0\nsamples = 21\nvalue = [21, 0]\nclass = 0", fillcolor="#e58139"] ;
126 -> 127 ;
128 [label="gini = 0.0\nsamples = 1\nvalue = [0, 1]\nclass = 1", fillcolor="#399de5"] ;
126 -> 128 ;
129 [label="gini = 0.0\nsamples = 1\nvalue = [0, 1]\nclass = 1", fillcolor="#399de5"] ;
125 -> 129 ;
130 [label="TCP_chksum <= 26805.0\ngini = 0.45\nsamples = 73\nvalue = [48, 25]\nclass = 0", fillcolor="#f3c3a0"] ;
124 -> 130 ;
131 [label="TCP_dport <= 261.5\ngini = 0.408\nsamples = 14\nvalue = [4, 10]\nclass = 1", fillcolor="#88c4ef"] ;
130 -> 131 ;
132 [label="TCP_chksum <= 25641.5\ngini = 0.375\nsamples = 4\nvalue = [3, 1]\nclass = 0", fillcolor="#eeab7b"] ;
131 -> 132 ;
133 [label="gini = 0.0\nsamples = 3\nvalue = [3, 0]\nclass = 0", fillcolor="#e58139"] ;
132 -> 133 ;
134 [label="gini = 0.0\nsamples = 1\nvalue = [0, 1]\nclass = 1", fillcolor="#399de5"] ;
132 -> 134 ;
135 [label="sport <= 21430.5\ngini = 0.18\nsamples = 10\nvalue = [1, 9]\nclass = 1", fillcolor="#4fa8e8"] ;
131 -> 135 ;
136 [label="gini = 0.0\nsamples = 1\nvalue = [1, 0]\nclass = 0", fillcolor="#e58139"] ;
135 -> 136 ;
137 [label="gini = 0.0\nsamples = 9\nvalue = [0, 9]\nclass = 1", fillcolor="#399de5"] ;
135 -> 137 ;
138 [label="TCP_ack <= 266667880.0\ngini = 0.379\nsamples = 59\nvalue = [44, 15]\nclass = 0", fillcolor="#eeac7c"] ;
130 -> 138 ;
139 [label="IP_id <= 6349.0\ngini = 0.375\nsamples = 4\nvalue = [1, 3]\nclass = 1", fillcolor="#7bbeee"] ;
138 -> 139 ;
140 [label="gini = 0.0\nsamples = 1\nvalue = [1, 0]\nclass = 0", fillcolor="#e58139"] ;
139 -> 140 ;
141 [label="gini = 0.0\nsamples = 3\nvalue = [0, 3]\nclass = 1", fillcolor="#399de5"] ;
139 -> 141 ;
142 [label="sport <= 53733.0\ngini = 0.341\nsamples = 55\nvalue = [43, 12]\nclass = 0", fillcolor="#eca470"] ;
138 -> 142 ;
143 [label="IP_id <= 63346.5\ngini = 0.234\nsamples = 37\nvalue = [32, 5]\nclass = 0", fillcolor="#e99558"] ;
142 -> 143 ;
144 [label="TCP_ack <= 601583424.0\ngini = 0.198\nsamples = 36\nvalue = [32, 4]\nclass = 0", fillcolor="#e89152"] ;
143 -> 144 ;
145 [label="TCP_seq <= 1411519040.0\ngini = 0.444\nsamples = 6\nvalue = [4, 2]\nclass = 0", fillcolor="#f2c09c"] ;
144 -> 145 ;
146 [label="TCP_sport <= 44870.0\ngini = 0.444\nsamples = 3\nvalue = [1, 2]\nclass = 1", fillcolor="#9ccef2"] ;
145 -> 146 ;
147 [label="gini = 0.0\nsamples = 2\nvalue = [0, 2]\nclass = 1", fillcolor="#399de5"] ;
146 -> 147 ;
148 [label="gini = 0.0\nsamples = 1\nvalue = [1, 0]\nclass = 0", fillcolor="#e58139"] ;
146 -> 148 ;
149 [label="gini = 0.0\nsamples = 3\nvalue = [3, 0]\nclass = 0", fillcolor="#e58139"] ;
145 -> 149 ;
150 [label="TCP_seq <= 3809479424.0\ngini = 0.124\nsamples = 30\nvalue = [28, 2]\nclass = 0", fillcolor="#e78a47"] ;
144 -> 150 ;
151 [label="IP_id <= 9355.5\ngini = 0.069\nsamples = 28\nvalue = [27, 1]\nclass = 0", fillcolor="#e68640"] ;
150 -> 151 ;
152 [label="IP_id <= 7278.5\ngini = 0.278\nsamples = 6\nvalue = [5, 1]\nclass = 0", fillcolor="#ea9a61"] ;
151 -> 152 ;
153 [label="gini = 0.0\nsamples = 5\nvalue = [5, 0]\nclass = 0", fillcolor="#e58139"] ;
152 -> 153 ;
154 [label="gini = 0.0\nsamples = 1\nvalue = [0, 1]\nclass = 1", fillcolor="#399de5"] ;
152 -> 154 ;
155 [label="gini = 0.0\nsamples = 22\nvalue = [22, 0]\nclass = 0", fillcolor="#e58139"] ;
151 -> 155 ;
156 [label="sport <= 42009.0\ngini = 0.5\nsamples = 2\nvalue = [1, 1]\nclass = 0", fillcolor="#ffffff"] ;
150 -> 156 ;
157 [label="gini = 0.0\nsamples = 1\nvalue = [0, 1]\nclass = 1", fillcolor="#399de5"] ;
156 -> 157 ;
158 [label="gini = 0.0\nsamples = 1\nvalue = [1, 0]\nclass = 0", fillcolor="#e58139"] ;
156 -> 158 ;
159 [label="gini = 0.0\nsamples = 1\nvalue = [0, 1]\nclass = 1", fillcolor="#399de5"] ;
143 -> 159 ;
160 [label="sport <= 54725.0\ngini = 0.475\nsamples = 18\nvalue = [11, 7]\nclass = 0", fillcolor="#f6d1b7"] ;
142 -> 160 ;
161 [label="gini = 0.0\nsamples = 3\nvalue = [0, 3]\nclass = 1", fillcolor="#399de5"] ;
160 -> 161 ;
162 [label="TCP_ack <= 3189081472.0\ngini = 0.391\nsamples = 15\nvalue = [11, 4]\nclass = 0", fillcolor="#eeaf81"] ;
160 -> 162 ;
163 [label="TCP_sport <= 59953.0\ngini = 0.165\nsamples = 11\nvalue = [10, 1]\nclass = 0", fillcolor="#e88e4d"] ;
162 -> 163 ;
164 [label="gini = 0.0\nsamples = 10\nvalue = [10, 0]\nclass = 0", fillcolor="#e58139"] ;
163 -> 164 ;
165 [label="gini = 0.0\nsamples = 1\nvalue = [0, 1]\nclass = 1", fillcolor="#399de5"] ;
163 -> 165 ;
166 [label="sport <= 56898.0\ngini = 0.375\nsamples = 4\nvalue = [1, 3]\nclass = 1", fillcolor="#7bbeee"] ;
162 -> 166 ;
167 [label="gini = 0.0\nsamples = 1\nvalue = [1, 0]\nclass = 0", fillcolor="#e58139"] ;
166 -> 167 ;
168 [label="gini = 0.0\nsamples = 3\nvalue = [0, 3]\nclass = 1", fillcolor="#399de5"] ;
166 -> 168 ;
169 [label="sport <= 55787.5\ngini = 0.278\nsamples = 6\nvalue = [1, 5]\nclass = 1", fillcolor="#61b1ea"] ;
123 -> 169 ;
170 [label="gini = 0.0\nsamples = 5\nvalue = [0, 5]\nclass = 1", fillcolor="#399de5"] ;
169 -> 170 ;
171 [label="gini = 0.0\nsamples = 1\nvalue = [1, 0]\nclass = 0", fillcolor="#e58139"] ;
169 -> 171 ;
172 [label="TCP_seq <= 3595962624.0\ngini = 0.395\nsamples = 59\nvalue = [16, 43]\nclass = 1", fillcolor="#83c1ef"] ;
122 -> 172 ;
173 [label="TCP_seq <= 57446986.0\ngini = 0.346\nsamples = 54\nvalue = [12, 42]\nclass = 1", fillcolor="#72b9ec"] ;
172 -> 173 ;
174 [label="gini = 0.0\nsamples = 2\nvalue = [2, 0]\nclass = 0", fillcolor="#e58139"] ;
173 -> 174 ;
175 [label="TCP_sport <= 36839.0\ngini = 0.311\nsamples = 52\nvalue = [10, 42]\nclass = 1", fillcolor="#68b4eb"] ;
173 -> 175 ;
176 [label="dport_class <= 6.0\ngini = 0.49\nsamples = 7\nvalue = [4, 3]\nclass = 0", fillcolor="#f8e0ce"] ;
175 -> 176 ;
177 [label="gini = 0.0\nsamples = 3\nvalue = [3, 0]\nclass = 0", fillcolor="#e58139"] ;
176 -> 177 ;
178 [label="sport <= 35678.0\ngini = 0.375\nsamples = 4\nvalue = [1, 3]\nclass = 1", fillcolor="#7bbeee"] ;
176 -> 178 ;
179 [label="gini = 0.0\nsamples = 3\nvalue = [0, 3]\nclass = 1", fillcolor="#399de5"] ;
178 -> 179 ;
180 [label="gini = 0.0\nsamples = 1\nvalue = [1, 0]\nclass = 0", fillcolor="#e58139"] ;
178 -> 180 ;
181 [label="IP_id <= 56061.0\ngini = 0.231\nsamples = 45\nvalue = [6, 39]\nclass = 1", fillcolor="#57ace9"] ;
175 -> 181 ;
182 [label="TCP_chksum <= 36227.5\ngini = 0.142\nsamples = 39\nvalue = [3, 36]\nclass = 1", fillcolor="#49a5e7"] ;
181 -> 182 ;
183 [label="gini = 0.0\nsamples = 22\nvalue = [0, 22]\nclass = 1", fillcolor="#399de5"] ;
182 -> 183 ;
184 [label="TCP_seq <= 2608100352.0\ngini = 0.291\nsamples = 17\nvalue = [3, 14]\nclass = 1", fillcolor="#63b2eb"] ;
182 -> 184 ;
185 [label="TCP_chksum <= 48746.0\ngini = 0.124\nsamples = 15\nvalue = [1, 14]\nclass = 1", fillcolor="#47a4e7"] ;
184 -> 185 ;
186 [label="TCP_FIN <= 0.5\ngini = 0.444\nsamples = 3\nvalue = [1, 2]\nclass = 1", fillcolor="#9ccef2"] ;
185 -> 186 ;
187 [label="gini = 0.0\nsamples = 2\nvalue = [0, 2]\nclass = 1", fillcolor="#399de5"] ;
186 -> 187 ;
188 [label="gini = 0.0\nsamples = 1\nvalue = [1, 0]\nclass = 0", fillcolor="#e58139"] ;
186 -> 188 ;
189 [label="gini = 0.0\nsamples = 12\nvalue = [0, 12]\nclass = 1", fillcolor="#399de5"] ;
185 -> 189 ;
190 [label="gini = 0.0\nsamples = 2\nvalue = [2, 0]\nclass = 0", fillcolor="#e58139"] ;
184 -> 190 ;
191 [label="Protocol <= 5.5\ngini = 0.5\nsamples = 6\nvalue = [3, 3]\nclass = 0", fillcolor="#ffffff"] ;
181 -> 191 ;
192 [label="gini = 0.0\nsamples = 3\nvalue = [3, 0]\nclass = 0", fillcolor="#e58139"] ;
191 -> 192 ;
193 [label="gini = 0.0\nsamples = 3\nvalue = [0, 3]\nclass = 1", fillcolor="#399de5"] ;
191 -> 193 ;
194 [label="TCP_ack <= 3448266112.0\ngini = 0.32\nsamples = 5\nvalue = [4, 1]\nclass = 0", fillcolor="#eca06a"] ;
172 -> 194 ;
195 [label="gini = 0.0\nsamples = 4\nvalue = [4, 0]\nclass = 0", fillcolor="#e58139"] ;
194 -> 195 ;
196 [label="gini = 0.0\nsamples = 1\nvalue = [0, 1]\nclass = 1", fillcolor="#399de5"] ;
194 -> 196 ;
197 [label="TCP_window <= 4036.0\ngini = 0.308\nsamples = 473\nvalue = [383, 90]\nclass = 0", fillcolor="#eb9f68"] ;
121 -> 197 ;
198 [label="gini = 0.0\nsamples = 165\nvalue = [165, 0]\nclass = 0", fillcolor="#e58139"] ;
197 -> 198 ;
199 [label="TCP_window <= 6432.0\ngini = 0.414\nsamples = 308\nvalue = [218, 90]\nclass = 0", fillcolor="#f0b58b"] ;
197 -> 199 ;
200 [label="Protocol <= 15.0\ngini = 0.478\nsamples = 159\nvalue = [96, 63]\nclass = 0", fillcolor="#f6d4bb"] ;
199 -> 200 ;
201 [label="TCP_seq <= 1777257536.0\ngini = 0.457\nsamples = 147\nvalue = [95, 52]\nclass = 0", fillcolor="#f3c6a5"] ;
200 -> 201 ;
202 [label="sport <= 46912.5\ngini = 0.338\nsamples = 51\nvalue = [40, 11]\nclass = 0", fillcolor="#eca46f"] ;
201 -> 202 ;
203 [label="Protocol <= 5.5\ngini = 0.475\nsamples = 18\nvalue = [11, 7]\nclass = 0", fillcolor="#f6d1b7"] ;
202 -> 203 ;
204 [label="TCP_chksum <= 32965.0\ngini = 0.497\nsamples = 13\nvalue = [6, 7]\nclass = 1", fillcolor="#e3f1fb"] ;
203 -> 204 ;
205 [label="sport <= 46258.5\ngini = 0.408\nsamples = 7\nvalue = [5, 2]\nclass = 0", fillcolor="#efb388"] ;
204 -> 205 ;
206 [label="TCP_seq <= 1160054848.0\ngini = 0.278\nsamples = 6\nvalue = [5, 1]\nclass = 0", fillcolor="#ea9a61"] ;
205 -> 206 ;
207 [label="gini = 0.0\nsamples = 4\nvalue = [4, 0]\nclass = 0", fillcolor="#e58139"] ;
206 -> 207 ;
208 [label="sport <= 42053.0\ngini = 0.5\nsamples = 2\nvalue = [1, 1]\nclass = 0", fillcolor="#ffffff"] ;
206 -> 208 ;
209 [label="gini = 0.0\nsamples = 1\nvalue = [0, 1]\nclass = 1", fillcolor="#399de5"] ;
208 -> 209 ;
210 [label="gini = 0.0\nsamples = 1\nvalue = [1, 0]\nclass = 0", fillcolor="#e58139"] ;
208 -> 210 ;
211 [label="gini = 0.0\nsamples = 1\nvalue = [0, 1]\nclass = 1", fillcolor="#399de5"] ;
205 -> 211 ;
212 [label="sport <= 42058.5\ngini = 0.278\nsamples = 6\nvalue = [1, 5]\nclass = 1", fillcolor="#61b1ea"] ;
204 -> 212 ;
213 [label="gini = 0.0\nsamples = 4\nvalue = [0, 4]\nclass = 1", fillcolor="#399de5"] ;
212 -> 213 ;
214 [label="TCP_chksum <= 41314.0\ngini = 0.5\nsamples = 2\nvalue = [1, 1]\nclass = 0", fillcolor="#ffffff"] ;
212 -> 214 ;
215 [label="gini = 0.0\nsamples = 1\nvalue = [0, 1]\nclass = 1", fillcolor="#399de5"] ;
214 -> 215 ;
216 [label="gini = 0.0\nsamples = 1\nvalue = [1, 0]\nclass = 0", fillcolor="#e58139"] ;
214 -> 216 ;
217 [label="gini = 0.0\nsamples = 5\nvalue = [5, 0]\nclass = 0", fillcolor="#e58139"] ;
203 -> 217 ;
218 [label="TCP_chksum <= 1128.5\ngini = 0.213\nsamples = 33\nvalue = [29, 4]\nclass = 0", fillcolor="#e99254"] ;
202 -> 218 ;
219 [label="gini = 0.0\nsamples = 1\nvalue = [0, 1]\nclass = 1", fillcolor="#399de5"] ;
218 -> 219 ;
220 [label="TCP_dport <= 261.5\ngini = 0.17\nsamples = 32\nvalue = [29, 3]\nclass = 0", fillcolor="#e88e4d"] ;
218 -> 220 ;
221 [label="IP_id <= 15131.5\ngini = 0.5\nsamples = 4\nvalue = [2, 2]\nclass = 0", fillcolor="#ffffff"] ;
220 -> 221 ;
222 [label="gini = 0.0\nsamples = 2\nvalue = [2, 0]\nclass = 0", fillcolor="#e58139"] ;
221 -> 222 ;
223 [label="gini = 0.0\nsamples = 2\nvalue = [0, 2]\nclass = 1", fillcolor="#399de5"] ;
221 -> 223 ;
224 [label="IP_id <= 11679.5\ngini = 0.069\nsamples = 28\nvalue = [27, 1]\nclass = 0", fillcolor="#e68640"] ;
220 -> 224 ;
225 [label="TCP_sport <= 51521.5\ngini = 0.5\nsamples = 2\nvalue = [1, 1]\nclass = 0", fillcolor="#ffffff"] ;
224 -> 225 ;
226 [label="gini = 0.0\nsamples = 1\nvalue = [1, 0]\nclass = 0", fillcolor="#e58139"] ;
225 -> 226 ;
227 [label="gini = 0.0\nsamples = 1\nvalue = [0, 1]\nclass = 1", fillcolor="#399de5"] ;
225 -> 227 ;
228 [label="gini = 0.0\nsamples = 26\nvalue = [26, 0]\nclass = 0", fillcolor="#e58139"] ;
224 -> 228 ;
229 [label="TCP_seq <= 1889557760.0\ngini = 0.489\nsamples = 96\nvalue = [55, 41]\nclass = 0", fillcolor="#f8dfcd"] ;
201 -> 229 ;
230 [label="gini = 0.0\nsamples = 9\nvalue = [0, 9]\nclass = 1", fillcolor="#399de5"] ;
229 -> 230 ;
231 [label="TCP_chksum <= 53759.5\ngini = 0.465\nsamples = 87\nvalue = [55, 32]\nclass = 0", fillcolor="#f4caac"] ;
229 -> 231 ;
232 [label="sport <= 32972.5\ngini = 0.495\nsamples = 71\nvalue = [39, 32]\nclass = 0", fillcolor="#fae8db"] ;
231 -> 232 ;
233 [label="gini = 0.0\nsamples = 4\nvalue = [0, 4]\nclass = 1", fillcolor="#399de5"] ;
232 -> 233 ;
234 [label="sport <= 37991.0\ngini = 0.487\nsamples = 67\nvalue = [39, 28]\nclass = 0", fillcolor="#f8dbc7"] ;
232 -> 234 ;
235 [label="TCP_ack <= 1639840896.0\ngini = 0.142\nsamples = 13\nvalue = [12, 1]\nclass = 0", fillcolor="#e78c49"] ;
234 -> 235 ;
236 [label="gini = 0.0\nsamples = 12\nvalue = [12, 0]\nclass = 0", fillcolor="#e58139"] ;
235 -> 236 ;
237 [label="gini = 0.0\nsamples = 1\nvalue = [0, 1]\nclass = 1", fillcolor="#399de5"] ;
235 -> 237 ;
238 [label="TCP_window <= 5668.0\ngini = 0.5\nsamples = 54\nvalue = [27, 27]\nclass = 0", fillcolor="#ffffff"] ;
234 -> 238 ;
239 [label="TCP_chksum <= 22441.5\ngini = 0.455\nsamples = 20\nvalue = [7, 13]\nclass = 1", fillcolor="#a4d2f3"] ;
238 -> 239 ;
240 [label="TCP_ack <= 3742329472.0\ngini = 0.18\nsamples = 10\nvalue = [1, 9]\nclass = 1", fillcolor="#4fa8e8"] ;
239 -> 240 ;
241 [label="gini = 0.0\nsamples = 9\nvalue = [0, 9]\nclass = 1", fillcolor="#399de5"] ;
240 -> 241 ;
242 [label="gini = 0.0\nsamples = 1\nvalue = [1, 0]\nclass = 0", fillcolor="#e58139"] ;
240 -> 242 ;
243 [label="TCP_sport <= 45264.0\ngini = 0.48\nsamples = 10\nvalue = [6, 4]\nclass = 0", fillcolor="#f6d5bd"] ;
239 -> 243 ;
244 [label="TCP_chksum <= 34654.5\ngini = 0.48\nsamples = 5\nvalue = [2, 3]\nclass = 1", fillcolor="#bddef6"] ;
243 -> 244 ;
245 [label="gini = 0.0\nsamples = 2\nvalue = [2, 0]\nclass = 0", fillcolor="#e58139"] ;
244 -> 245 ;
246 [label="gini = 0.0\nsamples = 3\nvalue = [0, 3]\nclass = 1", fillcolor="#399de5"] ;
244 -> 246 ;
247 [label="IP_id <= 9602.0\ngini = 0.32\nsamples = 5\nvalue = [4, 1]\nclass = 0", fillcolor="#eca06a"] ;
243 -> 247 ;
248 [label="gini = 0.0\nsamples = 1\nvalue = [0, 1]\nclass = 1", fillcolor="#399de5"] ;
247 -> 248 ;
249 [label="gini = 0.0\nsamples = 4\nvalue = [4, 0]\nclass = 0", fillcolor="#e58139"] ;
247 -> 249 ;
250 [label="sport <= 50665.5\ngini = 0.484\nsamples = 34\nvalue = [20, 14]\nclass = 0", fillcolor="#f7d9c4"] ;
238 -> 250 ;
251 [label="TCP_chksum <= 12089.5\ngini = 0.49\nsamples = 21\nvalue = [9, 12]\nclass = 1", fillcolor="#cee6f8"] ;
250 -> 251 ;
252 [label="gini = 0.0\nsamples = 3\nvalue = [3, 0]\nclass = 0", fillcolor="#e58139"] ;
251 -> 252 ;
253 [label="TCP_seq <= 3606780672.0\ngini = 0.444\nsamples = 18\nvalue = [6, 12]\nclass = 1", fillcolor="#9ccef2"] ;
251 -> 253 ;
254 [label="Protocol <= 3.5\ngini = 0.278\nsamples = 12\nvalue = [2, 10]\nclass = 1", fillcolor="#61b1ea"] ;
253 -> 254 ;
255 [label="gini = 0.0\nsamples = 1\nvalue = [1, 0]\nclass = 0", fillcolor="#e58139"] ;
254 -> 255 ;
256 [label="TCP_chksum <= 17661.5\ngini = 0.165\nsamples = 11\nvalue = [1, 10]\nclass = 1", fillcolor="#4da7e8"] ;
254 -> 256 ;
257 [label="dport <= 261.5\ngini = 0.5\nsamples = 2\nvalue = [1, 1]\nclass = 0", fillcolor="#ffffff"] ;
256 -> 257 ;
258 [label="gini = 0.0\nsamples = 1\nvalue = [1, 0]\nclass = 0", fillcolor="#e58139"] ;
257 -> 258 ;
259 [label="gini = 0.0\nsamples = 1\nvalue = [0, 1]\nclass = 1", fillcolor="#399de5"] ;
257 -> 259 ;
260 [label="gini = 0.0\nsamples = 9\nvalue = [0, 9]\nclass = 1", fillcolor="#399de5"] ;
256 -> 260 ;
261 [label="TCP_chksum <= 38173.5\ngini = 0.444\nsamples = 6\nvalue = [4, 2]\nclass = 0", fillcolor="#f2c09c"] ;
253 -> 261 ;
262 [label="gini = 0.0\nsamples = 3\nvalue = [3, 0]\nclass = 0", fillcolor="#e58139"] ;
261 -> 262 ;
263 [label="sport <= 39659.5\ngini = 0.444\nsamples = 3\nvalue = [1, 2]\nclass = 1", fillcolor="#9ccef2"] ;
261 -> 263 ;
264 [label="gini = 0.0\nsamples = 1\nvalue = [1, 0]\nclass = 0", fillcolor="#e58139"] ;
263 -> 264 ;
265 [label="gini = 0.0\nsamples = 2\nvalue = [0, 2]\nclass = 1", fillcolor="#399de5"] ;
263 -> 265 ;
266 [label="IP_id <= 58444.5\ngini = 0.26\nsamples = 13\nvalue = [11, 2]\nclass = 0", fillcolor="#ea985d"] ;
250 -> 266 ;
267 [label="sport <= 59342.0\ngini = 0.153\nsamples = 12\nvalue = [11, 1]\nclass = 0", fillcolor="#e78c4b"] ;
266 -> 267 ;
268 [label="gini = 0.0\nsamples = 10\nvalue = [10, 0]\nclass = 0", fillcolor="#e58139"] ;
267 -> 268 ;
269 [label="IP_id <= 30724.5\ngini = 0.5\nsamples = 2\nvalue = [1, 1]\nclass = 0", fillcolor="#ffffff"] ;
267 -> 269 ;
270 [label="gini = 0.0\nsamples = 1\nvalue = [0, 1]\nclass = 1", fillcolor="#399de5"] ;
269 -> 270 ;
271 [label="gini = 0.0\nsamples = 1\nvalue = [1, 0]\nclass = 0", fillcolor="#e58139"] ;
269 -> 271 ;
272 [label="gini = 0.0\nsamples = 1\nvalue = [0, 1]\nclass = 1", fillcolor="#399de5"] ;
266 -> 272 ;
273 [label="gini = 0.0\nsamples = 16\nvalue = [16, 0]\nclass = 0", fillcolor="#e58139"] ;
231 -> 273 ;
274 [label="TCP_sport <= 45547.5\ngini = 0.153\nsamples = 12\nvalue = [1, 11]\nclass = 1", fillcolor="#4ba6e7"] ;
200 -> 274 ;
275 [label="TCP_sport <= 43877.0\ngini = 0.5\nsamples = 2\nvalue = [1, 1]\nclass = 0", fillcolor="#ffffff"] ;
274 -> 275 ;
276 [label="gini = 0.0\nsamples = 1\nvalue = [0, 1]\nclass = 1", fillcolor="#399de5"] ;
275 -> 276 ;
277 [label="gini = 0.0\nsamples = 1\nvalue = [1, 0]\nclass = 0", fillcolor="#e58139"] ;
275 -> 277 ;
278 [label="gini = 0.0\nsamples = 10\nvalue = [0, 10]\nclass = 1", fillcolor="#399de5"] ;
274 -> 278 ;
279 [label="sport <= 32869.5\ngini = 0.297\nsamples = 149\nvalue = [122, 27]\nclass = 0", fillcolor="#eb9d65"] ;
199 -> 279 ;
280 [label="gini = 0.0\nsamples = 2\nvalue = [0, 2]\nclass = 1", fillcolor="#399de5"] ;
279 -> 280 ;
281 [label="TCP_chksum <= 63394.5\ngini = 0.282\nsamples = 147\nvalue = [122, 25]\nclass = 0", fillcolor="#ea9b62"] ;
279 -> 281 ;
282 [label="sport <= 59320.5\ngini = 0.262\nsamples = 142\nvalue = [120, 22]\nclass = 0", fillcolor="#ea985d"] ;
281 -> 282 ;
283 [label="TCP_seq <= 3691345664.0\ngini = 0.233\nsamples = 134\nvalue = [116, 18]\nclass = 0", fillcolor="#e99558"] ;
282 -> 283 ;
284 [label="IP_id <= 64090.5\ngini = 0.199\nsamples = 125\nvalue = [111, 14]\nclass = 0", fillcolor="#e89152"] ;
283 -> 284 ;
285 [label="IP_id <= 33156.0\ngini = 0.188\nsamples = 124\nvalue = [111, 13]\nclass = 0", fillcolor="#e89050"] ;
284 -> 285 ;
286 [label="TCP_seq <= 2715865984.0\ngini = 0.306\nsamples = 53\nvalue = [43, 10]\nclass = 0", fillcolor="#eb9e67"] ;
285 -> 286 ;
287 [label="TCP_seq <= 2645170688.0\ngini = 0.388\nsamples = 38\nvalue = [28, 10]\nclass = 0", fillcolor="#eeae80"] ;
286 -> 287 ;
288 [label="sport <= 53252.0\ngini = 0.346\nsamples = 36\nvalue = [28, 8]\nclass = 0", fillcolor="#eca572"] ;
287 -> 288 ;
289 [label="TCP_ack <= 433459776.0\ngini = 0.245\nsamples = 28\nvalue = [24, 4]\nclass = 0", fillcolor="#e9965a"] ;
288 -> 289 ;
290 [label="Protocol <= 12.5\ngini = 0.444\nsamples = 3\nvalue = [1, 2]\nclass = 1", fillcolor="#9ccef2"] ;
289 -> 290 ;
291 [label="gini = 0.0\nsamples = 2\nvalue = [0, 2]\nclass = 1", fillcolor="#399de5"] ;
290 -> 291 ;
292 [label="gini = 0.0\nsamples = 1\nvalue = [1, 0]\nclass = 0", fillcolor="#e58139"] ;
290 -> 292 ;
293 [label="IP_id <= 32690.5\ngini = 0.147\nsamples = 25\nvalue = [23, 2]\nclass = 0", fillcolor="#e78c4a"] ;
289 -> 293 ;
294 [label="TCP_ack <= 3162165504.0\ngini = 0.08\nsamples = 24\nvalue = [23, 1]\nclass = 0", fillcolor="#e68642"] ;
293 -> 294 ;
295 [label="gini = 0.0\nsamples = 20\nvalue = [20, 0]\nclass = 0", fillcolor="#e58139"] ;
294 -> 295 ;
296 [label="TCP_ack <= 3410048000.0\ngini = 0.375\nsamples = 4\nvalue = [3, 1]\nclass = 0", fillcolor="#eeab7b"] ;
294 -> 296 ;
297 [label="gini = 0.0\nsamples = 1\nvalue = [0, 1]\nclass = 1", fillcolor="#399de5"] ;
296 -> 297 ;
298 [label="gini = 0.0\nsamples = 3\nvalue = [3, 0]\nclass = 0", fillcolor="#e58139"] ;
296 -> 298 ;
299 [label="gini = 0.0\nsamples = 1\nvalue = [0, 1]\nclass = 1", fillcolor="#399de5"] ;
293 -> 299 ;
300 [label="TCP_sport <= 55154.5\ngini = 0.5\nsamples = 8\nvalue = [4, 4]\nclass = 0", fillcolor="#ffffff"] ;
288 -> 300 ;
301 [label="gini = 0.0\nsamples = 3\nvalue = [0, 3]\nclass = 1", fillcolor="#399de5"] ;
300 -> 301 ;
302 [label="TCP_chksum <= 48582.0\ngini = 0.32\nsamples = 5\nvalue = [4, 1]\nclass = 0", fillcolor="#eca06a"] ;
300 -> 302 ;
303 [label="gini = 0.0\nsamples = 4\nvalue = [4, 0]\nclass = 0", fillcolor="#e58139"] ;
302 -> 303 ;
304 [label="gini = 0.0\nsamples = 1\nvalue = [0, 1]\nclass = 1", fillcolor="#399de5"] ;
302 -> 304 ;
305 [label="gini = 0.0\nsamples = 2\nvalue = [0, 2]\nclass = 1", fillcolor="#399de5"] ;
287 -> 305 ;
306 [label="gini = 0.0\nsamples = 15\nvalue = [15, 0]\nclass = 0", fillcolor="#e58139"] ;
286 -> 306 ;
307 [label="IP_id <= 63079.0\ngini = 0.081\nsamples = 71\nvalue = [68, 3]\nclass = 0", fillcolor="#e68742"] ;
285 -> 307 ;
308 [label="sport <= 35141.0\ngini = 0.057\nsamples = 68\nvalue = [66, 2]\nclass = 0", fillcolor="#e6853f"] ;
307 -> 308 ;
309 [label="sport <= 34696.5\ngini = 0.375\nsamples = 4\nvalue = [3, 1]\nclass = 0", fillcolor="#eeab7b"] ;
308 -> 309 ;
310 [label="gini = 0.0\nsamples = 3\nvalue = [3, 0]\nclass = 0", fillcolor="#e58139"] ;
309 -> 310 ;
311 [label="gini = 0.0\nsamples = 1\nvalue = [0, 1]\nclass = 1", fillcolor="#399de5"] ;
309 -> 311 ;
312 [label="Protocol <= 8.5\ngini = 0.031\nsamples = 64\nvalue = [63, 1]\nclass = 0", fillcolor="#e5833c"] ;
308 -> 312 ;
313 [label="gini = 0.0\nsamples = 58\nvalue = [58, 0]\nclass = 0", fillcolor="#e58139"] ;
312 -> 313 ;
314 [label="TCP_sport <= 56153.5\ngini = 0.278\nsamples = 6\nvalue = [5, 1]\nclass = 0", fillcolor="#ea9a61"] ;
312 -> 314 ;
315 [label="gini = 0.0\nsamples = 5\nvalue = [5, 0]\nclass = 0", fillcolor="#e58139"] ;
314 -> 315 ;
316 [label="gini = 0.0\nsamples = 1\nvalue = [0, 1]\nclass = 1", fillcolor="#399de5"] ;
314 -> 316 ;
317 [label="TCP_sport <= 52756.0\ngini = 0.444\nsamples = 3\nvalue = [2, 1]\nclass = 0", fillcolor="#f2c09c"] ;
307 -> 317 ;
318 [label="gini = 0.0\nsamples = 1\nvalue = [0, 1]\nclass = 1", fillcolor="#399de5"] ;
317 -> 318 ;
319 [label="gini = 0.0\nsamples = 2\nvalue = [2, 0]\nclass = 0", fillcolor="#e58139"] ;
317 -> 319 ;
320 [label="gini = 0.0\nsamples = 1\nvalue = [0, 1]\nclass = 1", fillcolor="#399de5"] ;
284 -> 320 ;
321 [label="Protocol <= 4.5\ngini = 0.494\nsamples = 9\nvalue = [5, 4]\nclass = 0", fillcolor="#fae6d7"] ;
283 -> 321 ;
322 [label="TCP_ack <= 2407785472.0\ngini = 0.32\nsamples = 5\nvalue = [1, 4]\nclass = 1", fillcolor="#6ab6ec"] ;
321 -> 322 ;
323 [label="gini = 0.0\nsamples = 1\nvalue = [1, 0]\nclass = 0", fillcolor="#e58139"] ;
322 -> 323 ;
324 [label="gini = 0.0\nsamples = 4\nvalue = [0, 4]\nclass = 1", fillcolor="#399de5"] ;
322 -> 324 ;
325 [label="gini = 0.0\nsamples = 4\nvalue = [4, 0]\nclass = 0", fillcolor="#e58139"] ;
321 -> 325 ;
326 [label="sport <= 60207.0\ngini = 0.5\nsamples = 8\nvalue = [4, 4]\nclass = 0", fillcolor="#ffffff"] ;
282 -> 326 ;
327 [label="gini = 0.0\nsamples = 4\nvalue = [0, 4]\nclass = 1", fillcolor="#399de5"] ;
326 -> 327 ;
328 [label="gini = 0.0\nsamples = 4\nvalue = [4, 0]\nclass = 0", fillcolor="#e58139"] ;
326 -> 328 ;
329 [label="sport <= 41572.0\ngini = 0.48\nsamples = 5\nvalue = [2, 3]\nclass = 1", fillcolor="#bddef6"] ;
281 -> 329 ;
330 [label="gini = 0.0\nsamples = 2\nvalue = [0, 2]\nclass = 1", fillcolor="#399de5"] ;
329 -> 330 ;
331 [label="TCP_chksum <= 64593.5\ngini = 0.444\nsamples = 3\nvalue = [2, 1]\nclass = 0", fillcolor="#f2c09c"] ;
329 -> 331 ;
332 [label="gini = 0.0\nsamples = 2\nvalue = [2, 0]\nclass = 0", fillcolor="#e58139"] ;
331 -> 332 ;
333 [label="gini = 0.0\nsamples = 1\nvalue = [0, 1]\nclass = 1", fillcolor="#399de5"] ;
331 -> 333 ;
334 [label="gini = 0.0\nsamples = 27\nvalue = [0, 27]\nclass = 1", fillcolor="#399de5"] ;
120 -> 334 ;
335 [label="gini = 0.0\nsamples = 167\nvalue = [167, 0]\nclass = 0", fillcolor="#e58139"] ;
119 -> 335 ;
336 [label="pck_size <= 45.0\ngini = 0.45\nsamples = 1829\nvalue = [1205, 624]\nclass = 0", fillcolor="#f2c2a0"] ;
116 -> 336 ;
337 [label="IP_ttl <= 96.0\ngini = 0.262\nsamples = 336\nvalue = [52, 284]\nclass = 1", fillcolor="#5dafea"] ;
336 -> 337 ;
338 [label="Protocol <= 6.0\ngini = 0.191\nsamples = 318\nvalue = [34, 284]\nclass = 1", fillcolor="#51a9e8"] ;
337 -> 338 ;
339 [label="TCP_window <= 17291.0\ngini = 0.053\nsamples = 219\nvalue = [6, 213]\nclass = 1", fillcolor="#3fa0e6"] ;
338 -> 339 ;
340 [label="TCP_ack <= 240912008.0\ngini = 0.036\nsamples = 217\nvalue = [4, 213]\nclass = 1", fillcolor="#3d9fe5"] ;
339 -> 340 ;
341 [label="dport <= 261.5\ngini = 0.227\nsamples = 23\nvalue = [3, 20]\nclass = 1", fillcolor="#57ace9"] ;
340 -> 341 ;
342 [label="gini = 0.0\nsamples = 2\nvalue = [2, 0]\nclass = 0", fillcolor="#e58139"] ;
341 -> 342 ;
343 [label="TCP_ack <= 223229368.0\ngini = 0.091\nsamples = 21\nvalue = [1, 20]\nclass = 1", fillcolor="#43a2e6"] ;
341 -> 343 ;
344 [label="gini = 0.0\nsamples = 20\nvalue = [0, 20]\nclass = 1", fillcolor="#399de5"] ;
343 -> 344 ;
345 [label="gini = 0.0\nsamples = 1\nvalue = [1, 0]\nclass = 0", fillcolor="#e58139"] ;
343 -> 345 ;
346 [label="TCP_seq <= 3769127424.0\ngini = 0.01\nsamples = 194\nvalue = [1, 193]\nclass = 1", fillcolor="#3a9ee5"] ;
340 -> 346 ;
347 [label="gini = 0.0\nsamples = 172\nvalue = [0, 172]\nclass = 1", fillcolor="#399de5"] ;
346 -> 347 ;
348 [label="sport <= 44015.0\ngini = 0.087\nsamples = 22\nvalue = [1, 21]\nclass = 1", fillcolor="#42a2e6"] ;
346 -> 348 ;
349 [label="gini = 0.0\nsamples = 21\nvalue = [0, 21]\nclass = 1", fillcolor="#399de5"] ;
348 -> 349 ;
350 [label="gini = 0.0\nsamples = 1\nvalue = [1, 0]\nclass = 0", fillcolor="#e58139"] ;
348 -> 350 ;
351 [label="gini = 0.0\nsamples = 2\nvalue = [2, 0]\nclass = 0", fillcolor="#e58139"] ;
339 -> 351 ;
352 [label="Protocol <= 9.5\ngini = 0.406\nsamples = 99\nvalue = [28, 71]\nclass = 1", fillcolor="#87c4ef"] ;
338 -> 352 ;
353 [label="Protocol <= 7.5\ngini = 0.489\nsamples = 40\nvalue = [23, 17]\nclass = 0", fillcolor="#f8decb"] ;
352 -> 353 ;
354 [label="TCP_sport <= 49185.0\ngini = 0.466\nsamples = 27\nvalue = [10, 17]\nclass = 1", fillcolor="#add7f4"] ;
353 -> 354 ;
355 [label="IP_id <= 4851.5\ngini = 0.32\nsamples = 20\nvalue = [4, 16]\nclass = 1", fillcolor="#6ab6ec"] ;
354 -> 355 ;
356 [label="gini = 0.0\nsamples = 2\nvalue = [2, 0]\nclass = 0", fillcolor="#e58139"] ;
355 -> 356 ;
357 [label="TCP_window <= 1460.0\ngini = 0.198\nsamples = 18\nvalue = [2, 16]\nclass = 1", fillcolor="#52a9e8"] ;
355 -> 357 ;
358 [label="gini = 0.0\nsamples = 1\nvalue = [1, 0]\nclass = 0", fillcolor="#e58139"] ;
357 -> 358 ;
359 [label="TCP_chksum <= 9444.5\ngini = 0.111\nsamples = 17\nvalue = [1, 16]\nclass = 1", fillcolor="#45a3e7"] ;
357 -> 359 ;
360 [label="gini = 0.0\nsamples = 1\nvalue = [1, 0]\nclass = 0", fillcolor="#e58139"] ;
359 -> 360 ;
361 [label="gini = 0.0\nsamples = 16\nvalue = [0, 16]\nclass = 1", fillcolor="#399de5"] ;
359 -> 361 ;
362 [label="sport <= 56358.5\ngini = 0.245\nsamples = 7\nvalue = [6, 1]\nclass = 0", fillcolor="#e9965a"] ;
354 -> 362 ;
363 [label="gini = 0.0\nsamples = 6\nvalue = [6, 0]\nclass = 0", fillcolor="#e58139"] ;
362 -> 363 ;
364 [label="gini = 0.0\nsamples = 1\nvalue = [0, 1]\nclass = 1", fillcolor="#399de5"] ;
362 -> 364 ;
365 [label="gini = 0.0\nsamples = 13\nvalue = [13, 0]\nclass = 0", fillcolor="#e58139"] ;
353 -> 365 ;
366 [label="sport <= 42313.0\ngini = 0.155\nsamples = 59\nvalue = [5, 54]\nclass = 1", fillcolor="#4ba6e7"] ;
352 -> 366 ;
367 [label="gini = 0.0\nsamples = 36\nvalue = [0, 36]\nclass = 1", fillcolor="#399de5"] ;
366 -> 367 ;
368 [label="TCP_ack <= 1728528192.0\ngini = 0.34\nsamples = 23\nvalue = [5, 18]\nclass = 1", fillcolor="#70b8ec"] ;
366 -> 368 ;
369 [label="Protocol <= 15.5\ngini = 0.188\nsamples = 19\nvalue = [2, 17]\nclass = 1", fillcolor="#50a9e8"] ;
368 -> 369 ;
370 [label="Protocol <= 14.5\ngini = 0.444\nsamples = 6\nvalue = [2, 4]\nclass = 1", fillcolor="#9ccef2"] ;
369 -> 370 ;
371 [label="gini = 0.0\nsamples = 4\nvalue = [0, 4]\nclass = 1", fillcolor="#399de5"] ;
370 -> 371 ;
372 [label="gini = 0.0\nsamples = 2\nvalue = [2, 0]\nclass = 0", fillcolor="#e58139"] ;
370 -> 372 ;
373 [label="gini = 0.0\nsamples = 13\nvalue = [0, 13]\nclass = 1", fillcolor="#399de5"] ;
369 -> 373 ;
374 [label="dport <= 261.5\ngini = 0.375\nsamples = 4\nvalue = [3, 1]\nclass = 0", fillcolor="#eeab7b"] ;
368 -> 374 ;
375 [label="gini = 0.0\nsamples = 1\nvalue = [0, 1]\nclass = 1", fillcolor="#399de5"] ;
374 -> 375 ;
376 [label="gini = 0.0\nsamples = 3\nvalue = [3, 0]\nclass = 0", fillcolor="#e58139"] ;
374 -> 376 ;
377 [label="gini = 0.0\nsamples = 18\nvalue = [18, 0]\nclass = 0", fillcolor="#e58139"] ;
337 -> 377 ;
378 [label="IP_ttl <= 34.0\ngini = 0.352\nsamples = 1493\nvalue = [1153, 340]\nclass = 0", fillcolor="#eda673"] ;
336 -> 378 ;
379 [label="IP_ttl <= 2.5\ngini = 0.46\nsamples = 92\nvalue = [33, 59]\nclass = 1", fillcolor="#a8d4f4"] ;
378 -> 379 ;
380 [label="gini = 0.0\nsamples = 32\nvalue = [32, 0]\nclass = 0", fillcolor="#e58139"] ;
379 -> 380 ;
381 [label="IP_len <= 373.0\ngini = 0.033\nsamples = 60\nvalue = [1, 59]\nclass = 1", fillcolor="#3c9fe5"] ;
379 -> 381 ;
382 [label="gini = 0.0\nsamples = 52\nvalue = [0, 52]\nclass = 1", fillcolor="#399de5"] ;
381 -> 382 ;
383 [label="UDP_sport <= 43147.5\ngini = 0.219\nsamples = 8\nvalue = [1, 7]\nclass = 1", fillcolor="#55abe9"] ;
381 -> 383 ;
384 [label="sport <= 38385.0\ngini = 0.5\nsamples = 2\nvalue = [1, 1]\nclass = 0", fillcolor="#ffffff"] ;
383 -> 384 ;
385 [label="gini = 0.0\nsamples = 1\nvalue = [0, 1]\nclass = 1", fillcolor="#399de5"] ;
384 -> 385 ;
386 [label="gini = 0.0\nsamples = 1\nvalue = [1, 0]\nclass = 0", fillcolor="#e58139"] ;
384 -> 386 ;
387 [label="gini = 0.0\nsamples = 6\nvalue = [0, 6]\nclass = 1", fillcolor="#399de5"] ;
383 -> 387 ;
388 [label="IP_id <= 58498.5\ngini = 0.321\nsamples = 1401\nvalue = [1120, 281]\nclass = 0", fillcolor="#eca16b"] ;
378 -> 388 ;
389 [label="UDP_sport <= 7723.5\ngini = 0.295\nsamples = 1324\nvalue = [1086, 238]\nclass = 0", fillcolor="#eb9d64"] ;
388 -> 389 ;
390 [label="Protocol <= 15.5\ngini = 0.357\nsamples = 960\nvalue = [737, 223]\nclass = 0", fillcolor="#eda775"] ;
389 -> 390 ;
391 [label="entropy <= 5.537\ngini = 0.332\nsamples = 890\nvalue = [703, 187]\nclass = 0", fillcolor="#eca36e"] ;
390 -> 391 ;
392 [label="entropy <= 4.576\ngini = 0.277\nsamples = 651\nvalue = [543, 108]\nclass = 0", fillcolor="#ea9a60"] ;
391 -> 392 ;
393 [label="UDP_len <= 298.5\ngini = 0.424\nsamples = 266\nvalue = [185, 81]\nclass = 0", fillcolor="#f0b890"] ;
392 -> 393 ;
394 [label="DNS_qdcount <= 1.5\ngini = 0.386\nsamples = 249\nvalue = [184, 65]\nclass = 0", fillcolor="#eeae7f"] ;
393 -> 394 ;
395 [label="UDP_len <= 274.5\ngini = 0.439\nsamples = 200\nvalue = [135, 65]\nclass = 0", fillcolor="#f2be98"] ;
394 -> 395 ;
396 [label="pck_size <= 271.0\ngini = 0.405\nsamples = 188\nvalue = [135, 53]\nclass = 0", fillcolor="#efb287"] ;
395 -> 396 ;
397 [label="UDP_chksum <= 62119.5\ngini = 0.465\nsamples = 144\nvalue = [91, 53]\nclass = 0", fillcolor="#f4caac"] ;
396 -> 397 ;
398 [label="UDP_chksum <= 61955.0\ngini = 0.492\nsamples = 121\nvalue = [68, 53]\nclass = 0", fillcolor="#f9e3d3"] ;
397 -> 398 ;
399 [label="UDP_len <= 49.5\ngini = 0.425\nsamples = 98\nvalue = [68, 30]\nclass = 0", fillcolor="#f0b990"] ;
398 -> 399 ;
400 [label="UDP_chksum <= 57665.5\ngini = 0.208\nsamples = 34\nvalue = [30, 4]\nclass = 0", fillcolor="#e89253"] ;
399 -> 400 ;
401 [label="gini = 0.0\nsamples = 22\nvalue = [22, 0]\nclass = 0", fillcolor="#e58139"] ;
400 -> 401 ;
402 [label="UDP_chksum <= 61729.5\ngini = 0.444\nsamples = 12\nvalue = [8, 4]\nclass = 0", fillcolor="#f2c09c"] ;
400 -> 402 ;
403 [label="gini = 0.0\nsamples = 4\nvalue = [0, 4]\nclass = 1", fillcolor="#399de5"] ;
402 -> 403 ;
404 [label="gini = 0.0\nsamples = 8\nvalue = [8, 0]\nclass = 0", fillcolor="#e58139"] ;
402 -> 404 ;
405 [label="UDP_chksum <= 14082.0\ngini = 0.482\nsamples = 64\nvalue = [38, 26]\nclass = 0", fillcolor="#f7d7c0"] ;
399 -> 405 ;
406 [label="entropy <= 4.1\ngini = 0.32\nsamples = 15\nvalue = [3, 12]\nclass = 1", fillcolor="#6ab6ec"] ;
405 -> 406 ;
407 [label="gini = 0.0\nsamples = 8\nvalue = [0, 8]\nclass = 1", fillcolor="#399de5"] ;
406 -> 407 ;
408 [label="UDP_chksum <= 6044.0\ngini = 0.49\nsamples = 7\nvalue = [3, 4]\nclass = 1", fillcolor="#cee6f8"] ;
406 -> 408 ;
409 [label="gini = 0.0\nsamples = 3\nvalue = [0, 3]\nclass = 1", fillcolor="#399de5"] ;
408 -> 409 ;
410 [label="payload_bytes <= 160.0\ngini = 0.375\nsamples = 4\nvalue = [3, 1]\nclass = 0", fillcolor="#eeab7b"] ;
408 -> 410 ;
411 [label="gini = 0.0\nsamples = 3\nvalue = [3, 0]\nclass = 0", fillcolor="#e58139"] ;
410 -> 411 ;
412 [label="gini = 0.0\nsamples = 1\nvalue = [0, 1]\nclass = 1", fillcolor="#399de5"] ;
410 -> 412 ;
413 [label="IP_len <= 250.5\ngini = 0.408\nsamples = 49\nvalue = [35, 14]\nclass = 0", fillcolor="#efb388"] ;
405 -> 413 ;
414 [label="entropy <= 4.55\ngini = 0.314\nsamples = 41\nvalue = [33, 8]\nclass = 0", fillcolor="#eba069"] ;
413 -> 414 ;
415 [label="IP_len <= 158.0\ngini = 0.245\nsamples = 35\nvalue = [30, 5]\nclass = 0", fillcolor="#e9965a"] ;
414 -> 415 ;
416 [label="entropy <= 4.131\ngini = 0.091\nsamples = 21\nvalue = [20, 1]\nclass = 0", fillcolor="#e68743"] ;
415 -> 416 ;
417 [label="entropy <= 3.986\ngini = 0.245\nsamples = 7\nvalue = [6, 1]\nclass = 0", fillcolor="#e9965a"] ;
416 -> 417 ;
418 [label="gini = 0.0\nsamples = 6\nvalue = [6, 0]\nclass = 0", fillcolor="#e58139"] ;
417 -> 418 ;
419 [label="gini = 0.0\nsamples = 1\nvalue = [0, 1]\nclass = 1", fillcolor="#399de5"] ;
417 -> 419 ;
420 [label="gini = 0.0\nsamples = 14\nvalue = [14, 0]\nclass = 0", fillcolor="#e58139"] ;
416 -> 420 ;
421 [label="UDP_len <= 204.0\ngini = 0.408\nsamples = 14\nvalue = [10, 4]\nclass = 0", fillcolor="#efb388"] ;
415 -> 421 ;
422 [label="gini = 0.0\nsamples = 2\nvalue = [0, 2]\nclass = 1", fillcolor="#399de5"] ;
421 -> 422 ;
423 [label="UDP_chksum <= 53017.5\ngini = 0.278\nsamples = 12\nvalue = [10, 2]\nclass = 0", fillcolor="#ea9a61"] ;
421 -> 423 ;
424 [label="UDP_len <= 222.0\ngini = 0.165\nsamples = 11\nvalue = [10, 1]\nclass = 0", fillcolor="#e88e4d"] ;
423 -> 424 ;
425 [label="UDP_len <= 214.0\ngini = 0.375\nsamples = 4\nvalue = [3, 1]\nclass = 0", fillcolor="#eeab7b"] ;
424 -> 425 ;
426 [label="gini = 0.0\nsamples = 3\nvalue = [3, 0]\nclass = 0", fillcolor="#e58139"] ;
425 -> 426 ;
427 [label="gini = 0.0\nsamples = 1\nvalue = [0, 1]\nclass = 1", fillcolor="#399de5"] ;
425 -> 427 ;
428 [label="gini = 0.0\nsamples = 7\nvalue = [7, 0]\nclass = 0", fillcolor="#e58139"] ;
424 -> 428 ;
429 [label="gini = 0.0\nsamples = 1\nvalue = [0, 1]\nclass = 1", fillcolor="#399de5"] ;
423 -> 429 ;
430 [label="UDP_chksum <= 25625.5\ngini = 0.5\nsamples = 6\nvalue = [3, 3]\nclass = 0", fillcolor="#ffffff"] ;
414 -> 430 ;
431 [label="UDP_chksum <= 25573.5\ngini = 0.375\nsamples = 4\nvalue = [1, 3]\nclass = 1", fillcolor="#7bbeee"] ;
430 -> 431 ;
432 [label="gini = 0.0\nsamples = 1\nvalue = [1, 0]\nclass = 0", fillcolor="#e58139"] ;
431 -> 432 ;
433 [label="gini = 0.0\nsamples = 3\nvalue = [0, 3]\nclass = 1", fillcolor="#399de5"] ;
431 -> 433 ;
434 [label="gini = 0.0\nsamples = 2\nvalue = [2, 0]\nclass = 0", fillcolor="#e58139"] ;
430 -> 434 ;
435 [label="entropy <= 4.459\ngini = 0.375\nsamples = 8\nvalue = [2, 6]\nclass = 1", fillcolor="#7bbeee"] ;
413 -> 435 ;
436 [label="gini = 0.0\nsamples = 2\nvalue = [2, 0]\nclass = 0", fillcolor="#e58139"] ;
435 -> 436 ;
437 [label="gini = 0.0\nsamples = 6\nvalue = [0, 6]\nclass = 1", fillcolor="#399de5"] ;
435 -> 437 ;
438 [label="gini = 0.0\nsamples = 23\nvalue = [0, 23]\nclass = 1", fillcolor="#399de5"] ;
398 -> 438 ;
439 [label="gini = 0.0\nsamples = 23\nvalue = [23, 0]\nclass = 0", fillcolor="#e58139"] ;
397 -> 439 ;
440 [label="gini = 0.0\nsamples = 44\nvalue = [44, 0]\nclass = 0", fillcolor="#e58139"] ;
396 -> 440 ;
441 [label="gini = 0.0\nsamples = 12\nvalue = [0, 12]\nclass = 1", fillcolor="#399de5"] ;
395 -> 441 ;
442 [label="gini = 0.0\nsamples = 49\nvalue = [49, 0]\nclass = 0", fillcolor="#e58139"] ;
394 -> 442 ;
443 [label="IP_len <= 395.0\ngini = 0.111\nsamples = 17\nvalue = [1, 16]\nclass = 1", fillcolor="#45a3e7"] ;
393 -> 443 ;
444 [label="gini = 0.0\nsamples = 16\nvalue = [0, 16]\nclass = 1", fillcolor="#399de5"] ;
443 -> 444 ;
445 [label="gini = 0.0\nsamples = 1\nvalue = [1, 0]\nclass = 0", fillcolor="#e58139"] ;
443 -> 445 ;
446 [label="UDP_chksum <= 2410.5\ngini = 0.13\nsamples = 385\nvalue = [358, 27]\nclass = 0", fillcolor="#e78b48"] ;
392 -> 446 ;
447 [label="UDP_chksum <= 1496.0\ngini = 0.286\nsamples = 133\nvalue = [110, 23]\nclass = 0", fillcolor="#ea9b62"] ;
446 -> 447 ;
448 [label="TCP_window <= 3176.0\ngini = 0.242\nsamples = 128\nvalue = [110, 18]\nclass = 0", fillcolor="#e99659"] ;
447 -> 448 ;
449 [label="TCP_chksum <= 54627.0\ngini = 0.365\nsamples = 75\nvalue = [57, 18]\nclass = 0", fillcolor="#eda978"] ;
448 -> 449 ;
450 [label="TCP_seq <= 1572397888.0\ngini = 0.274\nsamples = 61\nvalue = [51, 10]\nclass = 0", fillcolor="#ea9a60"] ;
449 -> 450 ;
451 [label="IP_id <= 47188.0\ngini = 0.056\nsamples = 35\nvalue = [34, 1]\nclass = 0", fillcolor="#e6853f"] ;
450 -> 451 ;
452 [label="gini = 0.0\nsamples = 32\nvalue = [32, 0]\nclass = 0", fillcolor="#e58139"] ;
451 -> 452 ;
453 [label="pck_size <= 253.0\ngini = 0.444\nsamples = 3\nvalue = [2, 1]\nclass = 0", fillcolor="#f2c09c"] ;
451 -> 453 ;
454 [label="gini = 0.0\nsamples = 1\nvalue = [0, 1]\nclass = 1", fillcolor="#399de5"] ;
453 -> 454 ;
455 [label="gini = 0.0\nsamples = 2\nvalue = [2, 0]\nclass = 0", fillcolor="#e58139"] ;
453 -> 455 ;
456 [label="TCP_sport <= 45269.0\ngini = 0.453\nsamples = 26\nvalue = [17, 9]\nclass = 0", fillcolor="#f3c4a2"] ;
450 -> 456 ;
457 [label="TCP_ack <= 3270991744.0\ngini = 0.498\nsamples = 17\nvalue = [8, 9]\nclass = 1", fillcolor="#e9f4fc"] ;
456 -> 457 ;
458 [label="entropy <= 5.37\ngini = 0.426\nsamples = 13\nvalue = [4, 9]\nclass = 1", fillcolor="#91c9f1"] ;
457 -> 458 ;
459 [label="sport <= 34449.5\ngini = 0.298\nsamples = 11\nvalue = [2, 9]\nclass = 1", fillcolor="#65b3eb"] ;
458 -> 459 ;
460 [label="gini = 0.0\nsamples = 1\nvalue = [1, 0]\nclass = 0", fillcolor="#e58139"] ;
459 -> 460 ;
461 [label="TCP_chksum <= 50261.5\ngini = 0.18\nsamples = 10\nvalue = [1, 9]\nclass = 1", fillcolor="#4fa8e8"] ;
459 -> 461 ;
462 [label="gini = 0.0\nsamples = 9\nvalue = [0, 9]\nclass = 1", fillcolor="#399de5"] ;
461 -> 462 ;
463 [label="gini = 0.0\nsamples = 1\nvalue = [1, 0]\nclass = 0", fillcolor="#e58139"] ;
461 -> 463 ;
464 [label="gini = 0.0\nsamples = 2\nvalue = [2, 0]\nclass = 0", fillcolor="#e58139"] ;
458 -> 464 ;
465 [label="gini = 0.0\nsamples = 4\nvalue = [4, 0]\nclass = 0", fillcolor="#e58139"] ;
457 -> 465 ;
466 [label="gini = 0.0\nsamples = 9\nvalue = [9, 0]\nclass = 0", fillcolor="#e58139"] ;
456 -> 466 ;
467 [label="sport_class <= 12.5\ngini = 0.49\nsamples = 14\nvalue = [6, 8]\nclass = 1", fillcolor="#cee6f8"] ;
449 -> 467 ;
468 [label="TCP_sport <= 35606.0\ngini = 0.278\nsamples = 6\nvalue = [5, 1]\nclass = 0", fillcolor="#ea9a61"] ;
467 -> 468 ;
469 [label="gini = 0.0\nsamples = 1\nvalue = [0, 1]\nclass = 1", fillcolor="#399de5"] ;
468 -> 469 ;
470 [label="gini = 0.0\nsamples = 5\nvalue = [5, 0]\nclass = 0", fillcolor="#e58139"] ;
468 -> 470 ;
471 [label="pck_size <= 312.5\ngini = 0.219\nsamples = 8\nvalue = [1, 7]\nclass = 1", fillcolor="#55abe9"] ;
467 -> 471 ;
472 [label="gini = 0.0\nsamples = 7\nvalue = [0, 7]\nclass = 1", fillcolor="#399de5"] ;
471 -> 472 ;
473 [label="gini = 0.0\nsamples = 1\nvalue = [1, 0]\nclass = 0", fillcolor="#e58139"] ;
471 -> 473 ;
474 [label="gini = 0.0\nsamples = 53\nvalue = [53, 0]\nclass = 0", fillcolor="#e58139"] ;
448 -> 474 ;
475 [label="gini = 0.0\nsamples = 5\nvalue = [0, 5]\nclass = 1", fillcolor="#399de5"] ;
447 -> 475 ;
476 [label="entropy <= 5.332\ngini = 0.031\nsamples = 252\nvalue = [248, 4]\nclass = 0", fillcolor="#e5833c"] ;
446 -> 476 ;
477 [label="gini = 0.0\nsamples = 177\nvalue = [177, 0]\nclass = 0", fillcolor="#e58139"] ;
476 -> 477 ;
478 [label="entropy <= 5.351\ngini = 0.101\nsamples = 75\nvalue = [71, 4]\nclass = 0", fillcolor="#e68844"] ;
476 -> 478 ;
479 [label="gini = 0.0\nsamples = 1\nvalue = [0, 1]\nclass = 1", fillcolor="#399de5"] ;
478 -> 479 ;
480 [label="UDP_len <= 324.0\ngini = 0.078\nsamples = 74\nvalue = [71, 3]\nclass = 0", fillcolor="#e68641"] ;
478 -> 480 ;
481 [label="pck_size <= 325.5\ngini = 0.346\nsamples = 9\nvalue = [7, 2]\nclass = 0", fillcolor="#eca572"] ;
480 -> 481 ;
482 [label="gini = 0.0\nsamples = 7\nvalue = [7, 0]\nclass = 0", fillcolor="#e58139"] ;
481 -> 482 ;
483 [label="gini = 0.0\nsamples = 2\nvalue = [0, 2]\nclass = 1", fillcolor="#399de5"] ;
481 -> 483 ;
484 [label="UDP_chksum <= 32967.5\ngini = 0.03\nsamples = 65\nvalue = [64, 1]\nclass = 0", fillcolor="#e5833c"] ;
480 -> 484 ;
485 [label="UDP_chksum <= 30199.5\ngini = 0.087\nsamples = 22\nvalue = [21, 1]\nclass = 0", fillcolor="#e68742"] ;
484 -> 485 ;
486 [label="gini = 0.0\nsamples = 21\nvalue = [21, 0]\nclass = 0", fillcolor="#e58139"] ;
485 -> 486 ;
487 [label="gini = 0.0\nsamples = 1\nvalue = [0, 1]\nclass = 1", fillcolor="#399de5"] ;
485 -> 487 ;
488 [label="gini = 0.0\nsamples = 43\nvalue = [43, 0]\nclass = 0", fillcolor="#e58139"] ;
484 -> 488 ;
489 [label="payload_bytes <= 364.5\ngini = 0.443\nsamples = 239\nvalue = [160, 79]\nclass = 0", fillcolor="#f2bf9b"] ;
391 -> 489 ;
490 [label="UDP_len <= 312.5\ngini = 0.497\nsamples = 143\nvalue = [77, 66]\nclass = 0", fillcolor="#fbede3"] ;
489 -> 490 ;
491 [label="TCP_window <= 7042.0\ngini = 0.44\nsamples = 110\nvalue = [74, 36]\nclass = 0", fillcolor="#f2be99"] ;
490 -> 491 ;
492 [label="entropy <= 5.537\ngini = 0.378\nsamples = 99\nvalue = [74, 25]\nclass = 0", fillcolor="#eeac7c"] ;
491 -> 492 ;
493 [label="gini = 0.0\nsamples = 11\nvalue = [0, 11]\nclass = 1", fillcolor="#399de5"] ;
492 -> 493 ;
494 [label="entropy <= 7.396\ngini = 0.268\nsamples = 88\nvalue = [74, 14]\nclass = 0", fillcolor="#ea995e"] ;
492 -> 494 ;
495 [label="TCP_dataofs <= 6.5\ngini = 0.225\nsamples = 85\nvalue = [74, 11]\nclass = 0", fillcolor="#e99456"] ;
494 -> 495 ;
496 [label="gini = 0.0\nsamples = 40\nvalue = [40, 0]\nclass = 0", fillcolor="#e58139"] ;
495 -> 496 ;
497 [label="entropy <= 6.54\ngini = 0.369\nsamples = 45\nvalue = [34, 11]\nclass = 0", fillcolor="#edaa79"] ;
495 -> 497 ;
498 [label="TCP_ack <= 2558394624.0\ngini = 0.48\nsamples = 25\nvalue = [15, 10]\nclass = 0", fillcolor="#f6d5bd"] ;
497 -> 498 ;
499 [label="TCP_chksum <= 22038.5\ngini = 0.499\nsamples = 19\nvalue = [9, 10]\nclass = 1", fillcolor="#ebf5fc"] ;
498 -> 499 ;
500 [label="sport <= 39036.5\ngini = 0.245\nsamples = 7\nvalue = [1, 6]\nclass = 1", fillcolor="#5aade9"] ;
499 -> 500 ;
501 [label="gini = 0.0\nsamples = 1\nvalue = [1, 0]\nclass = 0", fillcolor="#e58139"] ;
500 -> 501 ;
502 [label="gini = 0.0\nsamples = 6\nvalue = [0, 6]\nclass = 1", fillcolor="#399de5"] ;
500 -> 502 ;
503 [label="IP_len <= 337.0\ngini = 0.444\nsamples = 12\nvalue = [8, 4]\nclass = 0", fillcolor="#f2c09c"] ;
499 -> 503 ;
504 [label="entropy <= 5.691\ngini = 0.32\nsamples = 10\nvalue = [8, 2]\nclass = 0", fillcolor="#eca06a"] ;
503 -> 504 ;
505 [label="gini = 0.0\nsamples = 1\nvalue = [0, 1]\nclass = 1", fillcolor="#399de5"] ;
504 -> 505 ;
506 [label="TCP_ack <= 1977913792.0\ngini = 0.198\nsamples = 9\nvalue = [8, 1]\nclass = 0", fillcolor="#e89152"] ;
504 -> 506 ;
507 [label="gini = 0.0\nsamples = 8\nvalue = [8, 0]\nclass = 0", fillcolor="#e58139"] ;
506 -> 507 ;
508 [label="gini = 0.0\nsamples = 1\nvalue = [0, 1]\nclass = 1", fillcolor="#399de5"] ;
506 -> 508 ;
509 [label="gini = 0.0\nsamples = 2\nvalue = [0, 2]\nclass = 1", fillcolor="#399de5"] ;
503 -> 509 ;
510 [label="gini = 0.0\nsamples = 6\nvalue = [6, 0]\nclass = 0", fillcolor="#e58139"] ;
498 -> 510 ;
511 [label="IP_id <= 45457.5\ngini = 0.095\nsamples = 20\nvalue = [19, 1]\nclass = 0", fillcolor="#e68843"] ;
497 -> 511 ;
512 [label="gini = 0.0\nsamples = 19\nvalue = [19, 0]\nclass = 0", fillcolor="#e58139"] ;
511 -> 512 ;
513 [label="gini = 0.0\nsamples = 1\nvalue = [0, 1]\nclass = 1", fillcolor="#399de5"] ;
511 -> 513 ;
514 [label="gini = 0.0\nsamples = 3\nvalue = [0, 3]\nclass = 1", fillcolor="#399de5"] ;
494 -> 514 ;
515 [label="gini = 0.0\nsamples = 11\nvalue = [0, 11]\nclass = 1", fillcolor="#399de5"] ;
491 -> 515 ;
516 [label="entropy <= 5.596\ngini = 0.165\nsamples = 33\nvalue = [3, 30]\nclass = 1", fillcolor="#4da7e8"] ;
490 -> 516 ;
517 [label="gini = 0.0\nsamples = 2\nvalue = [2, 0]\nclass = 0", fillcolor="#e58139"] ;
516 -> 517 ;
518 [label="Protocol <= 12.0\ngini = 0.062\nsamples = 31\nvalue = [1, 30]\nclass = 1", fillcolor="#40a0e6"] ;
516 -> 518 ;
519 [label="gini = 0.0\nsamples = 28\nvalue = [0, 28]\nclass = 1", fillcolor="#399de5"] ;
518 -> 519 ;
520 [label="IP_len <= 367.5\ngini = 0.444\nsamples = 3\nvalue = [1, 2]\nclass = 1", fillcolor="#9ccef2"] ;
518 -> 520 ;
521 [label="gini = 0.0\nsamples = 1\nvalue = [1, 0]\nclass = 0", fillcolor="#e58139"] ;
520 -> 521 ;
522 [label="gini = 0.0\nsamples = 2\nvalue = [0, 2]\nclass = 1", fillcolor="#399de5"] ;
520 -> 522 ;
523 [label="TCP_sport <= 59341.5\ngini = 0.234\nsamples = 96\nvalue = [83, 13]\nclass = 0", fillcolor="#e99558"] ;
489 -> 523 ;
524 [label="TCP_seq <= 1585115840.0\ngini = 0.207\nsamples = 94\nvalue = [83, 11]\nclass = 0", fillcolor="#e89253"] ;
523 -> 524 ;
525 [label="entropy <= 7.818\ngini = 0.073\nsamples = 53\nvalue = [51, 2]\nclass = 0", fillcolor="#e68641"] ;
524 -> 525 ;
526 [label="TCP_ack <= 3151862912.0\ngini = 0.038\nsamples = 52\nvalue = [51, 1]\nclass = 0", fillcolor="#e6833d"] ;
525 -> 526 ;
527 [label="gini = 0.0\nsamples = 45\nvalue = [45, 0]\nclass = 0", fillcolor="#e58139"] ;
526 -> 527 ;
528 [label="TCP_ack <= 3312665216.0\ngini = 0.245\nsamples = 7\nvalue = [6, 1]\nclass = 0", fillcolor="#e9965a"] ;
526 -> 528 ;
529 [label="gini = 0.0\nsamples = 1\nvalue = [0, 1]\nclass = 1", fillcolor="#399de5"] ;
528 -> 529 ;
530 [label="gini = 0.0\nsamples = 6\nvalue = [6, 0]\nclass = 0", fillcolor="#e58139"] ;
528 -> 530 ;
531 [label="gini = 0.0\nsamples = 1\nvalue = [0, 1]\nclass = 1", fillcolor="#399de5"] ;
525 -> 531 ;
532 [label="TCP_seq <= 1698097088.0\ngini = 0.343\nsamples = 41\nvalue = [32, 9]\nclass = 0", fillcolor="#eca471"] ;
524 -> 532 ;
533 [label="gini = 0.0\nsamples = 3\nvalue = [0, 3]\nclass = 1", fillcolor="#399de5"] ;
532 -> 533 ;
534 [label="TCP_seq <= 3595294976.0\ngini = 0.266\nsamples = 38\nvalue = [32, 6]\nclass = 0", fillcolor="#ea995e"] ;
532 -> 534 ;
535 [label="TCP_chksum <= 39125.0\ngini = 0.142\nsamples = 26\nvalue = [24, 2]\nclass = 0", fillcolor="#e78c49"] ;
534 -> 535 ;
536 [label="gini = 0.0\nsamples = 18\nvalue = [18, 0]\nclass = 0", fillcolor="#e58139"] ;
535 -> 536 ;
537 [label="TCP_chksum <= 46200.0\ngini = 0.375\nsamples = 8\nvalue = [6, 2]\nclass = 0", fillcolor="#eeab7b"] ;
535 -> 537 ;
538 [label="pck_size <= 1037.5\ngini = 0.444\nsamples = 3\nvalue = [1, 2]\nclass = 1", fillcolor="#9ccef2"] ;
537 -> 538 ;
539 [label="gini = 0.0\nsamples = 2\nvalue = [0, 2]\nclass = 1", fillcolor="#399de5"] ;
538 -> 539 ;
540 [label="gini = 0.0\nsamples = 1\nvalue = [1, 0]\nclass = 0", fillcolor="#e58139"] ;
538 -> 540 ;
541 [label="gini = 0.0\nsamples = 5\nvalue = [5, 0]\nclass = 0", fillcolor="#e58139"] ;
537 -> 541 ;
542 [label="TCP_window <= 9924.5\ngini = 0.444\nsamples = 12\nvalue = [8, 4]\nclass = 0", fillcolor="#f2c09c"] ;
534 -> 542 ;
543 [label="TCP_seq <= 3962126976.0\ngini = 0.444\nsamples = 6\nvalue = [2, 4]\nclass = 1", fillcolor="#9ccef2"] ;
542 -> 543 ;
544 [label="gini = 0.0\nsamples = 4\nvalue = [0, 4]\nclass = 1", fillcolor="#399de5"] ;
543 -> 544 ;
545 [label="gini = 0.0\nsamples = 2\nvalue = [2, 0]\nclass = 0", fillcolor="#e58139"] ;
543 -> 545 ;
546 [label="gini = 0.0\nsamples = 6\nvalue = [6, 0]\nclass = 0", fillcolor="#e58139"] ;
542 -> 546 ;
547 [label="gini = 0.0\nsamples = 2\nvalue = [0, 2]\nclass = 1", fillcolor="#399de5"] ;
523 -> 547 ;
548 [label="IP_flags <= 2.5\ngini = 0.5\nsamples = 70\nvalue = [34, 36]\nclass = 1", fillcolor="#f4fafe"] ;
390 -> 548 ;
549 [label="gini = 0.0\nsamples = 8\nvalue = [8, 0]\nclass = 0", fillcolor="#e58139"] ;
548 -> 549 ;
550 [label="UDP_len <= 300.0\ngini = 0.487\nsamples = 62\nvalue = [26, 36]\nclass = 1", fillcolor="#c8e4f8"] ;
548 -> 550 ;
551 [label="IP_id <= 45979.5\ngini = 0.449\nsamples = 50\nvalue = [17, 33]\nclass = 1", fillcolor="#9fcff2"] ;
550 -> 551 ;
552 [label="entropy <= 4.273\ngini = 0.418\nsamples = 47\nvalue = [14, 33]\nclass = 1", fillcolor="#8dc7f0"] ;
551 -> 552 ;
553 [label="gini = 0.0\nsamples = 3\nvalue = [3, 0]\nclass = 0", fillcolor="#e58139"] ;
552 -> 553 ;
554 [label="UDP_chksum <= 62119.5\ngini = 0.375\nsamples = 44\nvalue = [11, 33]\nclass = 1", fillcolor="#7bbeee"] ;
552 -> 554 ;
555 [label="entropy <= 4.764\ngini = 0.314\nsamples = 41\nvalue = [8, 33]\nclass = 1", fillcolor="#69b5eb"] ;
554 -> 555 ;
556 [label="entropy <= 4.324\ngini = 0.087\nsamples = 22\nvalue = [1, 21]\nclass = 1", fillcolor="#42a2e6"] ;
555 -> 556 ;
557 [label="UDP_len <= 298.0\ngini = 0.375\nsamples = 4\nvalue = [1, 3]\nclass = 1", fillcolor="#7bbeee"] ;
556 -> 557 ;
558 [label="gini = 0.0\nsamples = 1\nvalue = [1, 0]\nclass = 0", fillcolor="#e58139"] ;
557 -> 558 ;
559 [label="gini = 0.0\nsamples = 3\nvalue = [0, 3]\nclass = 1", fillcolor="#399de5"] ;
557 -> 559 ;
560 [label="gini = 0.0\nsamples = 18\nvalue = [0, 18]\nclass = 1", fillcolor="#399de5"] ;
556 -> 560 ;
561 [label="sport <= 51593.0\ngini = 0.465\nsamples = 19\nvalue = [7, 12]\nclass = 1", fillcolor="#acd6f4"] ;
555 -> 561 ;
562 [label="TCP_window <= 6352.0\ngini = 0.42\nsamples = 10\nvalue = [7, 3]\nclass = 0", fillcolor="#f0b78e"] ;
561 -> 562 ;
563 [label="DNS_qdcount <= 0.5\ngini = 0.219\nsamples = 8\nvalue = [7, 1]\nclass = 0", fillcolor="#e99355"] ;
562 -> 563 ;
564 [label="gini = 0.0\nsamples = 7\nvalue = [7, 0]\nclass = 0", fillcolor="#e58139"] ;
563 -> 564 ;
565 [label="gini = 0.0\nsamples = 1\nvalue = [0, 1]\nclass = 1", fillcolor="#399de5"] ;
563 -> 565 ;
566 [label="gini = 0.0\nsamples = 2\nvalue = [0, 2]\nclass = 1", fillcolor="#399de5"] ;
562 -> 566 ;
567 [label="gini = 0.0\nsamples = 9\nvalue = [0, 9]\nclass = 1", fillcolor="#399de5"] ;
561 -> 567 ;
568 [label="gini = 0.0\nsamples = 3\nvalue = [3, 0]\nclass = 0", fillcolor="#e58139"] ;
554 -> 568 ;
569 [label="gini = 0.0\nsamples = 3\nvalue = [3, 0]\nclass = 0", fillcolor="#e58139"] ;
551 -> 569 ;
570 [label="entropy <= 5.593\ngini = 0.375\nsamples = 12\nvalue = [9, 3]\nclass = 0", fillcolor="#eeab7b"] ;
550 -> 570 ;
571 [label="gini = 0.0\nsamples = 8\nvalue = [8, 0]\nclass = 0", fillcolor="#e58139"] ;
570 -> 571 ;
572 [label="UDP_len <= 349.0\ngini = 0.375\nsamples = 4\nvalue = [1, 3]\nclass = 1", fillcolor="#7bbeee"] ;
570 -> 572 ;
573 [label="gini = 0.0\nsamples = 1\nvalue = [1, 0]\nclass = 0", fillcolor="#e58139"] ;
572 -> 573 ;
574 [label="gini = 0.0\nsamples = 3\nvalue = [0, 3]\nclass = 1", fillcolor="#399de5"] ;
572 -> 574 ;
575 [label="DNS_id <= 1.5\ngini = 0.079\nsamples = 364\nvalue = [349, 15]\nclass = 0", fillcolor="#e68642"] ;
389 -> 575 ;
576 [label="entropy <= 1.782\ngini = 0.009\nsamples = 232\nvalue = [231, 1]\nclass = 0", fillcolor="#e5823a"] ;
575 -> 576 ;
577 [label="entropy <= 1.76\ngini = 0.053\nsamples = 37\nvalue = [36, 1]\nclass = 0", fillcolor="#e6843e"] ;
576 -> 577 ;
578 [label="gini = 0.0\nsamples = 35\nvalue = [35, 0]\nclass = 0", fillcolor="#e58139"] ;
577 -> 578 ;
579 [label="IP_id <= 15559.5\ngini = 0.5\nsamples = 2\nvalue = [1, 1]\nclass = 0", fillcolor="#ffffff"] ;
577 -> 579 ;
580 [label="gini = 0.0\nsamples = 1\nvalue = [0, 1]\nclass = 1", fillcolor="#399de5"] ;
579 -> 580 ;
581 [label="gini = 0.0\nsamples = 1\nvalue = [1, 0]\nclass = 0", fillcolor="#e58139"] ;
579 -> 581 ;
582 [label="gini = 0.0\nsamples = 195\nvalue = [195, 0]\nclass = 0", fillcolor="#e58139"] ;
576 -> 582 ;
583 [label="IP_id <= 14479.0\ngini = 0.19\nsamples = 132\nvalue = [118, 14]\nclass = 0", fillcolor="#e89050"] ;
575 -> 583 ;
584 [label="DNS_id <= 3.5\ngini = 0.464\nsamples = 30\nvalue = [19, 11]\nclass = 0", fillcolor="#f4caac"] ;
583 -> 584 ;
585 [label="sport <= 45831.5\ngini = 0.337\nsamples = 14\nvalue = [3, 11]\nclass = 1", fillcolor="#6fb8ec"] ;
584 -> 585 ;
586 [label="gini = 0.0\nsamples = 8\nvalue = [0, 8]\nclass = 1", fillcolor="#399de5"] ;
585 -> 586 ;
587 [label="entropy <= 3.503\ngini = 0.5\nsamples = 6\nvalue = [3, 3]\nclass = 0", fillcolor="#ffffff"] ;
585 -> 587 ;
588 [label="entropy <= 3.28\ngini = 0.375\nsamples = 4\nvalue = [1, 3]\nclass = 1", fillcolor="#7bbeee"] ;
587 -> 588 ;
589 [label="gini = 0.0\nsamples = 1\nvalue = [1, 0]\nclass = 0", fillcolor="#e58139"] ;
588 -> 589 ;
590 [label="gini = 0.0\nsamples = 3\nvalue = [0, 3]\nclass = 1", fillcolor="#399de5"] ;
588 -> 590 ;
591 [label="gini = 0.0\nsamples = 2\nvalue = [2, 0]\nclass = 0", fillcolor="#e58139"] ;
587 -> 591 ;
592 [label="gini = 0.0\nsamples = 16\nvalue = [16, 0]\nclass = 0", fillcolor="#e58139"] ;
584 -> 592 ;
593 [label="sport <= 58439.0\ngini = 0.057\nsamples = 102\nvalue = [99, 3]\nclass = 0", fillcolor="#e6853f"] ;
583 -> 593 ;
594 [label="Protocol <= 15.0\ngini = 0.022\nsamples = 91\nvalue = [90, 1]\nclass = 0", fillcolor="#e5823b"] ;
593 -> 594 ;
595 [label="gini = 0.0\nsamples = 84\nvalue = [84, 0]\nclass = 0", fillcolor="#e58139"] ;
594 -> 595 ;
596 [label="pck_size <= 69.0\ngini = 0.245\nsamples = 7\nvalue = [6, 1]\nclass = 0", fillcolor="#e9965a"] ;
594 -> 596 ;
597 [label="gini = 0.0\nsamples = 5\nvalue = [5, 0]\nclass = 0", fillcolor="#e58139"] ;
596 -> 597 ;
598 [label="IP_len <= 81.0\ngini = 0.5\nsamples = 2\nvalue = [1, 1]\nclass = 0", fillcolor="#ffffff"] ;
596 -> 598 ;
599 [label="gini = 0.0\nsamples = 1\nvalue = [0, 1]\nclass = 1", fillcolor="#399de5"] ;
598 -> 599 ;
600 [label="gini = 0.0\nsamples = 1\nvalue = [1, 0]\nclass = 0", fillcolor="#e58139"] ;
598 -> 600 ;
601 [label="entropy <= 3.401\ngini = 0.298\nsamples = 11\nvalue = [9, 2]\nclass = 0", fillcolor="#eb9d65"] ;
593 -> 601 ;
602 [label="gini = 0.0\nsamples = 2\nvalue = [0, 2]\nclass = 1", fillcolor="#399de5"] ;
601 -> 602 ;
603 [label="gini = 0.0\nsamples = 9\nvalue = [9, 0]\nclass = 0", fillcolor="#e58139"] ;
601 -> 603 ;
604 [label="IP_id <= 60988.5\ngini = 0.493\nsamples = 77\nvalue = [34, 43]\nclass = 1", fillcolor="#d6eafa"] ;
388 -> 604 ;
605 [label="pck_size <= 249.0\ngini = 0.283\nsamples = 41\nvalue = [7, 34]\nclass = 1", fillcolor="#62b1ea"] ;
604 -> 605 ;
606 [label="IP_tos <= 8.0\ngini = 0.153\nsamples = 36\nvalue = [3, 33]\nclass = 1", fillcolor="#4ba6e7"] ;
605 -> 606 ;
607 [label="IP_id <= 59470.0\ngini = 0.057\nsamples = 34\nvalue = [1, 33]\nclass = 1", fillcolor="#3fa0e6"] ;
606 -> 607 ;
608 [label="IP_id <= 59416.0\ngini = 0.375\nsamples = 4\nvalue = [1, 3]\nclass = 1", fillcolor="#7bbeee"] ;
607 -> 608 ;
609 [label="gini = 0.0\nsamples = 3\nvalue = [0, 3]\nclass = 1", fillcolor="#399de5"] ;
608 -> 609 ;
610 [label="gini = 0.0\nsamples = 1\nvalue = [1, 0]\nclass = 0", fillcolor="#e58139"] ;
608 -> 610 ;
611 [label="gini = 0.0\nsamples = 30\nvalue = [0, 30]\nclass = 1", fillcolor="#399de5"] ;
607 -> 611 ;
612 [label="gini = 0.0\nsamples = 2\nvalue = [2, 0]\nclass = 0", fillcolor="#e58139"] ;
606 -> 612 ;
613 [label="TCP_seq <= 2821986176.0\ngini = 0.32\nsamples = 5\nvalue = [4, 1]\nclass = 0", fillcolor="#eca06a"] ;
605 -> 613 ;
614 [label="gini = 0.0\nsamples = 4\nvalue = [4, 0]\nclass = 0", fillcolor="#e58139"] ;
613 -> 614 ;
615 [label="gini = 0.0\nsamples = 1\nvalue = [0, 1]\nclass = 1", fillcolor="#399de5"] ;
613 -> 615 ;
616 [label="TCP_window <= 3285.0\ngini = 0.375\nsamples = 36\nvalue = [27, 9]\nclass = 0", fillcolor="#eeab7b"] ;
604 -> 616 ;
617 [label="TCP_chksum <= 31127.0\ngini = 0.499\nsamples = 19\nvalue = [10, 9]\nclass = 0", fillcolor="#fcf2eb"] ;
616 -> 617 ;
618 [label="IP_id <= 64348.0\ngini = 0.469\nsamples = 16\nvalue = [10, 6]\nclass = 0", fillcolor="#f5cdb0"] ;
617 -> 618 ;
619 [label="entropy <= 3.42\ngini = 0.355\nsamples = 13\nvalue = [10, 3]\nclass = 0", fillcolor="#eda774"] ;
618 -> 619 ;
620 [label="entropy <= 1.526\ngini = 0.48\nsamples = 5\nvalue = [2, 3]\nclass = 1", fillcolor="#bddef6"] ;
619 -> 620 ;
621 [label="gini = 0.0\nsamples = 2\nvalue = [2, 0]\nclass = 0", fillcolor="#e58139"] ;
620 -> 621 ;
622 [label="gini = 0.0\nsamples = 3\nvalue = [0, 3]\nclass = 1", fillcolor="#399de5"] ;
620 -> 622 ;
623 [label="gini = 0.0\nsamples = 8\nvalue = [8, 0]\nclass = 0", fillcolor="#e58139"] ;
619 -> 623 ;
624 [label="gini = 0.0\nsamples = 3\nvalue = [0, 3]\nclass = 1", fillcolor="#399de5"] ;
618 -> 624 ;
625 [label="gini = 0.0\nsamples = 3\nvalue = [0, 3]\nclass = 1", fillcolor="#399de5"] ;
617 -> 625 ;
626 [label="gini = 0.0\nsamples = 17\nvalue = [17, 0]\nclass = 0", fillcolor="#e58139"] ;
616 -> 626 ;
}
