digraph Tree {
node [shape=box, style="filled", color="black"] ;
0 [label="UDP_dport <= 7059.0\ngini = 0.277\nsamples = 4838\nvalue = [4035, 803]\nclass = 0", fillcolor="#ea9a60"] ;
1 [label="TCP_window <= 3444.0\ngini = 0.205\nsamples = 4520\nvalue = [3996, 524]\nclass = 0", fillcolor="#e89253"] ;
0 -> 1 [labeldistance=2.5, labelangle=45, headlabel="True"] ;
2 [label="TCP_dport <= 8606.0\ngini = 0.36\nsamples = 2004\nvalue = [1532, 472]\nclass = 0", fillcolor="#eda876"] ;
1 -> 2 ;
3 [label="sport <= 5344.5\ngini = 0.264\nsamples = 1796\nvalue = [1515, 281]\nclass = 0", fillcolor="#ea985e"] ;
2 -> 3 ;
4 [label="TCP_dataofs <= 6.5\ngini = 0.457\nsamples = 796\nvalue = [515, 281]\nclass = 0", fillcolor="#f3c6a5"] ;
3 -> 4 ;
5 [label="dport <= 1585.0\ngini = 0.4\nsamples = 697\nvalue = [504, 193]\nclass = 0", fillcolor="#efb185"] ;
4 -> 5 ;
6 [label="pck_size <= 56.5\ngini = 0.47\nsamples = 495\nvalue = [308, 187]\nclass = 0", fillcolor="#f5ceb1"] ;
5 -> 6 ;
7 [label="LLC_ssap <= 0.5\ngini = 0.166\nsamples = 142\nvalue = [129, 13]\nclass = 0", fillcolor="#e88e4d"] ;
6 -> 7 ;
8 [label="gini = 0.0\nsamples = 124\nvalue = [124, 0]\nclass = 0", fillcolor="#e58139"] ;
7 -> 8 ;
9 [label="Protocol <= 2.5\ngini = 0.401\nsamples = 18\nvalue = [5, 13]\nclass = 1", fillcolor="#85c3ef"] ;
7 -> 9 ;
10 [label="gini = 0.0\nsamples = 1\nvalue = [1, 0]\nclass = 0", fillcolor="#e58139"] ;
9 -> 10 ;
11 [label="Protocol <= 5.5\ngini = 0.36\nsamples = 17\nvalue = [4, 13]\nclass = 1", fillcolor="#76bbed"] ;
9 -> 11 ;
12 [label="Protocol <= 3.5\ngini = 0.26\nsamples = 13\nvalue = [2, 11]\nclass = 1", fillcolor="#5dafea"] ;
11 -> 12 ;
13 [label="gini = 0.0\nsamples = 1\nvalue = [0, 1]\nclass = 1", fillcolor="#399de5"] ;
12 -> 13 ;
14 [label="Protocol <= 4.5\ngini = 0.278\nsamples = 12\nvalue = [2, 10]\nclass = 1", fillcolor="#61b1ea"] ;
12 -> 14 ;
15 [label="gini = 0.298\nsamples = 11\nvalue = [2, 9]\nclass = 1", fillcolor="#65b3eb"] ;
14 -> 15 ;
16 [label="gini = 0.0\nsamples = 1\nvalue = [0, 1]\nclass = 1", fillcolor="#399de5"] ;
14 -> 16 ;
17 [label="Protocol <= 6.5\ngini = 0.5\nsamples = 4\nvalue = [2, 2]\nclass = 0", fillcolor="#ffffff"] ;
11 -> 17 ;
18 [label="gini = 0.0\nsamples = 1\nvalue = [1, 0]\nclass = 0", fillcolor="#e58139"] ;
17 -> 18 ;
19 [label="Protocol <= 7.5\ngini = 0.444\nsamples = 3\nvalue = [1, 2]\nclass = 1", fillcolor="#9ccef2"] ;
17 -> 19 ;
20 [label="gini = 0.0\nsamples = 1\nvalue = [0, 1]\nclass = 1", fillcolor="#399de5"] ;
19 -> 20 ;
21 [label="Protocol <= 11.0\ngini = 0.5\nsamples = 2\nvalue = [1, 1]\nclass = 0", fillcolor="#ffffff"] ;
19 -> 21 ;
22 [label="gini = 0.0\nsamples = 1\nvalue = [1, 0]\nclass = 0", fillcolor="#e58139"] ;
21 -> 22 ;
23 [label="gini = 0.0\nsamples = 1\nvalue = [0, 1]\nclass = 1", fillcolor="#399de5"] ;
21 -> 23 ;
24 [label="UDP_sport <= 3072.5\ngini = 0.5\nsamples = 353\nvalue = [179, 174]\nclass = 0", fillcolor="#fefbf9"] ;
6 -> 24 ;
25 [label="sport <= 1147.0\ngini = 0.489\nsamples = 296\nvalue = [126, 170]\nclass = 1", fillcolor="#cce6f8"] ;
24 -> 25 ;
26 [label="UDP_chksum <= 1081.5\ngini = 0.495\nsamples = 224\nvalue = [123, 101]\nclass = 0", fillcolor="#fae8dc"] ;
25 -> 26 ;
27 [label="entropy <= 0.968\ngini = 0.486\nsamples = 173\nvalue = [72, 101]\nclass = 1", fillcolor="#c6e3f8"] ;
26 -> 27 ;
28 [label="gini = 0.0\nsamples = 19\nvalue = [19, 0]\nclass = 0", fillcolor="#e58139"] ;
27 -> 28 ;
29 [label="IP_len <= 470.5\ngini = 0.451\nsamples = 154\nvalue = [53, 101]\nclass = 1", fillcolor="#a1d0f3"] ;
27 -> 29 ;
30 [label="EAPOL_len <= 47.5\ngini = 0.496\nsamples = 112\nvalue = [51, 61]\nclass = 1", fillcolor="#dfeffb"] ;
29 -> 30 ;
31 [label="gini = 0.0\nsamples = 6\nvalue = [6, 0]\nclass = 0", fillcolor="#e58139"] ;
30 -> 31 ;
32 [label="entropy <= 4.189\ngini = 0.489\nsamples = 106\nvalue = [45, 61]\nclass = 1", fillcolor="#cbe5f8"] ;
30 -> 32 ;
33 [label="Protocol <= 12.0\ngini = 0.485\nsamples = 104\nvalue = [43, 61]\nclass = 1", fillcolor="#c5e2f7"] ;
32 -> 33 ;
34 [label="Protocol <= 4.5\ngini = 0.492\nsamples = 96\nvalue = [42, 54]\nclass = 1", fillcolor="#d3e9f9"] ;
33 -> 34 ;
35 [label="entropy <= 1.621\ngini = 0.482\nsamples = 89\nvalue = [36, 53]\nclass = 1", fillcolor="#bfe0f7"] ;
34 -> 35 ;
36 [label="Protocol <= 3.5\ngini = 0.375\nsamples = 24\nvalue = [6, 18]\nclass = 1", fillcolor="#7bbeee"] ;
35 -> 36 ;
37 [label="gini = 0.0\nsamples = 1\nvalue = [1, 0]\nclass = 0", fillcolor="#e58139"] ;
36 -> 37 ;
38 [label="entropy <= 1.606\ngini = 0.34\nsamples = 23\nvalue = [5, 18]\nclass = 1", fillcolor="#70b8ec"] ;
36 -> 38 ;
39 [label="entropy <= 1.596\ngini = 0.408\nsamples = 14\nvalue = [4, 10]\nclass = 1", fillcolor="#88c4ef"] ;
38 -> 39 ;
40 [label="entropy <= 1.585\ngini = 0.355\nsamples = 13\nvalue = [3, 10]\nclass = 1", fillcolor="#74baed"] ;
39 -> 40 ;
41 [label="entropy <= 1.559\ngini = 0.245\nsamples = 7\nvalue = [1, 6]\nclass = 1", fillcolor="#5aade9"] ;
40 -> 41 ;
42 [label="entropy <= 1.529\ngini = 0.444\nsamples = 3\nvalue = [1, 2]\nclass = 1", fillcolor="#9ccef2"] ;
41 -> 42 ;
43 [label="gini = 0.0\nsamples = 1\nvalue = [0, 1]\nclass = 1", fillcolor="#399de5"] ;
42 -> 43 ;
44 [label="gini = 0.5\nsamples = 2\nvalue = [1, 1]\nclass = 0", fillcolor="#ffffff"] ;
42 -> 44 ;
45 [label="gini = 0.0\nsamples = 4\nvalue = [0, 4]\nclass = 1", fillcolor="#399de5"] ;
41 -> 45 ;
46 [label="gini = 0.444\nsamples = 6\nvalue = [2, 4]\nclass = 1", fillcolor="#9ccef2"] ;
40 -> 46 ;
47 [label="gini = 0.0\nsamples = 1\nvalue = [1, 0]\nclass = 0", fillcolor="#e58139"] ;
39 -> 47 ;
48 [label="gini = 0.198\nsamples = 9\nvalue = [1, 8]\nclass = 1", fillcolor="#52a9e8"] ;
38 -> 48 ;
49 [label="entropy <= 4.078\ngini = 0.497\nsamples = 65\nvalue = [30, 35]\nclass = 1", fillcolor="#e3f1fb"] ;
35 -> 49 ;
50 [label="Protocol <= 3.5\ngini = 0.494\nsamples = 38\nvalue = [21, 17]\nclass = 0", fillcolor="#fae7d9"] ;
49 -> 50 ;
51 [label="pck_size <= 106.0\ngini = 0.444\nsamples = 6\nvalue = [2, 4]\nclass = 1", fillcolor="#9ccef2"] ;
50 -> 51 ;
52 [label="Protocol <= 2.5\ngini = 0.32\nsamples = 5\nvalue = [1, 4]\nclass = 1", fillcolor="#6ab6ec"] ;
51 -> 52 ;
53 [label="gini = 0.0\nsamples = 1\nvalue = [0, 1]\nclass = 1", fillcolor="#399de5"] ;
52 -> 53 ;
54 [label="gini = 0.375\nsamples = 4\nvalue = [1, 3]\nclass = 1", fillcolor="#7bbeee"] ;
52 -> 54 ;
55 [label="gini = 0.0\nsamples = 1\nvalue = [1, 0]\nclass = 0", fillcolor="#e58139"] ;
51 -> 55 ;
56 [label="pck_size <= 106.0\ngini = 0.482\nsamples = 32\nvalue = [19, 13]\nclass = 0", fillcolor="#f7d7c0"] ;
50 -> 56 ;
57 [label="entropy <= 1.642\ngini = 0.444\nsamples = 21\nvalue = [14, 7]\nclass = 0", fillcolor="#f2c09c"] ;
56 -> 57 ;
58 [label="gini = 0.475\nsamples = 18\nvalue = [11, 7]\nclass = 0", fillcolor="#f6d1b7"] ;
57 -> 58 ;
59 [label="gini = 0.0\nsamples = 3\nvalue = [3, 0]\nclass = 0", fillcolor="#e58139"] ;
57 -> 59 ;
60 [label="entropy <= 4.075\ngini = 0.496\nsamples = 11\nvalue = [5, 6]\nclass = 1", fillcolor="#deeffb"] ;
56 -> 60 ;
61 [label="entropy <= 4.019\ngini = 0.48\nsamples = 10\nvalue = [4, 6]\nclass = 1", fillcolor="#bddef6"] ;
60 -> 61 ;
62 [label="gini = 0.0\nsamples = 1\nvalue = [0, 1]\nclass = 1", fillcolor="#399de5"] ;
61 -> 62 ;
63 [label="entropy <= 4.071\ngini = 0.494\nsamples = 9\nvalue = [4, 5]\nclass = 1", fillcolor="#d7ebfa"] ;
61 -> 63 ;
64 [label="entropy <= 4.066\ngini = 0.5\nsamples = 8\nvalue = [4, 4]\nclass = 0", fillcolor="#ffffff"] ;
63 -> 64 ;
65 [label="entropy <= 4.048\ngini = 0.49\nsamples = 7\nvalue = [3, 4]\nclass = 1", fillcolor="#cee6f8"] ;
64 -> 65 ;
66 [label="entropy <= 4.043\ngini = 0.444\nsamples = 3\nvalue = [1, 2]\nclass = 1", fillcolor="#9ccef2"] ;
65 -> 66 ;
67 [label="gini = 0.5\nsamples = 2\nvalue = [1, 1]\nclass = 0", fillcolor="#ffffff"] ;
66 -> 67 ;
68 [label="gini = 0.0\nsamples = 1\nvalue = [0, 1]\nclass = 1", fillcolor="#399de5"] ;
66 -> 68 ;
69 [label="entropy <= 4.054\ngini = 0.5\nsamples = 4\nvalue = [2, 2]\nclass = 0", fillcolor="#ffffff"] ;
65 -> 69 ;
70 [label="gini = 0.0\nsamples = 1\nvalue = [1, 0]\nclass = 0", fillcolor="#e58139"] ;
69 -> 70 ;
71 [label="entropy <= 4.059\ngini = 0.444\nsamples = 3\nvalue = [1, 2]\nclass = 1", fillcolor="#9ccef2"] ;
69 -> 71 ;
72 [label="gini = 0.0\nsamples = 1\nvalue = [0, 1]\nclass = 1", fillcolor="#399de5"] ;
71 -> 72 ;
73 [label="gini = 0.5\nsamples = 2\nvalue = [1, 1]\nclass = 0", fillcolor="#ffffff"] ;
71 -> 73 ;
74 [label="gini = 0.0\nsamples = 1\nvalue = [1, 0]\nclass = 0", fillcolor="#e58139"] ;
64 -> 74 ;
75 [label="gini = 0.0\nsamples = 1\nvalue = [0, 1]\nclass = 1", fillcolor="#399de5"] ;
63 -> 75 ;
76 [label="gini = 0.0\nsamples = 1\nvalue = [1, 0]\nclass = 0", fillcolor="#e58139"] ;
60 -> 76 ;
77 [label="entropy <= 4.125\ngini = 0.444\nsamples = 27\nvalue = [9, 18]\nclass = 1", fillcolor="#9ccef2"] ;
49 -> 77 ;
78 [label="entropy <= 4.092\ngini = 0.291\nsamples = 17\nvalue = [3, 14]\nclass = 1", fillcolor="#63b2eb"] ;
77 -> 78 ;
79 [label="gini = 0.0\nsamples = 5\nvalue = [0, 5]\nclass = 1", fillcolor="#399de5"] ;
78 -> 79 ;
80 [label="entropy <= 4.096\ngini = 0.375\nsamples = 12\nvalue = [3, 9]\nclass = 1", fillcolor="#7bbeee"] ;
78 -> 80 ;
81 [label="gini = 0.0\nsamples = 1\nvalue = [1, 0]\nclass = 0", fillcolor="#e58139"] ;
80 -> 81 ;
82 [label="entropy <= 4.103\ngini = 0.298\nsamples = 11\nvalue = [2, 9]\nclass = 1", fillcolor="#65b3eb"] ;
80 -> 82 ;
83 [label="gini = 0.0\nsamples = 4\nvalue = [0, 4]\nclass = 1", fillcolor="#399de5"] ;
82 -> 83 ;
84 [label="entropy <= 4.112\ngini = 0.408\nsamples = 7\nvalue = [2, 5]\nclass = 1", fillcolor="#88c4ef"] ;
82 -> 84 ;
85 [label="entropy <= 4.104\ngini = 0.444\nsamples = 3\nvalue = [2, 1]\nclass = 0", fillcolor="#f2c09c"] ;
84 -> 85 ;
86 [label="gini = 0.0\nsamples = 1\nvalue = [1, 0]\nclass = 0", fillcolor="#e58139"] ;
85 -> 86 ;
87 [label="entropy <= 4.108\ngini = 0.5\nsamples = 2\nvalue = [1, 1]\nclass = 0", fillcolor="#ffffff"] ;
85 -> 87 ;
88 [label="gini = 0.0\nsamples = 1\nvalue = [0, 1]\nclass = 1", fillcolor="#399de5"] ;
87 -> 88 ;
89 [label="gini = 0.0\nsamples = 1\nvalue = [1, 0]\nclass = 0", fillcolor="#e58139"] ;
87 -> 89 ;
90 [label="gini = 0.0\nsamples = 4\nvalue = [0, 4]\nclass = 1", fillcolor="#399de5"] ;
84 -> 90 ;
91 [label="entropy <= 4.162\ngini = 0.48\nsamples = 10\nvalue = [6, 4]\nclass = 0", fillcolor="#f6d5bd"] ;
77 -> 91 ;
92 [label="entropy <= 4.157\ngini = 0.245\nsamples = 7\nvalue = [6, 1]\nclass = 0", fillcolor="#e9965a"] ;
91 -> 92 ;
93 [label="gini = 0.0\nsamples = 4\nvalue = [4, 0]\nclass = 0", fillcolor="#e58139"] ;
92 -> 93 ;
94 [label="Protocol <= 3.5\ngini = 0.444\nsamples = 3\nvalue = [2, 1]\nclass = 0", fillcolor="#f2c09c"] ;
92 -> 94 ;
95 [label="gini = 0.0\nsamples = 1\nvalue = [1, 0]\nclass = 0", fillcolor="#e58139"] ;
94 -> 95 ;
96 [label="gini = 0.5\nsamples = 2\nvalue = [1, 1]\nclass = 0", fillcolor="#ffffff"] ;
94 -> 96 ;
97 [label="gini = 0.0\nsamples = 3\nvalue = [0, 3]\nclass = 1", fillcolor="#399de5"] ;
91 -> 97 ;
98 [label="entropy <= 4.102\ngini = 0.245\nsamples = 7\nvalue = [6, 1]\nclass = 0", fillcolor="#e9965a"] ;
34 -> 98 ;
99 [label="gini = 0.0\nsamples = 5\nvalue = [5, 0]\nclass = 0", fillcolor="#e58139"] ;
98 -> 99 ;
100 [label="entropy <= 4.141\ngini = 0.5\nsamples = 2\nvalue = [1, 1]\nclass = 0", fillcolor="#ffffff"] ;
98 -> 100 ;
101 [label="gini = 0.0\nsamples = 1\nvalue = [0, 1]\nclass = 1", fillcolor="#399de5"] ;
100 -> 101 ;
102 [label="gini = 0.0\nsamples = 1\nvalue = [1, 0]\nclass = 0", fillcolor="#e58139"] ;
100 -> 102 ;
103 [label="payload_bytes <= 106.0\ngini = 0.219\nsamples = 8\nvalue = [1, 7]\nclass = 1", fillcolor="#55abe9"] ;
33 -> 103 ;
104 [label="entropy <= 1.621\ngini = 0.444\nsamples = 3\nvalue = [1, 2]\nclass = 1", fillcolor="#9ccef2"] ;
103 -> 104 ;
105 [label="gini = 0.0\nsamples = 1\nvalue = [0, 1]\nclass = 1", fillcolor="#399de5"] ;
104 -> 105 ;
106 [label="gini = 0.5\nsamples = 2\nvalue = [1, 1]\nclass = 0", fillcolor="#ffffff"] ;
104 -> 106 ;
107 [label="gini = 0.0\nsamples = 5\nvalue = [0, 5]\nclass = 1", fillcolor="#399de5"] ;
103 -> 107 ;
108 [label="gini = 0.0\nsamples = 2\nvalue = [2, 0]\nclass = 0", fillcolor="#e58139"] ;
32 -> 108 ;
109 [label="Protocol <= 4.5\ngini = 0.091\nsamples = 42\nvalue = [2, 40]\nclass = 1", fillcolor="#43a2e6"] ;
29 -> 109 ;
110 [label="gini = 0.0\nsamples = 28\nvalue = [0, 28]\nclass = 1", fillcolor="#399de5"] ;
109 -> 110 ;
111 [label="Protocol <= 6.0\ngini = 0.245\nsamples = 14\nvalue = [2, 12]\nclass = 1", fillcolor="#5aade9"] ;
109 -> 111 ;
112 [label="gini = 0.0\nsamples = 1\nvalue = [1, 0]\nclass = 0", fillcolor="#e58139"] ;
111 -> 112 ;
113 [label="BOOTP_xid <= 412779360.0\ngini = 0.142\nsamples = 13\nvalue = [1, 12]\nclass = 1", fillcolor="#49a5e7"] ;
111 -> 113 ;
114 [label="BOOTP_xid <= 65569916.0\ngini = 0.375\nsamples = 4\nvalue = [1, 3]\nclass = 1", fillcolor="#7bbeee"] ;
113 -> 114 ;
115 [label="gini = 0.0\nsamples = 3\nvalue = [0, 3]\nclass = 1", fillcolor="#399de5"] ;
114 -> 115 ;
116 [label="gini = 0.0\nsamples = 1\nvalue = [1, 0]\nclass = 0", fillcolor="#e58139"] ;
114 -> 116 ;
117 [label="gini = 0.0\nsamples = 9\nvalue = [0, 9]\nclass = 1", fillcolor="#399de5"] ;
113 -> 117 ;
118 [label="gini = 0.0\nsamples = 51\nvalue = [51, 0]\nclass = 0", fillcolor="#e58139"] ;
26 -> 118 ;
119 [label="UDP_chksum <= 15321.0\ngini = 0.08\nsamples = 72\nvalue = [3, 69]\nclass = 1", fillcolor="#42a1e6"] ;
25 -> 119 ;
120 [label="DNS_id <= 2.5\ngini = 0.245\nsamples = 21\nvalue = [3, 18]\nclass = 1", fillcolor="#5aade9"] ;
119 -> 120 ;
121 [label="Protocol <= 3.5\ngini = 0.1\nsamples = 19\nvalue = [1, 18]\nclass = 1", fillcolor="#44a2e6"] ;
120 -> 121 ;
122 [label="UDP_chksum <= 13493.0\ngini = 0.5\nsamples = 2\nvalue = [1, 1]\nclass = 0", fillcolor="#ffffff"] ;
121 -> 122 ;
123 [label="gini = 0.0\nsamples = 1\nvalue = [1, 0]\nclass = 0", fillcolor="#e58139"] ;
122 -> 123 ;
124 [label="gini = 0.0\nsamples = 1\nvalue = [0, 1]\nclass = 1", fillcolor="#399de5"] ;
122 -> 124 ;
125 [label="gini = 0.0\nsamples = 17\nvalue = [0, 17]\nclass = 1", fillcolor="#399de5"] ;
121 -> 125 ;
126 [label="gini = 0.0\nsamples = 2\nvalue = [2, 0]\nclass = 0", fillcolor="#e58139"] ;
120 -> 126 ;
127 [label="gini = 0.0\nsamples = 51\nvalue = [0, 51]\nclass = 1", fillcolor="#399de5"] ;
119 -> 127 ;
128 [label="sport <= 3074.0\ngini = 0.131\nsamples = 57\nvalue = [53, 4]\nclass = 0", fillcolor="#e78b48"] ;
24 -> 128 ;
129 [label="pck_size <= 68.5\ngini = 0.391\nsamples = 15\nvalue = [11, 4]\nclass = 0", fillcolor="#eeaf81"] ;
128 -> 129 ;
130 [label="UDP_chksum <= 45690.0\ngini = 0.49\nsamples = 7\nvalue = [3, 4]\nclass = 1", fillcolor="#cee6f8"] ;
129 -> 130 ;
131 [label="gini = 0.0\nsamples = 3\nvalue = [3, 0]\nclass = 0", fillcolor="#e58139"] ;
130 -> 131 ;
132 [label="gini = 0.0\nsamples = 4\nvalue = [0, 4]\nclass = 1", fillcolor="#399de5"] ;
130 -> 132 ;
133 [label="gini = 0.0\nsamples = 8\nvalue = [8, 0]\nclass = 0", fillcolor="#e58139"] ;
129 -> 133 ;
134 [label="gini = 0.0\nsamples = 42\nvalue = [42, 0]\nclass = 0", fillcolor="#e58139"] ;
128 -> 134 ;
135 [label="UDP_sport <= 4211.5\ngini = 0.058\nsamples = 202\nvalue = [196, 6]\nclass = 0", fillcolor="#e6853f"] ;
5 -> 135 ;
136 [label="gini = 0.0\nsamples = 196\nvalue = [196, 0]\nclass = 0", fillcolor="#e58139"] ;
135 -> 136 ;
137 [label="gini = 0.0\nsamples = 6\nvalue = [0, 6]\nclass = 1", fillcolor="#399de5"] ;
135 -> 137 ;
138 [label="dport <= 1777.5\ngini = 0.198\nsamples = 99\nvalue = [11, 88]\nclass = 1", fillcolor="#52a9e8"] ;
4 -> 138 ;
139 [label="TCP_sport <= 3217.5\ngini = 0.083\nsamples = 92\nvalue = [4, 88]\nclass = 1", fillcolor="#42a1e6"] ;
138 -> 139 ;
140 [label="TCP_ack <= 3698836480.0\ngini = 0.5\nsamples = 4\nvalue = [2, 2]\nclass = 0", fillcolor="#ffffff"] ;
139 -> 140 ;
141 [label="gini = 0.0\nsamples = 2\nvalue = [2, 0]\nclass = 0", fillcolor="#e58139"] ;
140 -> 141 ;
142 [label="gini = 0.0\nsamples = 2\nvalue = [0, 2]\nclass = 1", fillcolor="#399de5"] ;
140 -> 142 ;
143 [label="TCP_seq <= 1071914336.0\ngini = 0.044\nsamples = 88\nvalue = [2, 86]\nclass = 1", fillcolor="#3e9fe6"] ;
139 -> 143 ;
144 [label="TCP_seq <= 1070164960.0\ngini = 0.198\nsamples = 18\nvalue = [2, 16]\nclass = 1", fillcolor="#52a9e8"] ;
143 -> 144 ;
145 [label="TCP_seq <= 1069111872.0\ngini = 0.111\nsamples = 17\nvalue = [1, 16]\nclass = 1", fillcolor="#45a3e7"] ;
144 -> 145 ;
146 [label="gini = 0.0\nsamples = 13\nvalue = [0, 13]\nclass = 1", fillcolor="#399de5"] ;
145 -> 146 ;
147 [label="IP_id <= 29384.0\ngini = 0.375\nsamples = 4\nvalue = [1, 3]\nclass = 1", fillcolor="#7bbeee"] ;
145 -> 147 ;
148 [label="gini = 0.0\nsamples = 3\nvalue = [0, 3]\nclass = 1", fillcolor="#399de5"] ;
147 -> 148 ;
149 [label="gini = 0.0\nsamples = 1\nvalue = [1, 0]\nclass = 0", fillcolor="#e58139"] ;
147 -> 149 ;
150 [label="gini = 0.0\nsamples = 1\nvalue = [1, 0]\nclass = 0", fillcolor="#e58139"] ;
144 -> 150 ;
151 [label="gini = 0.0\nsamples = 70\nvalue = [0, 70]\nclass = 1", fillcolor="#399de5"] ;
143 -> 151 ;
152 [label="gini = 0.0\nsamples = 7\nvalue = [7, 0]\nclass = 0", fillcolor="#e58139"] ;
138 -> 152 ;
153 [label="gini = 0.0\nsamples = 1000\nvalue = [1000, 0]\nclass = 0", fillcolor="#e58139"] ;
3 -> 153 ;
154 [label="TCP_seq <= 894986848.0\ngini = 0.15\nsamples = 208\nvalue = [17, 191]\nclass = 1", fillcolor="#4ba6e7"] ;
2 -> 154 ;
155 [label="gini = 0.0\nsamples = 6\nvalue = [6, 0]\nclass = 0", fillcolor="#e58139"] ;
154 -> 155 ;
156 [label="sport <= 26792.5\ngini = 0.103\nsamples = 202\nvalue = [11, 191]\nclass = 1", fillcolor="#44a3e6"] ;
154 -> 156 ;
157 [label="TCP_chksum <= 364.0\ngini = 0.068\nsamples = 198\nvalue = [7, 191]\nclass = 1", fillcolor="#40a1e6"] ;
156 -> 157 ;
158 [label="gini = 0.0\nsamples = 1\nvalue = [1, 0]\nclass = 0", fillcolor="#e58139"] ;
157 -> 158 ;
159 [label="TCP_seq <= 1072425536.0\ngini = 0.059\nsamples = 197\nvalue = [6, 191]\nclass = 1", fillcolor="#3fa0e6"] ;
157 -> 159 ;
160 [label="dport <= 41474.5\ngini = 0.408\nsamples = 7\nvalue = [2, 5]\nclass = 1", fillcolor="#88c4ef"] ;
159 -> 160 ;
161 [label="gini = 0.0\nsamples = 4\nvalue = [0, 4]\nclass = 1", fillcolor="#399de5"] ;
160 -> 161 ;
162 [label="Protocol <= 2.5\ngini = 0.444\nsamples = 3\nvalue = [2, 1]\nclass = 0", fillcolor="#f2c09c"] ;
160 -> 162 ;
163 [label="gini = 0.0\nsamples = 1\nvalue = [0, 1]\nclass = 1", fillcolor="#399de5"] ;
162 -> 163 ;
164 [label="gini = 0.0\nsamples = 2\nvalue = [2, 0]\nclass = 0", fillcolor="#e58139"] ;
162 -> 164 ;
165 [label="Protocol <= 3.5\ngini = 0.041\nsamples = 190\nvalue = [4, 186]\nclass = 1", fillcolor="#3d9fe6"] ;
159 -> 165 ;
166 [label="TCP_ack <= 4018746496.0\ngini = 0.245\nsamples = 14\nvalue = [2, 12]\nclass = 1", fillcolor="#5aade9"] ;
165 -> 166 ;
167 [label="gini = 0.0\nsamples = 9\nvalue = [0, 9]\nclass = 1", fillcolor="#399de5"] ;
166 -> 167 ;
168 [label="sport <= 7067.5\ngini = 0.48\nsamples = 5\nvalue = [2, 3]\nclass = 1", fillcolor="#bddef6"] ;
166 -> 168 ;
169 [label="gini = 0.0\nsamples = 2\nvalue = [2, 0]\nclass = 0", fillcolor="#e58139"] ;
168 -> 169 ;
170 [label="gini = 0.0\nsamples = 3\nvalue = [0, 3]\nclass = 1", fillcolor="#399de5"] ;
168 -> 170 ;
171 [label="IP_id <= 56011.0\ngini = 0.022\nsamples = 176\nvalue = [2, 174]\nclass = 1", fillcolor="#3b9ee5"] ;
165 -> 171 ;
172 [label="TCP_chksum <= 60700.0\ngini = 0.012\nsamples = 168\nvalue = [1, 167]\nclass = 1", fillcolor="#3a9ee5"] ;
171 -> 172 ;
173 [label="gini = 0.0\nsamples = 155\nvalue = [0, 155]\nclass = 1", fillcolor="#399de5"] ;
172 -> 173 ;
174 [label="TCP_chksum <= 61318.5\ngini = 0.142\nsamples = 13\nvalue = [1, 12]\nclass = 1", fillcolor="#49a5e7"] ;
172 -> 174 ;
175 [label="gini = 0.0\nsamples = 1\nvalue = [1, 0]\nclass = 0", fillcolor="#e58139"] ;
174 -> 175 ;
176 [label="gini = 0.0\nsamples = 12\nvalue = [0, 12]\nclass = 1", fillcolor="#399de5"] ;
174 -> 176 ;
177 [label="TCP_dport <= 47604.0\ngini = 0.219\nsamples = 8\nvalue = [1, 7]\nclass = 1", fillcolor="#55abe9"] ;
171 -> 177 ;
178 [label="gini = 0.0\nsamples = 1\nvalue = [1, 0]\nclass = 0", fillcolor="#e58139"] ;
177 -> 178 ;
179 [label="gini = 0.0\nsamples = 7\nvalue = [0, 7]\nclass = 1", fillcolor="#399de5"] ;
177 -> 179 ;
180 [label="gini = 0.0\nsamples = 4\nvalue = [4, 0]\nclass = 0", fillcolor="#e58139"] ;
156 -> 180 ;
181 [label="TCP_flags <= 2.5\ngini = 0.04\nsamples = 2516\nvalue = [2464, 52]\nclass = 0", fillcolor="#e6843d"] ;
1 -> 181 ;
182 [label="TCP_sport <= 18958.5\ngini = 0.275\nsamples = 261\nvalue = [218, 43]\nclass = 0", fillcolor="#ea9a60"] ;
181 -> 182 ;
183 [label="IP_len <= 56.0\ngini = 0.489\nsamples = 75\nvalue = [32, 43]\nclass = 1", fillcolor="#cce6f8"] ;
182 -> 183 ;
184 [label="gini = 0.0\nsamples = 24\nvalue = [24, 0]\nclass = 0", fillcolor="#e58139"] ;
183 -> 184 ;
185 [label="TCP_seq <= 1002174528.0\ngini = 0.265\nsamples = 51\nvalue = [8, 43]\nclass = 1", fillcolor="#5eafea"] ;
183 -> 185 ;
186 [label="gini = 0.0\nsamples = 2\nvalue = [2, 0]\nclass = 0", fillcolor="#e58139"] ;
185 -> 186 ;
187 [label="sport <= 3216.5\ngini = 0.215\nsamples = 49\nvalue = [6, 43]\nclass = 1", fillcolor="#55abe9"] ;
185 -> 187 ;
188 [label="TCP_sport <= 3112.5\ngini = 0.444\nsamples = 3\nvalue = [2, 1]\nclass = 0", fillcolor="#f2c09c"] ;
187 -> 188 ;
189 [label="gini = 0.0\nsamples = 1\nvalue = [0, 1]\nclass = 1", fillcolor="#399de5"] ;
188 -> 189 ;
190 [label="gini = 0.0\nsamples = 2\nvalue = [2, 0]\nclass = 0", fillcolor="#e58139"] ;
188 -> 190 ;
191 [label="TCP_seq <= 1802271296.0\ngini = 0.159\nsamples = 46\nvalue = [4, 42]\nclass = 1", fillcolor="#4ca6e7"] ;
187 -> 191 ;
192 [label="gini = 0.0\nsamples = 29\nvalue = [0, 29]\nclass = 1", fillcolor="#399de5"] ;
191 -> 192 ;
193 [label="TCP_dport <= 8605.0\ngini = 0.36\nsamples = 17\nvalue = [4, 13]\nclass = 1", fillcolor="#76bbed"] ;
191 -> 193 ;
194 [label="gini = 0.0\nsamples = 4\nvalue = [4, 0]\nclass = 0", fillcolor="#e58139"] ;
193 -> 194 ;
195 [label="gini = 0.0\nsamples = 13\nvalue = [0, 13]\nclass = 1", fillcolor="#399de5"] ;
193 -> 195 ;
196 [label="gini = 0.0\nsamples = 186\nvalue = [186, 0]\nclass = 0", fillcolor="#e58139"] ;
182 -> 196 ;
197 [label="TCP_dport <= 60987.0\ngini = 0.008\nsamples = 2255\nvalue = [2246, 9]\nclass = 0", fillcolor="#e5823a"] ;
181 -> 197 ;
198 [label="IP_id <= 3.0\ngini = 0.007\nsamples = 2254\nvalue = [2246, 8]\nclass = 0", fillcolor="#e5813a"] ;
197 -> 198 ;
199 [label="sport <= 5040.0\ngini = 0.09\nsamples = 170\nvalue = [162, 8]\nclass = 0", fillcolor="#e68743"] ;
198 -> 199 ;
200 [label="gini = 0.0\nsamples = 162\nvalue = [162, 0]\nclass = 0", fillcolor="#e58139"] ;
199 -> 200 ;
201 [label="gini = 0.0\nsamples = 8\nvalue = [0, 8]\nclass = 1", fillcolor="#399de5"] ;
199 -> 201 ;
202 [label="gini = 0.0\nsamples = 2084\nvalue = [2084, 0]\nclass = 0", fillcolor="#e58139"] ;
198 -> 202 ;
203 [label="gini = 0.0\nsamples = 1\nvalue = [0, 1]\nclass = 1", fillcolor="#399de5"] ;
197 -> 203 ;
204 [label="sport <= 61352.0\ngini = 0.215\nsamples = 318\nvalue = [39, 279]\nclass = 1", fillcolor="#55abe9"] ;
0 -> 204 [labeldistance=2.5, labelangle=-45, headlabel="False"] ;
205 [label="IP_ttl <= 96.0\ngini = 0.146\nsamples = 303\nvalue = [24, 279]\nclass = 1", fillcolor="#4aa5e7"] ;
204 -> 205 ;
206 [label="UDP_sport <= 962.5\ngini = 0.114\nsamples = 297\nvalue = [18, 279]\nclass = 1", fillcolor="#46a3e7"] ;
205 -> 206 ;
207 [label="gini = 0.0\nsamples = 2\nvalue = [2, 0]\nclass = 0", fillcolor="#e58139"] ;
206 -> 207 ;
208 [label="entropy <= 2.138\ngini = 0.103\nsamples = 295\nvalue = [16, 279]\nclass = 1", fillcolor="#44a3e6"] ;
206 -> 208 ;
209 [label="entropy <= 2.068\ngini = 0.397\nsamples = 22\nvalue = [6, 16]\nclass = 1", fillcolor="#83c2ef"] ;
208 -> 209 ;
210 [label="Protocol <= 9.0\ngini = 0.111\nsamples = 17\nvalue = [1, 16]\nclass = 1", fillcolor="#45a3e7"] ;
209 -> 210 ;
211 [label="gini = 0.0\nsamples = 13\nvalue = [0, 13]\nclass = 1", fillcolor="#399de5"] ;
210 -> 211 ;
212 [label="UDP_chksum <= 25801.0\ngini = 0.375\nsamples = 4\nvalue = [1, 3]\nclass = 1", fillcolor="#7bbeee"] ;
210 -> 212 ;
213 [label="gini = 0.0\nsamples = 2\nvalue = [0, 2]\nclass = 1", fillcolor="#399de5"] ;
212 -> 213 ;
214 [label="UDP_chksum <= 40973.5\ngini = 0.5\nsamples = 2\nvalue = [1, 1]\nclass = 0", fillcolor="#ffffff"] ;
212 -> 214 ;
215 [label="gini = 0.0\nsamples = 1\nvalue = [1, 0]\nclass = 0", fillcolor="#e58139"] ;
214 -> 215 ;
216 [label="gini = 0.0\nsamples = 1\nvalue = [0, 1]\nclass = 1", fillcolor="#399de5"] ;
214 -> 216 ;
217 [label="gini = 0.0\nsamples = 5\nvalue = [5, 0]\nclass = 0", fillcolor="#e58139"] ;
209 -> 217 ;
218 [label="entropy <= 5.078\ngini = 0.071\nsamples = 273\nvalue = [10, 263]\nclass = 1", fillcolor="#41a1e6"] ;
208 -> 218 ;
219 [label="UDP_sport <= 19600.5\ngini = 0.064\nsamples = 272\nvalue = [9, 263]\nclass = 1", fillcolor="#40a0e6"] ;
218 -> 219 ;
220 [label="UDP_chksum <= 38936.5\ngini = 0.266\nsamples = 19\nvalue = [3, 16]\nclass = 1", fillcolor="#5eafea"] ;
219 -> 220 ;
221 [label="gini = 0.0\nsamples = 16\nvalue = [0, 16]\nclass = 1", fillcolor="#399de5"] ;
220 -> 221 ;
222 [label="gini = 0.0\nsamples = 3\nvalue = [3, 0]\nclass = 0", fillcolor="#e58139"] ;
220 -> 222 ;
223 [label="UDP_chksum <= 62063.5\ngini = 0.046\nsamples = 253\nvalue = [6, 247]\nclass = 1", fillcolor="#3e9fe6"] ;
219 -> 223 ;
224 [label="pck_size <= 150.0\ngini = 0.039\nsamples = 249\nvalue = [5, 244]\nclass = 1", fillcolor="#3d9fe6"] ;
223 -> 224 ;
225 [label="sport <= 21245.5\ngini = 0.075\nsamples = 102\nvalue = [4, 98]\nclass = 1", fillcolor="#41a1e6"] ;
224 -> 225 ;
226 [label="gini = 0.0\nsamples = 1\nvalue = [1, 0]\nclass = 0", fillcolor="#e58139"] ;
225 -> 226 ;
227 [label="UDP_chksum <= 39875.0\ngini = 0.058\nsamples = 101\nvalue = [3, 98]\nclass = 1", fillcolor="#3fa0e6"] ;
225 -> 227 ;
228 [label="entropy <= 4.342\ngini = 0.021\nsamples = 95\nvalue = [1, 94]\nclass = 1", fillcolor="#3b9ee5"] ;
227 -> 228 ;
229 [label="UDP_chksum <= 18848.5\ngini = 0.165\nsamples = 11\nvalue = [1, 10]\nclass = 1", fillcolor="#4da7e8"] ;
228 -> 229 ;
230 [label="gini = 0.0\nsamples = 9\nvalue = [0, 9]\nclass = 1", fillcolor="#399de5"] ;
229 -> 230 ;
231 [label="sport <= 31523.0\ngini = 0.5\nsamples = 2\nvalue = [1, 1]\nclass = 0", fillcolor="#ffffff"] ;
229 -> 231 ;
232 [label="gini = 0.0\nsamples = 1\nvalue = [1, 0]\nclass = 0", fillcolor="#e58139"] ;
231 -> 232 ;
233 [label="gini = 0.0\nsamples = 1\nvalue = [0, 1]\nclass = 1", fillcolor="#399de5"] ;
231 -> 233 ;
234 [label="gini = 0.0\nsamples = 84\nvalue = [0, 84]\nclass = 1", fillcolor="#399de5"] ;
228 -> 234 ;
235 [label="UDP_dport <= 29719.5\ngini = 0.444\nsamples = 6\nvalue = [2, 4]\nclass = 1", fillcolor="#9ccef2"] ;
227 -> 235 ;
236 [label="gini = 0.0\nsamples = 4\nvalue = [0, 4]\nclass = 1", fillcolor="#399de5"] ;
235 -> 236 ;
237 [label="gini = 0.0\nsamples = 2\nvalue = [2, 0]\nclass = 0", fillcolor="#e58139"] ;
235 -> 237 ;
238 [label="Protocol <= 3.5\ngini = 0.014\nsamples = 147\nvalue = [1, 146]\nclass = 1", fillcolor="#3a9ee5"] ;
224 -> 238 ;
239 [label="payload_bytes <= 282.5\ngini = 0.165\nsamples = 11\nvalue = [1, 10]\nclass = 1", fillcolor="#4da7e8"] ;
238 -> 239 ;
240 [label="gini = 0.0\nsamples = 10\nvalue = [0, 10]\nclass = 1", fillcolor="#399de5"] ;
239 -> 240 ;
241 [label="gini = 0.0\nsamples = 1\nvalue = [1, 0]\nclass = 0", fillcolor="#e58139"] ;
239 -> 241 ;
242 [label="gini = 0.0\nsamples = 136\nvalue = [0, 136]\nclass = 1", fillcolor="#399de5"] ;
238 -> 242 ;
243 [label="UDP_dport <= 24710.0\ngini = 0.375\nsamples = 4\nvalue = [1, 3]\nclass = 1", fillcolor="#7bbeee"] ;
223 -> 243 ;
244 [label="gini = 0.0\nsamples = 3\nvalue = [0, 3]\nclass = 1", fillcolor="#399de5"] ;
243 -> 244 ;
245 [label="gini = 0.0\nsamples = 1\nvalue = [1, 0]\nclass = 0", fillcolor="#e58139"] ;
243 -> 245 ;
246 [label="gini = 0.0\nsamples = 1\nvalue = [1, 0]\nclass = 0", fillcolor="#e58139"] ;
218 -> 246 ;
247 [label="gini = 0.0\nsamples = 6\nvalue = [6, 0]\nclass = 0", fillcolor="#e58139"] ;
205 -> 247 ;
248 [label="gini = 0.0\nsamples = 15\nvalue = [15, 0]\nclass = 0", fillcolor="#e58139"] ;
204 -> 248 ;
}
