digraph Tree {
node [shape=box, style="filled", color="black"] ;
0 [label="dport <= 74.5\ngini = 0.279\nsamples = 1782\nvalue = [1484, 298]\nclass = 0", fillcolor="#ea9a61"] ;
1 [label="DNS_qdcount <= 0.5\ngini = 0.427\nsamples = 431\nvalue = [133, 298]\nclass = 1", fillcolor="#91c9f1"] ;
0 -> 1 [labeldistance=2.5, labelangle=45, headlabel="True"] ;
2 [label="IP_ihl <= 5.5\ngini = 0.303\nsamples = 366\nvalue = [68, 298]\nclass = 1", fillcolor="#66b3eb"] ;
1 -> 2 ;
3 [label="UDP_dport <= 67.5\ngini = 0.232\nsamples = 344\nvalue = [46, 298]\nclass = 1", fillcolor="#58ace9"] ;
2 -> 3 ;
4 [label="BOOTP_flags <= 2.5\ngini = 0.393\nsamples = 171\nvalue = [46, 125]\nclass = 1", fillcolor="#82c1ef"] ;
3 -> 4 ;
5 [label="ICMP_chksum <= 881.0\ngini = 0.372\nsamples = 166\nvalue = [41, 125]\nclass = 1", fillcolor="#7abdee"] ;
4 -> 5 ;
6 [label="IP_id <= 0.5\ngini = 0.352\nsamples = 162\nvalue = [37, 125]\nclass = 1", fillcolor="#74baed"] ;
5 -> 6 ;
7 [label="pck_size <= 0.5\ngini = 0.336\nsamples = 159\nvalue = [34, 125]\nclass = 1", fillcolor="#6fb8ec"] ;
6 -> 7 ;
8 [label="Protocol <= 3.5\ngini = 0.494\nsamples = 18\nvalue = [8, 10]\nclass = 1", fillcolor="#d7ebfa"] ;
7 -> 8 ;
9 [label="gini = 0.0\nsamples = 2\nvalue = [0, 2]\nclass = 1", fillcolor="#399de5"] ;
8 -> 9 ;
10 [label="Protocol <= 15.0\ngini = 0.5\nsamples = 16\nvalue = [8, 8]\nclass = 0", fillcolor="#ffffff"] ;
8 -> 10 ;
11 [label="Protocol <= 5.5\ngini = 0.498\nsamples = 15\nvalue = [7, 8]\nclass = 1", fillcolor="#e6f3fc"] ;
10 -> 11 ;
12 [label="gini = 0.496\nsamples = 11\nvalue = [6, 5]\nclass = 0", fillcolor="#fbeade"] ;
11 -> 12 ;
13 [label="Protocol <= 10.5\ngini = 0.375\nsamples = 4\nvalue = [1, 3]\nclass = 1", fillcolor="#7bbeee"] ;
11 -> 13 ;
14 [label="gini = 0.0\nsamples = 1\nvalue = [0, 1]\nclass = 1", fillcolor="#399de5"] ;
13 -> 14 ;
15 [label="gini = 0.444\nsamples = 3\nvalue = [1, 2]\nclass = 1", fillcolor="#9ccef2"] ;
13 -> 15 ;
16 [label="gini = 0.0\nsamples = 1\nvalue = [1, 0]\nclass = 0", fillcolor="#e58139"] ;
10 -> 16 ;
17 [label="entropy <= 1.207\ngini = 0.301\nsamples = 141\nvalue = [26, 115]\nclass = 1", fillcolor="#66b3eb"] ;
7 -> 17 ;
18 [label="entropy <= 0.942\ngini = 0.15\nsamples = 61\nvalue = [5, 56]\nclass = 1", fillcolor="#4ba6e7"] ;
17 -> 18 ;
19 [label="BOOTP_file <= 0.5\ngini = 0.285\nsamples = 29\nvalue = [5, 24]\nclass = 1", fillcolor="#62b1ea"] ;
18 -> 19 ;
20 [label="Protocol <= 10.5\ngini = 0.245\nsamples = 28\nvalue = [4, 24]\nclass = 1", fillcolor="#5aade9"] ;
19 -> 20 ;
21 [label="Protocol <= 5.5\ngini = 0.298\nsamples = 22\nvalue = [4, 18]\nclass = 1", fillcolor="#65b3eb"] ;
20 -> 21 ;
22 [label="Protocol <= 3.5\ngini = 0.255\nsamples = 20\nvalue = [3, 17]\nclass = 1", fillcolor="#5caeea"] ;
21 -> 22 ;
23 [label="gini = 0.0\nsamples = 2\nvalue = [0, 2]\nclass = 1", fillcolor="#399de5"] ;
22 -> 23 ;
24 [label="gini = 0.278\nsamples = 18\nvalue = [3, 15]\nclass = 1", fillcolor="#61b1ea"] ;
22 -> 24 ;
25 [label="gini = 0.5\nsamples = 2\nvalue = [1, 1]\nclass = 0", fillcolor="#ffffff"] ;
21 -> 25 ;
26 [label="gini = 0.0\nsamples = 6\nvalue = [0, 6]\nclass = 1", fillcolor="#399de5"] ;
20 -> 26 ;
27 [label="gini = 0.0\nsamples = 1\nvalue = [1, 0]\nclass = 0", fillcolor="#e58139"] ;
19 -> 27 ;
28 [label="gini = 0.0\nsamples = 32\nvalue = [0, 32]\nclass = 1", fillcolor="#399de5"] ;
18 -> 28 ;
29 [label="BOOTP_hlen <= 3.0\ngini = 0.387\nsamples = 80\nvalue = [21, 59]\nclass = 1", fillcolor="#7fc0ee"] ;
17 -> 29 ;
30 [label="Protocol <= 3.5\ngini = 0.358\nsamples = 77\nvalue = [18, 59]\nclass = 1", fillcolor="#75bbed"] ;
29 -> 30 ;
31 [label="gini = 0.0\nsamples = 2\nvalue = [2, 0]\nclass = 0", fillcolor="#e58139"] ;
30 -> 31 ;
32 [label="entropy <= 4.086\ngini = 0.336\nsamples = 75\nvalue = [16, 59]\nclass = 1", fillcolor="#6fb8ec"] ;
30 -> 32 ;
33 [label="entropy <= 4.064\ngini = 0.406\nsamples = 53\nvalue = [15, 38]\nclass = 1", fillcolor="#87c4ef"] ;
32 -> 33 ;
34 [label="entropy <= 1.642\ngini = 0.359\nsamples = 47\nvalue = [11, 36]\nclass = 1", fillcolor="#76bbed"] ;
33 -> 34 ;
35 [label="entropy <= 1.54\ngini = 0.418\nsamples = 37\nvalue = [11, 26]\nclass = 1", fillcolor="#8dc6f0"] ;
34 -> 35 ;
36 [label="gini = 0.0\nsamples = 1\nvalue = [1, 0]\nclass = 0", fillcolor="#e58139"] ;
35 -> 36 ;
37 [label="Protocol <= 4.5\ngini = 0.401\nsamples = 36\nvalue = [10, 26]\nclass = 1", fillcolor="#85c3ef"] ;
35 -> 37 ;
38 [label="entropy <= 1.587\ngini = 0.375\nsamples = 28\nvalue = [7, 21]\nclass = 1", fillcolor="#7bbeee"] ;
37 -> 38 ;
39 [label="entropy <= 1.561\ngini = 0.305\nsamples = 16\nvalue = [3, 13]\nclass = 1", fillcolor="#67b4eb"] ;
38 -> 39 ;
40 [label="gini = 0.444\nsamples = 3\nvalue = [1, 2]\nclass = 1", fillcolor="#9ccef2"] ;
39 -> 40 ;
41 [label="LLC_ctrl <= 87.5\ngini = 0.26\nsamples = 13\nvalue = [2, 11]\nclass = 1", fillcolor="#5dafea"] ;
39 -> 41 ;
42 [label="gini = 0.0\nsamples = 2\nvalue = [0, 2]\nclass = 1", fillcolor="#399de5"] ;
41 -> 42 ;
43 [label="gini = 0.298\nsamples = 11\nvalue = [2, 9]\nclass = 1", fillcolor="#65b3eb"] ;
41 -> 43 ;
44 [label="entropy <= 1.6\ngini = 0.444\nsamples = 12\nvalue = [4, 8]\nclass = 1", fillcolor="#9ccef2"] ;
38 -> 44 ;
45 [label="gini = 0.0\nsamples = 1\nvalue = [1, 0]\nclass = 0", fillcolor="#e58139"] ;
44 -> 45 ;
46 [label="entropy <= 1.621\ngini = 0.397\nsamples = 11\nvalue = [3, 8]\nclass = 1", fillcolor="#83c2ef"] ;
44 -> 46 ;
47 [label="gini = 0.444\nsamples = 3\nvalue = [1, 2]\nclass = 1", fillcolor="#9ccef2"] ;
46 -> 47 ;
48 [label="gini = 0.375\nsamples = 8\nvalue = [2, 6]\nclass = 1", fillcolor="#7bbeee"] ;
46 -> 48 ;
49 [label="EAPOL_len <= 47.5\ngini = 0.469\nsamples = 8\nvalue = [3, 5]\nclass = 1", fillcolor="#b0d8f5"] ;
37 -> 49 ;
50 [label="gini = 0.0\nsamples = 2\nvalue = [2, 0]\nclass = 0", fillcolor="#e58139"] ;
49 -> 50 ;
51 [label="Protocol <= 6.5\ngini = 0.278\nsamples = 6\nvalue = [1, 5]\nclass = 1", fillcolor="#61b1ea"] ;
49 -> 51 ;
52 [label="gini = 0.0\nsamples = 1\nvalue = [1, 0]\nclass = 0", fillcolor="#e58139"] ;
51 -> 52 ;
53 [label="gini = 0.0\nsamples = 5\nvalue = [0, 5]\nclass = 1", fillcolor="#399de5"] ;
51 -> 53 ;
54 [label="gini = 0.0\nsamples = 10\nvalue = [0, 10]\nclass = 1", fillcolor="#399de5"] ;
34 -> 54 ;
55 [label="entropy <= 4.072\ngini = 0.444\nsamples = 6\nvalue = [4, 2]\nclass = 0", fillcolor="#f2c09c"] ;
33 -> 55 ;
56 [label="gini = 0.0\nsamples = 1\nvalue = [1, 0]\nclass = 0", fillcolor="#e58139"] ;
55 -> 56 ;
57 [label="entropy <= 4.078\ngini = 0.48\nsamples = 5\nvalue = [3, 2]\nclass = 0", fillcolor="#f6d5bd"] ;
55 -> 57 ;
58 [label="gini = 0.0\nsamples = 1\nvalue = [0, 1]\nclass = 1", fillcolor="#399de5"] ;
57 -> 58 ;
59 [label="Protocol <= 6.0\ngini = 0.375\nsamples = 4\nvalue = [3, 1]\nclass = 0", fillcolor="#eeab7b"] ;
57 -> 59 ;
60 [label="gini = 0.0\nsamples = 3\nvalue = [3, 0]\nclass = 0", fillcolor="#e58139"] ;
59 -> 60 ;
61 [label="gini = 0.0\nsamples = 1\nvalue = [0, 1]\nclass = 1", fillcolor="#399de5"] ;
59 -> 61 ;
62 [label="entropy <= 4.178\ngini = 0.087\nsamples = 22\nvalue = [1, 21]\nclass = 1", fillcolor="#42a2e6"] ;
32 -> 62 ;
63 [label="gini = 0.0\nsamples = 20\nvalue = [0, 20]\nclass = 1", fillcolor="#399de5"] ;
62 -> 63 ;
64 [label="entropy <= 4.187\ngini = 0.5\nsamples = 2\nvalue = [1, 1]\nclass = 0", fillcolor="#ffffff"] ;
62 -> 64 ;
65 [label="gini = 0.0\nsamples = 1\nvalue = [1, 0]\nclass = 0", fillcolor="#e58139"] ;
64 -> 65 ;
66 [label="gini = 0.0\nsamples = 1\nvalue = [0, 1]\nclass = 1", fillcolor="#399de5"] ;
64 -> 66 ;
67 [label="gini = 0.0\nsamples = 3\nvalue = [3, 0]\nclass = 0", fillcolor="#e58139"] ;
29 -> 67 ;
68 [label="gini = 0.0\nsamples = 3\nvalue = [3, 0]\nclass = 0", fillcolor="#e58139"] ;
6 -> 68 ;
69 [label="gini = 0.0\nsamples = 4\nvalue = [4, 0]\nclass = 0", fillcolor="#e58139"] ;
5 -> 69 ;
70 [label="gini = 0.0\nsamples = 5\nvalue = [5, 0]\nclass = 0", fillcolor="#e58139"] ;
4 -> 70 ;
71 [label="gini = 0.0\nsamples = 173\nvalue = [0, 173]\nclass = 1", fillcolor="#399de5"] ;
3 -> 71 ;
72 [label="gini = 0.0\nsamples = 22\nvalue = [22, 0]\nclass = 0", fillcolor="#e58139"] ;
2 -> 72 ;
73 [label="gini = 0.0\nsamples = 65\nvalue = [65, 0]\nclass = 0", fillcolor="#e58139"] ;
1 -> 73 ;
74 [label="gini = 0.0\nsamples = 1351\nvalue = [1351, 0]\nclass = 0", fillcolor="#e58139"] ;
0 -> 74 [labeldistance=2.5, labelangle=-45, headlabel="False"] ;
}
