digraph Tree {
node [shape=box, style="filled", color="black"] ;
0 [label="IP_DF <= 0.5\ngini = 0.279\nsamples = 5400\nvalue = [4496, 904]\nclass = 0", fillcolor="#ea9a61"] ;
1 [label="UDP_sport <= 3189.0\ngini = 0.332\nsamples = 1145\nvalue = [241, 904]\nclass = 1", fillcolor="#6eb7ec"] ;
0 -> 1 [labeldistance=2.5, labelangle=45, headlabel="True"] ;
2 [label="IP_options <= 0.5\ngini = 0.278\nsamples = 264\nvalue = [220, 44]\nclass = 0", fillcolor="#ea9a61"] ;
1 -> 2 ;
3 [label="EAPOL_version <= 0.5\ngini = 0.24\nsamples = 251\nvalue = [216, 35]\nclass = 0", fillcolor="#e99559"] ;
2 -> 3 ;
4 [label="UDP_len <= 315.5\ngini = 0.145\nsamples = 178\nvalue = [164, 14]\nclass = 0", fillcolor="#e78c4a"] ;
3 -> 4 ;
5 [label="Protocol <= 19.0\ngini = 0.03\nsamples = 133\nvalue = [131, 2]\nclass = 0", fillcolor="#e5833c"] ;
4 -> 5 ;
6 [label="Ether_type <= 1024.0\ngini = 0.015\nsamples = 132\nvalue = [131, 1]\nclass = 0", fillcolor="#e5823b"] ;
5 -> 6 ;
7 [label="Protocol <= 5.5\ngini = 0.198\nsamples = 9\nvalue = [8, 1]\nclass = 0", fillcolor="#e89152"] ;
6 -> 7 ;
8 [label="gini = 0.278\nsamples = 6\nvalue = [5, 1]\nclass = 0", fillcolor="#ea9a61"] ;
7 -> 8 ;
9 [label="gini = 0.0\nsamples = 3\nvalue = [3, 0]\nclass = 0", fillcolor="#e58139"] ;
7 -> 9 ;
10 [label="gini = 0.0\nsamples = 123\nvalue = [123, 0]\nclass = 0", fillcolor="#e58139"] ;
6 -> 10 ;
11 [label="gini = 0.0\nsamples = 1\nvalue = [0, 1]\nclass = 1", fillcolor="#399de5"] ;
5 -> 11 ;
12 [label="IP_id <= 6.0\ngini = 0.391\nsamples = 45\nvalue = [33, 12]\nclass = 0", fillcolor="#eeaf81"] ;
4 -> 12 ;
13 [label="gini = 0.0\nsamples = 33\nvalue = [33, 0]\nclass = 0", fillcolor="#e58139"] ;
12 -> 13 ;
14 [label="gini = 0.0\nsamples = 12\nvalue = [0, 12]\nclass = 1", fillcolor="#399de5"] ;
12 -> 14 ;
15 [label="entropy <= 1.657\ngini = 0.41\nsamples = 73\nvalue = [52, 21]\nclass = 0", fillcolor="#f0b489"] ;
3 -> 15 ;
16 [label="Protocol <= 5.5\ngini = 0.491\nsamples = 30\nvalue = [17, 13]\nclass = 0", fillcolor="#f9e1d0"] ;
15 -> 16 ;
17 [label="Protocol <= 2.5\ngini = 0.461\nsamples = 25\nvalue = [16, 9]\nclass = 0", fillcolor="#f4c8a8"] ;
16 -> 17 ;
18 [label="gini = 0.0\nsamples = 2\nvalue = [0, 2]\nclass = 1", fillcolor="#399de5"] ;
17 -> 18 ;
19 [label="Protocol <= 3.5\ngini = 0.423\nsamples = 23\nvalue = [16, 7]\nclass = 0", fillcolor="#f0b890"] ;
17 -> 19 ;
20 [label="gini = 0.0\nsamples = 3\nvalue = [3, 0]\nclass = 0", fillcolor="#e58139"] ;
19 -> 20 ;
21 [label="entropy <= 1.642\ngini = 0.455\nsamples = 20\nvalue = [13, 7]\nclass = 0", fillcolor="#f3c5a4"] ;
19 -> 21 ;
22 [label="entropy <= 1.579\ngini = 0.432\nsamples = 19\nvalue = [13, 6]\nclass = 0", fillcolor="#f1bb94"] ;
21 -> 22 ;
23 [label="gini = 0.0\nsamples = 1\nvalue = [1, 0]\nclass = 0", fillcolor="#e58139"] ;
22 -> 23 ;
24 [label="entropy <= 1.621\ngini = 0.444\nsamples = 18\nvalue = [12, 6]\nclass = 0", fillcolor="#f2c09c"] ;
22 -> 24 ;
25 [label="Protocol <= 4.5\ngini = 0.5\nsamples = 4\nvalue = [2, 2]\nclass = 0", fillcolor="#ffffff"] ;
24 -> 25 ;
26 [label="entropy <= 1.6\ngini = 0.444\nsamples = 3\nvalue = [1, 2]\nclass = 1", fillcolor="#9ccef2"] ;
25 -> 26 ;
27 [label="gini = 0.5\nsamples = 2\nvalue = [1, 1]\nclass = 0", fillcolor="#ffffff"] ;
26 -> 27 ;
28 [label="gini = 0.0\nsamples = 1\nvalue = [0, 1]\nclass = 1", fillcolor="#399de5"] ;
26 -> 28 ;
29 [label="gini = 0.0\nsamples = 1\nvalue = [1, 0]\nclass = 0", fillcolor="#e58139"] ;
25 -> 29 ;
30 [label="Protocol <= 4.5\ngini = 0.408\nsamples = 14\nvalue = [10, 4]\nclass = 0", fillcolor="#efb388"] ;
24 -> 30 ;
31 [label="gini = 0.375\nsamples = 12\nvalue = [9, 3]\nclass = 0", fillcolor="#eeab7b"] ;
30 -> 31 ;
32 [label="gini = 0.5\nsamples = 2\nvalue = [1, 1]\nclass = 0", fillcolor="#ffffff"] ;
30 -> 32 ;
33 [label="gini = 0.0\nsamples = 1\nvalue = [0, 1]\nclass = 1", fillcolor="#399de5"] ;
21 -> 33 ;
34 [label="entropy <= 1.57\ngini = 0.32\nsamples = 5\nvalue = [1, 4]\nclass = 1", fillcolor="#6ab6ec"] ;
16 -> 34 ;
35 [label="gini = 0.0\nsamples = 1\nvalue = [1, 0]\nclass = 0", fillcolor="#e58139"] ;
34 -> 35 ;
36 [label="gini = 0.0\nsamples = 4\nvalue = [0, 4]\nclass = 1", fillcolor="#399de5"] ;
34 -> 36 ;
37 [label="entropy <= 4.068\ngini = 0.303\nsamples = 43\nvalue = [35, 8]\nclass = 0", fillcolor="#eb9e66"] ;
15 -> 37 ;
38 [label="gini = 0.0\nsamples = 10\nvalue = [10, 0]\nclass = 0", fillcolor="#e58139"] ;
37 -> 38 ;
39 [label="entropy <= 4.186\ngini = 0.367\nsamples = 33\nvalue = [25, 8]\nclass = 0", fillcolor="#eda978"] ;
37 -> 39 ;
40 [label="entropy <= 4.119\ngini = 0.435\nsamples = 25\nvalue = [17, 8]\nclass = 0", fillcolor="#f1bc96"] ;
39 -> 40 ;
41 [label="entropy <= 4.095\ngini = 0.32\nsamples = 15\nvalue = [12, 3]\nclass = 0", fillcolor="#eca06a"] ;
40 -> 41 ;
42 [label="entropy <= 4.09\ngini = 0.469\nsamples = 8\nvalue = [5, 3]\nclass = 0", fillcolor="#f5cdb0"] ;
41 -> 42 ;
43 [label="entropy <= 4.075\ngini = 0.278\nsamples = 6\nvalue = [5, 1]\nclass = 0", fillcolor="#ea9a61"] ;
42 -> 43 ;
44 [label="Protocol <= 6.0\ngini = 0.5\nsamples = 2\nvalue = [1, 1]\nclass = 0", fillcolor="#ffffff"] ;
43 -> 44 ;
45 [label="gini = 0.0\nsamples = 1\nvalue = [0, 1]\nclass = 1", fillcolor="#399de5"] ;
44 -> 45 ;
46 [label="gini = 0.0\nsamples = 1\nvalue = [1, 0]\nclass = 0", fillcolor="#e58139"] ;
44 -> 46 ;
47 [label="gini = 0.0\nsamples = 4\nvalue = [4, 0]\nclass = 0", fillcolor="#e58139"] ;
43 -> 47 ;
48 [label="gini = 0.0\nsamples = 2\nvalue = [0, 2]\nclass = 1", fillcolor="#399de5"] ;
42 -> 48 ;
49 [label="gini = 0.0\nsamples = 7\nvalue = [7, 0]\nclass = 0", fillcolor="#e58139"] ;
41 -> 49 ;
50 [label="entropy <= 4.122\ngini = 0.5\nsamples = 10\nvalue = [5, 5]\nclass = 0", fillcolor="#ffffff"] ;
40 -> 50 ;
51 [label="gini = 0.0\nsamples = 1\nvalue = [0, 1]\nclass = 1", fillcolor="#399de5"] ;
50 -> 51 ;
52 [label="entropy <= 4.177\ngini = 0.494\nsamples = 9\nvalue = [5, 4]\nclass = 0", fillcolor="#fae6d7"] ;
50 -> 52 ;
53 [label="Protocol <= 7.0\ngini = 0.469\nsamples = 8\nvalue = [5, 3]\nclass = 0", fillcolor="#f5cdb0"] ;
52 -> 53 ;
54 [label="entropy <= 4.14\ngini = 0.408\nsamples = 7\nvalue = [5, 2]\nclass = 0", fillcolor="#efb388"] ;
53 -> 54 ;
55 [label="entropy <= 4.131\ngini = 0.5\nsamples = 2\nvalue = [1, 1]\nclass = 0", fillcolor="#ffffff"] ;
54 -> 55 ;
56 [label="gini = 0.0\nsamples = 1\nvalue = [1, 0]\nclass = 0", fillcolor="#e58139"] ;
55 -> 56 ;
57 [label="gini = 0.0\nsamples = 1\nvalue = [0, 1]\nclass = 1", fillcolor="#399de5"] ;
55 -> 57 ;
58 [label="entropy <= 4.167\ngini = 0.32\nsamples = 5\nvalue = [4, 1]\nclass = 0", fillcolor="#eca06a"] ;
54 -> 58 ;
59 [label="gini = 0.0\nsamples = 3\nvalue = [3, 0]\nclass = 0", fillcolor="#e58139"] ;
58 -> 59 ;
60 [label="gini = 0.5\nsamples = 2\nvalue = [1, 1]\nclass = 0", fillcolor="#ffffff"] ;
58 -> 60 ;
61 [label="gini = 0.0\nsamples = 1\nvalue = [0, 1]\nclass = 1", fillcolor="#399de5"] ;
53 -> 61 ;
62 [label="gini = 0.0\nsamples = 1\nvalue = [0, 1]\nclass = 1", fillcolor="#399de5"] ;
52 -> 62 ;
63 [label="gini = 0.0\nsamples = 8\nvalue = [8, 0]\nclass = 0", fillcolor="#e58139"] ;
39 -> 63 ;
64 [label="IP_id <= 9.5\ngini = 0.426\nsamples = 13\nvalue = [4, 9]\nclass = 1", fillcolor="#91c9f1"] ;
2 -> 64 ;
65 [label="gini = 0.0\nsamples = 4\nvalue = [4, 0]\nclass = 0", fillcolor="#e58139"] ;
64 -> 65 ;
66 [label="gini = 0.0\nsamples = 9\nvalue = [0, 9]\nclass = 1", fillcolor="#399de5"] ;
64 -> 66 ;
67 [label="IP_len <= 67.0\ngini = 0.047\nsamples = 881\nvalue = [21, 860]\nclass = 1", fillcolor="#3e9fe6"] ;
1 -> 67 ;
68 [label="gini = 0.0\nsamples = 20\nvalue = [20, 0]\nclass = 0", fillcolor="#e58139"] ;
67 -> 68 ;
69 [label="entropy <= 1.476\ngini = 0.002\nsamples = 861\nvalue = [1, 860]\nclass = 1", fillcolor="#399de5"] ;
67 -> 69 ;
70 [label="gini = 0.0\nsamples = 1\nvalue = [1, 0]\nclass = 0", fillcolor="#e58139"] ;
69 -> 70 ;
71 [label="gini = 0.0\nsamples = 860\nvalue = [0, 860]\nclass = 1", fillcolor="#399de5"] ;
69 -> 71 ;
72 [label="gini = 0.0\nsamples = 4255\nvalue = [4255, 0]\nclass = 0", fillcolor="#e58139"] ;
0 -> 72 [labeldistance=2.5, labelangle=-45, headlabel="False"] ;
}
