digraph Tree {
node [shape=box, style="filled", color="black"] ;
0 [label="sport <= 4989.0\ngini = 0.279\nsamples = 5400\nvalue = [4495, 905]\nclass = 0", fillcolor="#ea9a61"] ;
1 [label="sport <= 3074.5\ngini = 0.43\nsamples = 2656\nvalue = [1826, 830]\nclass = 0", fillcolor="#f1ba93"] ;
0 -> 1 [labeldistance=2.5, labelangle=45, headlabel="True"] ;
2 [label="dport_class <= 7.0\ngini = 0.123\nsamples = 1538\nvalue = [1437, 101]\nclass = 0", fillcolor="#e78a47"] ;
1 -> 2 ;
3 [label="entropy <= 1.118\ngini = 0.393\nsamples = 361\nvalue = [264, 97]\nclass = 0", fillcolor="#efaf82"] ;
2 -> 3 ;
4 [label="entropy <= 0.644\ngini = 0.5\nsamples = 118\nvalue = [59, 59]\nclass = 0", fillcolor="#ffffff"] ;
3 -> 4 ;
5 [label="ICMP_id <= 27783.5\ngini = 0.45\nsamples = 73\nvalue = [48, 25]\nclass = 0", fillcolor="#f3c3a0"] ;
4 -> 5 ;
6 [label="IP_ihl <= 2.5\ngini = 0.422\nsamples = 66\nvalue = [46, 20]\nclass = 0", fillcolor="#f0b88f"] ;
5 -> 6 ;
7 [label="Protocol <= 6.0\ngini = 0.459\nsamples = 56\nvalue = [36, 20]\nclass = 0", fillcolor="#f3c7a7"] ;
6 -> 7 ;
8 [label="pck_size <= 0.5\ngini = 0.487\nsamples = 43\nvalue = [25, 18]\nclass = 0", fillcolor="#f8dcc8"] ;
7 -> 8 ;
9 [label="Protocol <= 3.5\ngini = 0.444\nsamples = 24\nvalue = [16, 8]\nclass = 0", fillcolor="#f2c09c"] ;
8 -> 9 ;
10 [label="gini = 0.5\nsamples = 2\nvalue = [1, 1]\nclass = 0", fillcolor="#ffffff"] ;
9 -> 10 ;
11 [label="gini = 0.434\nsamples = 22\nvalue = [15, 7]\nclass = 0", fillcolor="#f1bc95"] ;
9 -> 11 ;
12 [label="Protocol <= 4.5\ngini = 0.499\nsamples = 19\nvalue = [9, 10]\nclass = 1", fillcolor="#ebf5fc"] ;
8 -> 12 ;
13 [label="gini = 0.5\nsamples = 18\nvalue = [9, 9]\nclass = 0", fillcolor="#ffffff"] ;
12 -> 13 ;
14 [label="gini = 0.0\nsamples = 1\nvalue = [0, 1]\nclass = 1", fillcolor="#399de5"] ;
12 -> 14 ;
15 [label="Protocol <= 16.5\ngini = 0.26\nsamples = 13\nvalue = [11, 2]\nclass = 0", fillcolor="#ea985d"] ;
7 -> 15 ;
16 [label="pck_size <= 0.5\ngini = 0.153\nsamples = 12\nvalue = [11, 1]\nclass = 0", fillcolor="#e78c4b"] ;
15 -> 16 ;
17 [label="gini = 0.0\nsamples = 7\nvalue = [7, 0]\nclass = 0", fillcolor="#e58139"] ;
16 -> 17 ;
18 [label="Protocol <= 8.5\ngini = 0.32\nsamples = 5\nvalue = [4, 1]\nclass = 0", fillcolor="#eca06a"] ;
16 -> 18 ;
19 [label="gini = 0.0\nsamples = 4\nvalue = [4, 0]\nclass = 0", fillcolor="#e58139"] ;
18 -> 19 ;
20 [label="gini = 0.0\nsamples = 1\nvalue = [0, 1]\nclass = 1", fillcolor="#399de5"] ;
18 -> 20 ;
21 [label="gini = 0.0\nsamples = 1\nvalue = [0, 1]\nclass = 1", fillcolor="#399de5"] ;
15 -> 21 ;
22 [label="gini = 0.0\nsamples = 10\nvalue = [10, 0]\nclass = 0", fillcolor="#e58139"] ;
6 -> 22 ;
23 [label="ICMP_seq <= 1.5\ngini = 0.408\nsamples = 7\nvalue = [2, 5]\nclass = 1", fillcolor="#88c4ef"] ;
5 -> 23 ;
24 [label="gini = 0.0\nsamples = 5\nvalue = [0, 5]\nclass = 1", fillcolor="#399de5"] ;
23 -> 24 ;
25 [label="gini = 0.0\nsamples = 2\nvalue = [2, 0]\nclass = 0", fillcolor="#e58139"] ;
23 -> 25 ;
26 [label="BOOTP_xid <= 972383808.0\ngini = 0.369\nsamples = 45\nvalue = [11, 34]\nclass = 1", fillcolor="#79bded"] ;
4 -> 26 ;
27 [label="ICMP_id <= 45059.0\ngini = 0.149\nsamples = 37\nvalue = [3, 34]\nclass = 1", fillcolor="#4aa6e7"] ;
26 -> 27 ;
28 [label="entropy <= 0.968\ngini = 0.056\nsamples = 35\nvalue = [1, 34]\nclass = 1", fillcolor="#3fa0e6"] ;
27 -> 28 ;
29 [label="gini = 0.0\nsamples = 24\nvalue = [0, 24]\nclass = 1", fillcolor="#399de5"] ;
28 -> 29 ;
30 [label="entropy <= 1.064\ngini = 0.165\nsamples = 11\nvalue = [1, 10]\nclass = 1", fillcolor="#4da7e8"] ;
28 -> 30 ;
31 [label="gini = 0.0\nsamples = 1\nvalue = [1, 0]\nclass = 0", fillcolor="#e58139"] ;
30 -> 31 ;
32 [label="gini = 0.0\nsamples = 10\nvalue = [0, 10]\nclass = 1", fillcolor="#399de5"] ;
30 -> 32 ;
33 [label="gini = 0.0\nsamples = 2\nvalue = [2, 0]\nclass = 0", fillcolor="#e58139"] ;
27 -> 33 ;
34 [label="gini = 0.0\nsamples = 8\nvalue = [8, 0]\nclass = 0", fillcolor="#e58139"] ;
26 -> 34 ;
35 [label="ICMP_chksum <= 5446.5\ngini = 0.264\nsamples = 243\nvalue = [205, 38]\nclass = 0", fillcolor="#ea985e"] ;
3 -> 35 ;
36 [label="Protocol <= 4.5\ngini = 0.234\nsamples = 237\nvalue = [205, 32]\nclass = 0", fillcolor="#e99558"] ;
35 -> 36 ;
37 [label="EAPOL_type <= 1.5\ngini = 0.306\nsamples = 170\nvalue = [138, 32]\nclass = 0", fillcolor="#eb9e67"] ;
36 -> 37 ;
38 [label="UDP_sport <= 3073.5\ngini = 0.228\nsamples = 122\nvalue = [106, 16]\nclass = 0", fillcolor="#e99457"] ;
37 -> 38 ;
39 [label="entropy <= 2.636\ngini = 0.206\nsamples = 120\nvalue = [106, 14]\nclass = 0", fillcolor="#e89253"] ;
38 -> 39 ;
40 [label="entropy <= 1.97\ngini = 0.086\nsamples = 89\nvalue = [85, 4]\nclass = 0", fillcolor="#e68742"] ;
39 -> 40 ;
41 [label="entropy <= 1.922\ngini = 0.169\nsamples = 43\nvalue = [39, 4]\nclass = 0", fillcolor="#e88e4d"] ;
40 -> 41 ;
42 [label="pck_size <= 202.0\ngini = 0.093\nsamples = 41\nvalue = [39, 2]\nclass = 0", fillcolor="#e68743"] ;
41 -> 42 ;
43 [label="UDP_chksum <= 19049.5\ngini = 0.26\nsamples = 13\nvalue = [11, 2]\nclass = 0", fillcolor="#ea985d"] ;
42 -> 43 ;
44 [label="IP_id <= 6851.5\ngini = 0.375\nsamples = 8\nvalue = [6, 2]\nclass = 0", fillcolor="#eeab7b"] ;
43 -> 44 ;
45 [label="UDP_len <= 28.0\ngini = 0.245\nsamples = 7\nvalue = [6, 1]\nclass = 0", fillcolor="#e9965a"] ;
44 -> 45 ;
46 [label="Protocol <= 3.5\ngini = 0.278\nsamples = 6\nvalue = [5, 1]\nclass = 0", fillcolor="#ea9a61"] ;
45 -> 46 ;
47 [label="gini = 0.0\nsamples = 1\nvalue = [1, 0]\nclass = 0", fillcolor="#e58139"] ;
46 -> 47 ;
48 [label="gini = 0.32\nsamples = 5\nvalue = [4, 1]\nclass = 0", fillcolor="#eca06a"] ;
46 -> 48 ;
49 [label="gini = 0.0\nsamples = 1\nvalue = [1, 0]\nclass = 0", fillcolor="#e58139"] ;
45 -> 49 ;
50 [label="gini = 0.0\nsamples = 1\nvalue = [0, 1]\nclass = 1", fillcolor="#399de5"] ;
44 -> 50 ;
51 [label="gini = 0.0\nsamples = 5\nvalue = [5, 0]\nclass = 0", fillcolor="#e58139"] ;
43 -> 51 ;
52 [label="gini = 0.0\nsamples = 28\nvalue = [28, 0]\nclass = 0", fillcolor="#e58139"] ;
42 -> 52 ;
53 [label="gini = 0.0\nsamples = 2\nvalue = [0, 2]\nclass = 1", fillcolor="#399de5"] ;
41 -> 53 ;
54 [label="gini = 0.0\nsamples = 46\nvalue = [46, 0]\nclass = 0", fillcolor="#e58139"] ;
40 -> 54 ;
55 [label="IP_id <= 10516.0\ngini = 0.437\nsamples = 31\nvalue = [21, 10]\nclass = 0", fillcolor="#f1bd97"] ;
39 -> 55 ;
56 [label="IP_id <= 8755.5\ngini = 0.486\nsamples = 24\nvalue = [14, 10]\nclass = 0", fillcolor="#f8dbc6"] ;
55 -> 56 ;
57 [label="IP_len <= 44.0\ngini = 0.463\nsamples = 22\nvalue = [14, 8]\nclass = 0", fillcolor="#f4c9aa"] ;
56 -> 57 ;
58 [label="Protocol <= 2.0\ngini = 0.498\nsamples = 17\nvalue = [9, 8]\nclass = 0", fillcolor="#fcf1e9"] ;
57 -> 58 ;
59 [label="gini = 0.0\nsamples = 1\nvalue = [1, 0]\nclass = 0", fillcolor="#e58139"] ;
58 -> 59 ;
60 [label="Protocol <= 3.5\ngini = 0.5\nsamples = 16\nvalue = [8, 8]\nclass = 0", fillcolor="#ffffff"] ;
58 -> 60 ;
61 [label="gini = 0.444\nsamples = 3\nvalue = [1, 2]\nclass = 1", fillcolor="#9ccef2"] ;
60 -> 61 ;
62 [label="gini = 0.497\nsamples = 13\nvalue = [7, 6]\nclass = 0", fillcolor="#fbede3"] ;
60 -> 62 ;
63 [label="gini = 0.0\nsamples = 5\nvalue = [5, 0]\nclass = 0", fillcolor="#e58139"] ;
57 -> 63 ;
64 [label="gini = 0.0\nsamples = 2\nvalue = [0, 2]\nclass = 1", fillcolor="#399de5"] ;
56 -> 64 ;
65 [label="gini = 0.0\nsamples = 7\nvalue = [7, 0]\nclass = 0", fillcolor="#e58139"] ;
55 -> 65 ;
66 [label="gini = 0.0\nsamples = 2\nvalue = [0, 2]\nclass = 1", fillcolor="#399de5"] ;
38 -> 66 ;
67 [label="entropy <= 4.062\ngini = 0.444\nsamples = 48\nvalue = [32, 16]\nclass = 0", fillcolor="#f2c09c"] ;
37 -> 67 ;
68 [label="entropy <= 4.055\ngini = 0.487\nsamples = 31\nvalue = [18, 13]\nclass = 0", fillcolor="#f8dcc8"] ;
67 -> 68 ;
69 [label="Protocol <= 2.0\ngini = 0.48\nsamples = 30\nvalue = [18, 12]\nclass = 0", fillcolor="#f6d5bd"] ;
68 -> 69 ;
70 [label="gini = 0.0\nsamples = 1\nvalue = [1, 0]\nclass = 0", fillcolor="#e58139"] ;
69 -> 70 ;
71 [label="EAPOL_version <= 1.5\ngini = 0.485\nsamples = 29\nvalue = [17, 12]\nclass = 0", fillcolor="#f7dac5"] ;
69 -> 71 ;
72 [label="entropy <= 1.54\ngini = 0.49\nsamples = 28\nvalue = [16, 12]\nclass = 0", fillcolor="#f8e0ce"] ;
71 -> 72 ;
73 [label="gini = 0.0\nsamples = 1\nvalue = [1, 0]\nclass = 0", fillcolor="#e58139"] ;
72 -> 73 ;
74 [label="entropy <= 4.011\ngini = 0.494\nsamples = 27\nvalue = [15, 12]\nclass = 0", fillcolor="#fae6d7"] ;
72 -> 74 ;
75 [label="payload_bytes <= 106.0\ngini = 0.497\nsamples = 26\nvalue = [14, 12]\nclass = 0", fillcolor="#fbede3"] ;
74 -> 75 ;
76 [label="entropy <= 1.672\ngini = 0.493\nsamples = 25\nvalue = [14, 11]\nclass = 0", fillcolor="#f9e4d5"] ;
75 -> 76 ;
77 [label="entropy <= 1.606\ngini = 0.497\nsamples = 24\nvalue = [13, 11]\nclass = 0", fillcolor="#fbece1"] ;
76 -> 77 ;
78 [label="entropy <= 1.576\ngini = 0.444\nsamples = 3\nvalue = [1, 2]\nclass = 1", fillcolor="#9ccef2"] ;
77 -> 78 ;
79 [label="gini = 0.5\nsamples = 2\nvalue = [1, 1]\nclass = 0", fillcolor="#ffffff"] ;
78 -> 79 ;
80 [label="gini = 0.0\nsamples = 1\nvalue = [0, 1]\nclass = 1", fillcolor="#399de5"] ;
78 -> 80 ;
81 [label="entropy <= 1.621\ngini = 0.49\nsamples = 21\nvalue = [12, 9]\nclass = 0", fillcolor="#f8e0ce"] ;
77 -> 81 ;
82 [label="gini = 0.32\nsamples = 5\nvalue = [4, 1]\nclass = 0", fillcolor="#eca06a"] ;
81 -> 82 ;
83 [label="entropy <= 1.642\ngini = 0.5\nsamples = 16\nvalue = [8, 8]\nclass = 0", fillcolor="#ffffff"] ;
81 -> 83 ;
84 [label="Protocol <= 3.5\ngini = 0.494\nsamples = 9\nvalue = [5, 4]\nclass = 0", fillcolor="#fae6d7"] ;
83 -> 84 ;
85 [label="gini = 0.0\nsamples = 2\nvalue = [2, 0]\nclass = 0", fillcolor="#e58139"] ;
84 -> 85 ;
86 [label="gini = 0.49\nsamples = 7\nvalue = [3, 4]\nclass = 1", fillcolor="#cee6f8"] ;
84 -> 86 ;
87 [label="Protocol <= 3.5\ngini = 0.49\nsamples = 7\nvalue = [3, 4]\nclass = 1", fillcolor="#cee6f8"] ;
83 -> 87 ;
88 [label="gini = 0.0\nsamples = 2\nvalue = [0, 2]\nclass = 1", fillcolor="#399de5"] ;
87 -> 88 ;
89 [label="gini = 0.48\nsamples = 5\nvalue = [3, 2]\nclass = 0", fillcolor="#f6d5bd"] ;
87 -> 89 ;
90 [label="gini = 0.0\nsamples = 1\nvalue = [1, 0]\nclass = 0", fillcolor="#e58139"] ;
76 -> 90 ;
91 [label="gini = 0.0\nsamples = 1\nvalue = [0, 1]\nclass = 1", fillcolor="#399de5"] ;
75 -> 91 ;
92 [label="gini = 0.0\nsamples = 1\nvalue = [1, 0]\nclass = 0", fillcolor="#e58139"] ;
74 -> 92 ;
93 [label="gini = 0.0\nsamples = 1\nvalue = [1, 0]\nclass = 0", fillcolor="#e58139"] ;
71 -> 93 ;
94 [label="gini = 0.0\nsamples = 1\nvalue = [0, 1]\nclass = 1", fillcolor="#399de5"] ;
68 -> 94 ;
95 [label="entropy <= 4.151\ngini = 0.291\nsamples = 17\nvalue = [14, 3]\nclass = 0", fillcolor="#eb9c63"] ;
67 -> 95 ;
96 [label="entropy <= 4.136\ngini = 0.375\nsamples = 12\nvalue = [9, 3]\nclass = 0", fillcolor="#eeab7b"] ;
95 -> 96 ;
97 [label="entropy <= 4.082\ngini = 0.298\nsamples = 11\nvalue = [9, 2]\nclass = 0", fillcolor="#eb9d65"] ;
96 -> 97 ;
98 [label="gini = 0.0\nsamples = 4\nvalue = [4, 0]\nclass = 0", fillcolor="#e58139"] ;
97 -> 98 ;
99 [label="entropy <= 4.09\ngini = 0.408\nsamples = 7\nvalue = [5, 2]\nclass = 0", fillcolor="#efb388"] ;
97 -> 99 ;
100 [label="gini = 0.0\nsamples = 1\nvalue = [0, 1]\nclass = 1", fillcolor="#399de5"] ;
99 -> 100 ;
101 [label="entropy <= 4.105\ngini = 0.278\nsamples = 6\nvalue = [5, 1]\nclass = 0", fillcolor="#ea9a61"] ;
99 -> 101 ;
102 [label="gini = 0.0\nsamples = 2\nvalue = [2, 0]\nclass = 0", fillcolor="#e58139"] ;
101 -> 102 ;
103 [label="entropy <= 4.111\ngini = 0.375\nsamples = 4\nvalue = [3, 1]\nclass = 0", fillcolor="#eeab7b"] ;
101 -> 103 ;
104 [label="Protocol <= 2.5\ngini = 0.5\nsamples = 2\nvalue = [1, 1]\nclass = 0", fillcolor="#ffffff"] ;
103 -> 104 ;
105 [label="gini = 0.0\nsamples = 1\nvalue = [1, 0]\nclass = 0", fillcolor="#e58139"] ;
104 -> 105 ;
106 [label="gini = 0.0\nsamples = 1\nvalue = [0, 1]\nclass = 1", fillcolor="#399de5"] ;
104 -> 106 ;
107 [label="gini = 0.0\nsamples = 2\nvalue = [2, 0]\nclass = 0", fillcolor="#e58139"] ;
103 -> 107 ;
108 [label="gini = 0.0\nsamples = 1\nvalue = [0, 1]\nclass = 1", fillcolor="#399de5"] ;
96 -> 108 ;
109 [label="gini = 0.0\nsamples = 5\nvalue = [5, 0]\nclass = 0", fillcolor="#e58139"] ;
95 -> 109 ;
110 [label="gini = 0.0\nsamples = 67\nvalue = [67, 0]\nclass = 0", fillcolor="#e58139"] ;
36 -> 110 ;
111 [label="gini = 0.0\nsamples = 6\nvalue = [0, 6]\nclass = 1", fillcolor="#399de5"] ;
35 -> 111 ;
112 [label="TCP_sport <= 1576.0\ngini = 0.007\nsamples = 1177\nvalue = [1173, 4]\nclass = 0", fillcolor="#e5813a"] ;
2 -> 112 ;
113 [label="gini = 0.0\nsamples = 1173\nvalue = [1173, 0]\nclass = 0", fillcolor="#e58139"] ;
112 -> 113 ;
114 [label="gini = 0.0\nsamples = 4\nvalue = [0, 4]\nclass = 1", fillcolor="#399de5"] ;
112 -> 114 ;
115 [label="TCP_dataofs <= 6.5\ngini = 0.454\nsamples = 1118\nvalue = [389, 729]\nclass = 1", fillcolor="#a3d1f3"] ;
1 -> 115 ;
116 [label="dport <= 2687.5\ngini = 0.494\nsamples = 736\nvalue = [327, 409]\nclass = 1", fillcolor="#d7ebfa"] ;
115 -> 116 ;
117 [label="IP_ttl <= 2.5\ngini = 0.284\nsamples = 269\nvalue = [46, 223]\nclass = 1", fillcolor="#62b1ea"] ;
116 -> 117 ;
118 [label="gini = 0.0\nsamples = 9\nvalue = [9, 0]\nclass = 0", fillcolor="#e58139"] ;
117 -> 118 ;
119 [label="UDP_len <= 436.5\ngini = 0.244\nsamples = 260\nvalue = [37, 223]\nclass = 1", fillcolor="#5aade9"] ;
117 -> 119 ;
120 [label="sport <= 3081.5\ngini = 0.219\nsamples = 255\nvalue = [32, 223]\nclass = 1", fillcolor="#55abe9"] ;
119 -> 120 ;
121 [label="IP_id <= 19923.5\ngini = 0.377\nsamples = 119\nvalue = [30, 89]\nclass = 1", fillcolor="#7cbeee"] ;
120 -> 121 ;
122 [label="sport <= 3077.5\ngini = 0.284\nsamples = 105\nvalue = [18, 87]\nclass = 1", fillcolor="#62b1ea"] ;
121 -> 122 ;
123 [label="UDP_chksum <= 1261.0\ngini = 0.119\nsamples = 79\nvalue = [5, 74]\nclass = 1", fillcolor="#46a4e7"] ;
122 -> 123 ;
124 [label="gini = 0.0\nsamples = 1\nvalue = [1, 0]\nclass = 0", fillcolor="#e58139"] ;
123 -> 124 ;
125 [label="Protocol <= 4.5\ngini = 0.097\nsamples = 78\nvalue = [4, 74]\nclass = 1", fillcolor="#44a2e6"] ;
123 -> 125 ;
126 [label="entropy <= 5.526\ngini = 0.034\nsamples = 58\nvalue = [1, 57]\nclass = 1", fillcolor="#3c9fe5"] ;
125 -> 126 ;
127 [label="gini = 0.0\nsamples = 51\nvalue = [0, 51]\nclass = 1", fillcolor="#399de5"] ;
126 -> 127 ;
128 [label="UDP_sport <= 3075.5\ngini = 0.245\nsamples = 7\nvalue = [1, 6]\nclass = 1", fillcolor="#5aade9"] ;
126 -> 128 ;
129 [label="gini = 0.0\nsamples = 6\nvalue = [0, 6]\nclass = 1", fillcolor="#399de5"] ;
128 -> 129 ;
130 [label="gini = 0.0\nsamples = 1\nvalue = [1, 0]\nclass = 0", fillcolor="#e58139"] ;
128 -> 130 ;
131 [label="payload_bytes <= 32.5\ngini = 0.255\nsamples = 20\nvalue = [3, 17]\nclass = 1", fillcolor="#5caeea"] ;
125 -> 131 ;
132 [label="gini = 0.0\nsamples = 9\nvalue = [0, 9]\nclass = 1", fillcolor="#399de5"] ;
131 -> 132 ;
133 [label="DNS_id <= 28831.0\ngini = 0.397\nsamples = 11\nvalue = [3, 8]\nclass = 1", fillcolor="#83c2ef"] ;
131 -> 133 ;
134 [label="UDP_sport <= 3076.5\ngini = 0.198\nsamples = 9\nvalue = [1, 8]\nclass = 1", fillcolor="#52a9e8"] ;
133 -> 134 ;
135 [label="gini = 0.0\nsamples = 7\nvalue = [0, 7]\nclass = 1", fillcolor="#399de5"] ;
134 -> 135 ;
136 [label="entropy <= 4.578\ngini = 0.5\nsamples = 2\nvalue = [1, 1]\nclass = 0", fillcolor="#ffffff"] ;
134 -> 136 ;
137 [label="gini = 0.0\nsamples = 1\nvalue = [0, 1]\nclass = 1", fillcolor="#399de5"] ;
136 -> 137 ;
138 [label="gini = 0.0\nsamples = 1\nvalue = [1, 0]\nclass = 0", fillcolor="#e58139"] ;
136 -> 138 ;
139 [label="gini = 0.0\nsamples = 2\nvalue = [2, 0]\nclass = 0", fillcolor="#e58139"] ;
133 -> 139 ;
140 [label="IP_id <= 10400.5\ngini = 0.5\nsamples = 26\nvalue = [13, 13]\nclass = 0", fillcolor="#ffffff"] ;
122 -> 140 ;
141 [label="UDP_sport <= 3079.5\ngini = 0.444\nsamples = 18\nvalue = [12, 6]\nclass = 0", fillcolor="#f2c09c"] ;
140 -> 141 ;
142 [label="gini = 0.0\nsamples = 9\nvalue = [9, 0]\nclass = 0", fillcolor="#e58139"] ;
141 -> 142 ;
143 [label="Protocol <= 2.5\ngini = 0.444\nsamples = 9\nvalue = [3, 6]\nclass = 1", fillcolor="#9ccef2"] ;
141 -> 143 ;
144 [label="gini = 0.0\nsamples = 1\nvalue = [1, 0]\nclass = 0", fillcolor="#e58139"] ;
143 -> 144 ;
145 [label="entropy <= 5.497\ngini = 0.375\nsamples = 8\nvalue = [2, 6]\nclass = 1", fillcolor="#7bbeee"] ;
143 -> 145 ;
146 [label="gini = 0.0\nsamples = 5\nvalue = [0, 5]\nclass = 1", fillcolor="#399de5"] ;
145 -> 146 ;
147 [label="IP_len <= 441.5\ngini = 0.444\nsamples = 3\nvalue = [2, 1]\nclass = 0", fillcolor="#f2c09c"] ;
145 -> 147 ;
148 [label="gini = 0.0\nsamples = 2\nvalue = [2, 0]\nclass = 0", fillcolor="#e58139"] ;
147 -> 148 ;
149 [label="gini = 0.0\nsamples = 1\nvalue = [0, 1]\nclass = 1", fillcolor="#399de5"] ;
147 -> 149 ;
150 [label="UDP_chksum <= 13214.5\ngini = 0.219\nsamples = 8\nvalue = [1, 7]\nclass = 1", fillcolor="#55abe9"] ;
140 -> 150 ;
151 [label="IP_id <= 15285.5\ngini = 0.5\nsamples = 2\nvalue = [1, 1]\nclass = 0", fillcolor="#ffffff"] ;
150 -> 151 ;
152 [label="gini = 0.0\nsamples = 1\nvalue = [1, 0]\nclass = 0", fillcolor="#e58139"] ;
151 -> 152 ;
153 [label="gini = 0.0\nsamples = 1\nvalue = [0, 1]\nclass = 1", fillcolor="#399de5"] ;
151 -> 153 ;
154 [label="gini = 0.0\nsamples = 6\nvalue = [0, 6]\nclass = 1", fillcolor="#399de5"] ;
150 -> 154 ;
155 [label="sport <= 3080.5\ngini = 0.245\nsamples = 14\nvalue = [12, 2]\nclass = 0", fillcolor="#e9965a"] ;
121 -> 155 ;
156 [label="gini = 0.0\nsamples = 12\nvalue = [12, 0]\nclass = 0", fillcolor="#e58139"] ;
155 -> 156 ;
157 [label="gini = 0.0\nsamples = 2\nvalue = [0, 2]\nclass = 1", fillcolor="#399de5"] ;
155 -> 157 ;
158 [label="DNS_id <= 7.0\ngini = 0.029\nsamples = 136\nvalue = [2, 134]\nclass = 1", fillcolor="#3c9ee5"] ;
120 -> 158 ;
159 [label="sport <= 3083.5\ngini = 0.015\nsamples = 135\nvalue = [1, 134]\nclass = 1", fillcolor="#3a9ee5"] ;
158 -> 159 ;
160 [label="UDP_chksum <= 8469.0\ngini = 0.05\nsamples = 39\nvalue = [1, 38]\nclass = 1", fillcolor="#3ea0e6"] ;
159 -> 160 ;
161 [label="UDP_chksum <= 6188.0\ngini = 0.245\nsamples = 7\nvalue = [1, 6]\nclass = 1", fillcolor="#5aade9"] ;
160 -> 161 ;
162 [label="gini = 0.0\nsamples = 6\nvalue = [0, 6]\nclass = 1", fillcolor="#399de5"] ;
161 -> 162 ;
163 [label="gini = 0.0\nsamples = 1\nvalue = [1, 0]\nclass = 0", fillcolor="#e58139"] ;
161 -> 163 ;
164 [label="gini = 0.0\nsamples = 32\nvalue = [0, 32]\nclass = 1", fillcolor="#399de5"] ;
160 -> 164 ;
165 [label="gini = 0.0\nsamples = 96\nvalue = [0, 96]\nclass = 1", fillcolor="#399de5"] ;
159 -> 165 ;
166 [label="gini = 0.0\nsamples = 1\nvalue = [1, 0]\nclass = 0", fillcolor="#e58139"] ;
158 -> 166 ;
167 [label="gini = 0.0\nsamples = 5\nvalue = [5, 0]\nclass = 0", fillcolor="#e58139"] ;
119 -> 167 ;
168 [label="TCP_seq <= 1696309120.0\ngini = 0.479\nsamples = 467\nvalue = [281, 186]\nclass = 0", fillcolor="#f6d4bc"] ;
116 -> 168 ;
169 [label="TCP_window <= 1460.0\ngini = 0.062\nsamples = 125\nvalue = [121, 4]\nclass = 0", fillcolor="#e68540"] ;
168 -> 169 ;
170 [label="TCP_sport <= 3455.0\ngini = 0.375\nsamples = 16\nvalue = [12, 4]\nclass = 0", fillcolor="#eeab7b"] ;
169 -> 170 ;
171 [label="gini = 0.0\nsamples = 2\nvalue = [0, 2]\nclass = 1", fillcolor="#399de5"] ;
170 -> 171 ;
172 [label="TCP_chksum <= 4837.5\ngini = 0.245\nsamples = 14\nvalue = [12, 2]\nclass = 0", fillcolor="#e9965a"] ;
170 -> 172 ;
173 [label="gini = 0.0\nsamples = 1\nvalue = [0, 1]\nclass = 1", fillcolor="#399de5"] ;
172 -> 173 ;
174 [label="TCP_chksum <= 40590.5\ngini = 0.142\nsamples = 13\nvalue = [12, 1]\nclass = 0", fillcolor="#e78c49"] ;
172 -> 174 ;
175 [label="gini = 0.0\nsamples = 9\nvalue = [9, 0]\nclass = 0", fillcolor="#e58139"] ;
174 -> 175 ;
176 [label="TCP_chksum <= 42950.5\ngini = 0.375\nsamples = 4\nvalue = [3, 1]\nclass = 0", fillcolor="#eeab7b"] ;
174 -> 176 ;
177 [label="gini = 0.0\nsamples = 1\nvalue = [0, 1]\nclass = 1", fillcolor="#399de5"] ;
176 -> 177 ;
178 [label="gini = 0.0\nsamples = 3\nvalue = [3, 0]\nclass = 0", fillcolor="#e58139"] ;
176 -> 178 ;
179 [label="gini = 0.0\nsamples = 109\nvalue = [109, 0]\nclass = 0", fillcolor="#e58139"] ;
169 -> 179 ;
180 [label="TCP_seq <= 1959087872.0\ngini = 0.498\nsamples = 342\nvalue = [160, 182]\nclass = 1", fillcolor="#e7f3fc"] ;
168 -> 180 ;
181 [label="TCP_FIN <= 0.5\ngini = 0.056\nsamples = 138\nvalue = [4, 134]\nclass = 1", fillcolor="#3fa0e6"] ;
180 -> 181 ;
182 [label="TCP_ack <= 2736667904.0\ngini = 0.043\nsamples = 136\nvalue = [3, 133]\nclass = 1", fillcolor="#3d9fe6"] ;
181 -> 182 ;
183 [label="IP_id <= 50782.0\ngini = 0.017\nsamples = 114\nvalue = [1, 113]\nclass = 1", fillcolor="#3b9ee5"] ;
182 -> 183 ;
184 [label="gini = 0.0\nsamples = 103\nvalue = [0, 103]\nclass = 1", fillcolor="#399de5"] ;
183 -> 184 ;
185 [label="TCP_ack <= 1110595328.0\ngini = 0.165\nsamples = 11\nvalue = [1, 10]\nclass = 1", fillcolor="#4da7e8"] ;
183 -> 185 ;
186 [label="gini = 0.0\nsamples = 10\nvalue = [0, 10]\nclass = 1", fillcolor="#399de5"] ;
185 -> 186 ;
187 [label="gini = 0.0\nsamples = 1\nvalue = [1, 0]\nclass = 0", fillcolor="#e58139"] ;
185 -> 187 ;
188 [label="IP_id <= 45664.5\ngini = 0.165\nsamples = 22\nvalue = [2, 20]\nclass = 1", fillcolor="#4da7e8"] ;
182 -> 188 ;
189 [label="gini = 0.0\nsamples = 2\nvalue = [2, 0]\nclass = 0", fillcolor="#e58139"] ;
188 -> 189 ;
190 [label="gini = 0.0\nsamples = 20\nvalue = [0, 20]\nclass = 1", fillcolor="#399de5"] ;
188 -> 190 ;
191 [label="Protocol <= 5.5\ngini = 0.5\nsamples = 2\nvalue = [1, 1]\nclass = 0", fillcolor="#ffffff"] ;
181 -> 191 ;
192 [label="gini = 0.0\nsamples = 1\nvalue = [0, 1]\nclass = 1", fillcolor="#399de5"] ;
191 -> 192 ;
193 [label="gini = 0.0\nsamples = 1\nvalue = [1, 0]\nclass = 0", fillcolor="#e58139"] ;
191 -> 193 ;
194 [label="sport <= 4851.5\ngini = 0.36\nsamples = 204\nvalue = [156, 48]\nclass = 0", fillcolor="#eda876"] ;
180 -> 194 ;
195 [label="IP_id <= 25045.0\ngini = 0.285\nsamples = 186\nvalue = [154, 32]\nclass = 0", fillcolor="#ea9b62"] ;
194 -> 195 ;
196 [label="IP_id <= 21135.0\ngini = 0.456\nsamples = 88\nvalue = [57, 31]\nclass = 0", fillcolor="#f3c6a5"] ;
195 -> 196 ;
197 [label="IP_id <= 1512.0\ngini = 0.368\nsamples = 70\nvalue = [53, 17]\nclass = 0", fillcolor="#eda979"] ;
196 -> 197 ;
198 [label="sport <= 3411.0\ngini = 0.48\nsamples = 20\nvalue = [8, 12]\nclass = 1", fillcolor="#bddef6"] ;
197 -> 198 ;
199 [label="gini = 0.0\nsamples = 3\nvalue = [3, 0]\nclass = 0", fillcolor="#e58139"] ;
198 -> 199 ;
200 [label="sport <= 4412.5\ngini = 0.415\nsamples = 17\nvalue = [5, 12]\nclass = 1", fillcolor="#8bc6f0"] ;
198 -> 200 ;
201 [label="TCP_seq <= 3499126144.0\ngini = 0.245\nsamples = 14\nvalue = [2, 12]\nclass = 1", fillcolor="#5aade9"] ;
200 -> 201 ;
202 [label="gini = 0.0\nsamples = 11\nvalue = [0, 11]\nclass = 1", fillcolor="#399de5"] ;
201 -> 202 ;
203 [label="TCP_chksum <= 38660.5\ngini = 0.444\nsamples = 3\nvalue = [2, 1]\nclass = 0", fillcolor="#f2c09c"] ;
201 -> 203 ;
204 [label="gini = 0.0\nsamples = 2\nvalue = [2, 0]\nclass = 0", fillcolor="#e58139"] ;
203 -> 204 ;
205 [label="gini = 0.0\nsamples = 1\nvalue = [0, 1]\nclass = 1", fillcolor="#399de5"] ;
203 -> 205 ;
206 [label="gini = 0.0\nsamples = 3\nvalue = [3, 0]\nclass = 0", fillcolor="#e58139"] ;
200 -> 206 ;
207 [label="TCP_seq <= 2267420672.0\ngini = 0.18\nsamples = 50\nvalue = [45, 5]\nclass = 0", fillcolor="#e88f4f"] ;
197 -> 207 ;
208 [label="TCP_seq <= 2195894144.0\ngini = 0.43\nsamples = 16\nvalue = [11, 5]\nclass = 0", fillcolor="#f1ba93"] ;
207 -> 208 ;
209 [label="gini = 0.0\nsamples = 11\nvalue = [11, 0]\nclass = 0", fillcolor="#e58139"] ;
208 -> 209 ;
210 [label="gini = 0.0\nsamples = 5\nvalue = [0, 5]\nclass = 1", fillcolor="#399de5"] ;
208 -> 210 ;
211 [label="gini = 0.0\nsamples = 34\nvalue = [34, 0]\nclass = 0", fillcolor="#e58139"] ;
207 -> 211 ;
212 [label="TCP_ack <= 889218304.0\ngini = 0.346\nsamples = 18\nvalue = [4, 14]\nclass = 1", fillcolor="#72b9ec"] ;
196 -> 212 ;
213 [label="gini = 0.0\nsamples = 4\nvalue = [4, 0]\nclass = 0", fillcolor="#e58139"] ;
212 -> 213 ;
214 [label="gini = 0.0\nsamples = 14\nvalue = [0, 14]\nclass = 1", fillcolor="#399de5"] ;
212 -> 214 ;
215 [label="TCP_ack <= 115904054.0\ngini = 0.02\nsamples = 98\nvalue = [97, 1]\nclass = 0", fillcolor="#e5823b"] ;
195 -> 215 ;
216 [label="gini = 0.0\nsamples = 1\nvalue = [0, 1]\nclass = 1", fillcolor="#399de5"] ;
215 -> 216 ;
217 [label="gini = 0.0\nsamples = 97\nvalue = [97, 0]\nclass = 0", fillcolor="#e58139"] ;
215 -> 217 ;
218 [label="TCP_ack <= 1182483872.0\ngini = 0.198\nsamples = 18\nvalue = [2, 16]\nclass = 1", fillcolor="#52a9e8"] ;
194 -> 218 ;
219 [label="gini = 0.0\nsamples = 16\nvalue = [0, 16]\nclass = 1", fillcolor="#399de5"] ;
218 -> 219 ;
220 [label="gini = 0.0\nsamples = 2\nvalue = [2, 0]\nclass = 0", fillcolor="#e58139"] ;
218 -> 220 ;
221 [label="TCP_seq <= 1850949248.0\ngini = 0.272\nsamples = 382\nvalue = [62, 320]\nclass = 1", fillcolor="#5fb0ea"] ;
115 -> 221 ;
222 [label="TCP_window <= 7708.0\ngini = 0.5\nsamples = 96\nvalue = [49, 47]\nclass = 0", fillcolor="#fefaf7"] ;
221 -> 222 ;
223 [label="IP_id <= 3357.0\ngini = 0.382\nsamples = 66\nvalue = [49, 17]\nclass = 0", fillcolor="#eead7e"] ;
222 -> 223 ;
224 [label="IP_id <= 1108.0\ngini = 0.245\nsamples = 7\nvalue = [1, 6]\nclass = 1", fillcolor="#5aade9"] ;
223 -> 224 ;
225 [label="gini = 0.0\nsamples = 1\nvalue = [1, 0]\nclass = 0", fillcolor="#e58139"] ;
224 -> 225 ;
226 [label="gini = 0.0\nsamples = 6\nvalue = [0, 6]\nclass = 1", fillcolor="#399de5"] ;
224 -> 226 ;
227 [label="TCP_dport <= 8251.0\ngini = 0.303\nsamples = 59\nvalue = [48, 11]\nclass = 0", fillcolor="#eb9e66"] ;
223 -> 227 ;
228 [label="TCP_seq <= 1682389248.0\ngini = 0.114\nsamples = 33\nvalue = [31, 2]\nclass = 0", fillcolor="#e78946"] ;
227 -> 228 ;
229 [label="gini = 0.0\nsamples = 31\nvalue = [31, 0]\nclass = 0", fillcolor="#e58139"] ;
228 -> 229 ;
230 [label="gini = 0.0\nsamples = 2\nvalue = [0, 2]\nclass = 1", fillcolor="#399de5"] ;
228 -> 230 ;
231 [label="TCP_seq <= 434375808.0\ngini = 0.453\nsamples = 26\nvalue = [17, 9]\nclass = 0", fillcolor="#f3c4a2"] ;
227 -> 231 ;
232 [label="gini = 0.0\nsamples = 13\nvalue = [13, 0]\nclass = 0", fillcolor="#e58139"] ;
231 -> 232 ;
233 [label="sport <= 3981.0\ngini = 0.426\nsamples = 13\nvalue = [4, 9]\nclass = 1", fillcolor="#91c9f1"] ;
231 -> 233 ;
234 [label="gini = 0.0\nsamples = 4\nvalue = [4, 0]\nclass = 0", fillcolor="#e58139"] ;
233 -> 234 ;
235 [label="gini = 0.0\nsamples = 9\nvalue = [0, 9]\nclass = 1", fillcolor="#399de5"] ;
233 -> 235 ;
236 [label="gini = 0.0\nsamples = 30\nvalue = [0, 30]\nclass = 1", fillcolor="#399de5"] ;
222 -> 236 ;
237 [label="TCP_seq <= 4043868800.0\ngini = 0.087\nsamples = 286\nvalue = [13, 273]\nclass = 1", fillcolor="#42a2e6"] ;
221 -> 237 ;
238 [label="TCP_dport <= 8605.0\ngini = 0.035\nsamples = 278\nvalue = [5, 273]\nclass = 1", fillcolor="#3d9fe5"] ;
237 -> 238 ;
239 [label="TCP_ack <= 27272736.0\ngini = 0.022\nsamples = 276\nvalue = [3, 273]\nclass = 1", fillcolor="#3b9ee5"] ;
238 -> 239 ;
240 [label="TCP_dataofs <= 9.0\ngini = 0.185\nsamples = 29\nvalue = [3, 26]\nclass = 1", fillcolor="#50a8e8"] ;
239 -> 240 ;
241 [label="TCP_seq <= 2490152832.0\ngini = 0.5\nsamples = 6\nvalue = [3, 3]\nclass = 0", fillcolor="#ffffff"] ;
240 -> 241 ;
242 [label="gini = 0.0\nsamples = 3\nvalue = [0, 3]\nclass = 1", fillcolor="#399de5"] ;
241 -> 242 ;
243 [label="gini = 0.0\nsamples = 3\nvalue = [3, 0]\nclass = 0", fillcolor="#e58139"] ;
241 -> 243 ;
244 [label="gini = 0.0\nsamples = 23\nvalue = [0, 23]\nclass = 1", fillcolor="#399de5"] ;
240 -> 244 ;
245 [label="gini = 0.0\nsamples = 247\nvalue = [0, 247]\nclass = 1", fillcolor="#399de5"] ;
239 -> 245 ;
246 [label="gini = 0.0\nsamples = 2\nvalue = [2, 0]\nclass = 0", fillcolor="#e58139"] ;
238 -> 246 ;
247 [label="gini = 0.0\nsamples = 8\nvalue = [8, 0]\nclass = 0", fillcolor="#e58139"] ;
237 -> 247 ;
248 [label="TCP_window <= 53971.5\ngini = 0.053\nsamples = 2744\nvalue = [2669, 75]\nclass = 0", fillcolor="#e6853f"] ;
0 -> 248 [labeldistance=2.5, labelangle=-45, headlabel="False"] ;
249 [label="IP_ttl <= 63.5\ngini = 0.008\nsamples = 2622\nvalue = [2612, 10]\nclass = 0", fillcolor="#e5813a"] ;
248 -> 249 ;
250 [label="IP_id <= 32962.5\ngini = 0.216\nsamples = 81\nvalue = [71, 10]\nclass = 0", fillcolor="#e99355"] ;
249 -> 250 ;
251 [label="UDP_dport <= 7059.5\ngini = 0.083\nsamples = 69\nvalue = [66, 3]\nclass = 0", fillcolor="#e68742"] ;
250 -> 251 ;
252 [label="TCP_chksum <= 58486.0\ngini = 0.057\nsamples = 68\nvalue = [66, 2]\nclass = 0", fillcolor="#e6853f"] ;
251 -> 252 ;
253 [label="gini = 0.0\nsamples = 64\nvalue = [64, 0]\nclass = 0", fillcolor="#e58139"] ;
252 -> 253 ;
254 [label="TCP_seq <= 1627098048.0\ngini = 0.5\nsamples = 4\nvalue = [2, 2]\nclass = 0", fillcolor="#ffffff"] ;
252 -> 254 ;
255 [label="gini = 0.0\nsamples = 2\nvalue = [0, 2]\nclass = 1", fillcolor="#399de5"] ;
254 -> 255 ;
256 [label="gini = 0.0\nsamples = 2\nvalue = [2, 0]\nclass = 0", fillcolor="#e58139"] ;
254 -> 256 ;
257 [label="gini = 0.0\nsamples = 1\nvalue = [0, 1]\nclass = 1", fillcolor="#399de5"] ;
251 -> 257 ;
258 [label="Protocol <= 6.5\ngini = 0.486\nsamples = 12\nvalue = [5, 7]\nclass = 1", fillcolor="#c6e3f8"] ;
250 -> 258 ;
259 [label="IP_id <= 42629.0\ngini = 0.408\nsamples = 7\nvalue = [5, 2]\nclass = 0", fillcolor="#efb388"] ;
258 -> 259 ;
260 [label="gini = 0.0\nsamples = 2\nvalue = [0, 2]\nclass = 1", fillcolor="#399de5"] ;
259 -> 260 ;
261 [label="gini = 0.0\nsamples = 5\nvalue = [5, 0]\nclass = 0", fillcolor="#e58139"] ;
259 -> 261 ;
262 [label="gini = 0.0\nsamples = 5\nvalue = [0, 5]\nclass = 1", fillcolor="#399de5"] ;
258 -> 262 ;
263 [label="gini = 0.0\nsamples = 2541\nvalue = [2541, 0]\nclass = 0", fillcolor="#e58139"] ;
249 -> 263 ;
264 [label="sport <= 40914.0\ngini = 0.498\nsamples = 122\nvalue = [57, 65]\nclass = 1", fillcolor="#e7f3fc"] ;
248 -> 264 ;
265 [label="TCP_seq <= 3273947904.0\ngini = 0.405\nsamples = 46\nvalue = [13, 33]\nclass = 1", fillcolor="#87c4ef"] ;
264 -> 265 ;
266 [label="IP_id <= 21140.0\ngini = 0.313\nsamples = 36\nvalue = [7, 29]\nclass = 1", fillcolor="#69b5eb"] ;
265 -> 266 ;
267 [label="gini = 0.0\nsamples = 16\nvalue = [0, 16]\nclass = 1", fillcolor="#399de5"] ;
266 -> 267 ;
268 [label="TCP_sport <= 36389.5\ngini = 0.455\nsamples = 20\nvalue = [7, 13]\nclass = 1", fillcolor="#a4d2f3"] ;
266 -> 268 ;
269 [label="IP_id <= 58169.5\ngini = 0.198\nsamples = 9\nvalue = [1, 8]\nclass = 1", fillcolor="#52a9e8"] ;
268 -> 269 ;
270 [label="gini = 0.0\nsamples = 8\nvalue = [0, 8]\nclass = 1", fillcolor="#399de5"] ;
269 -> 270 ;
271 [label="gini = 0.0\nsamples = 1\nvalue = [1, 0]\nclass = 0", fillcolor="#e58139"] ;
269 -> 271 ;
272 [label="IP_id <= 55031.5\ngini = 0.496\nsamples = 11\nvalue = [6, 5]\nclass = 0", fillcolor="#fbeade"] ;
268 -> 272 ;
273 [label="Protocol <= 3.5\ngini = 0.245\nsamples = 7\nvalue = [6, 1]\nclass = 0", fillcolor="#e9965a"] ;
272 -> 273 ;
274 [label="gini = 0.0\nsamples = 1\nvalue = [0, 1]\nclass = 1", fillcolor="#399de5"] ;
273 -> 274 ;
275 [label="gini = 0.0\nsamples = 6\nvalue = [6, 0]\nclass = 0", fillcolor="#e58139"] ;
273 -> 275 ;
276 [label="gini = 0.0\nsamples = 4\nvalue = [0, 4]\nclass = 1", fillcolor="#399de5"] ;
272 -> 276 ;
277 [label="IP_id <= 17506.5\ngini = 0.48\nsamples = 10\nvalue = [6, 4]\nclass = 0", fillcolor="#f6d5bd"] ;
265 -> 277 ;
278 [label="gini = 0.0\nsamples = 3\nvalue = [3, 0]\nclass = 0", fillcolor="#e58139"] ;
277 -> 278 ;
279 [label="IP_id <= 30916.0\ngini = 0.49\nsamples = 7\nvalue = [3, 4]\nclass = 1", fillcolor="#cee6f8"] ;
277 -> 279 ;
280 [label="gini = 0.0\nsamples = 3\nvalue = [0, 3]\nclass = 1", fillcolor="#399de5"] ;
279 -> 280 ;
281 [label="TCP_seq <= 3824868096.0\ngini = 0.375\nsamples = 4\nvalue = [3, 1]\nclass = 0", fillcolor="#eeab7b"] ;
279 -> 281 ;
282 [label="gini = 0.0\nsamples = 3\nvalue = [3, 0]\nclass = 0", fillcolor="#e58139"] ;
281 -> 282 ;
283 [label="gini = 0.0\nsamples = 1\nvalue = [0, 1]\nclass = 1", fillcolor="#399de5"] ;
281 -> 283 ;
284 [label="TCP_chksum <= 41816.0\ngini = 0.488\nsamples = 76\nvalue = [44, 32]\nclass = 0", fillcolor="#f8ddc9"] ;
264 -> 284 ;
285 [label="TCP_chksum <= 35010.5\ngini = 0.5\nsamples = 58\nvalue = [29, 29]\nclass = 0", fillcolor="#ffffff"] ;
284 -> 285 ;
286 [label="IP_id <= 32662.0\ngini = 0.49\nsamples = 49\nvalue = [28, 21]\nclass = 0", fillcolor="#f8e0ce"] ;
285 -> 286 ;
287 [label="TCP_chksum <= 8581.5\ngini = 0.278\nsamples = 12\nvalue = [10, 2]\nclass = 0", fillcolor="#ea9a61"] ;
286 -> 287 ;
288 [label="TCP_seq <= 1501826672.0\ngini = 0.444\nsamples = 3\nvalue = [1, 2]\nclass = 1", fillcolor="#9ccef2"] ;
287 -> 288 ;
289 [label="gini = 0.0\nsamples = 1\nvalue = [1, 0]\nclass = 0", fillcolor="#e58139"] ;
288 -> 289 ;
290 [label="gini = 0.0\nsamples = 2\nvalue = [0, 2]\nclass = 1", fillcolor="#399de5"] ;
288 -> 290 ;
291 [label="gini = 0.0\nsamples = 9\nvalue = [9, 0]\nclass = 0", fillcolor="#e58139"] ;
287 -> 291 ;
292 [label="sport <= 51229.5\ngini = 0.5\nsamples = 37\nvalue = [18, 19]\nclass = 1", fillcolor="#f5fafe"] ;
286 -> 292 ;
293 [label="TCP_seq <= 1572646784.0\ngini = 0.455\nsamples = 20\nvalue = [13, 7]\nclass = 0", fillcolor="#f3c5a4"] ;
292 -> 293 ;
294 [label="gini = 0.0\nsamples = 6\nvalue = [6, 0]\nclass = 0", fillcolor="#e58139"] ;
293 -> 294 ;
295 [label="TCP_seq <= 1897154432.0\ngini = 0.5\nsamples = 14\nvalue = [7, 7]\nclass = 0", fillcolor="#ffffff"] ;
293 -> 295 ;
296 [label="gini = 0.0\nsamples = 3\nvalue = [0, 3]\nclass = 1", fillcolor="#399de5"] ;
295 -> 296 ;
297 [label="IP_id <= 37247.5\ngini = 0.463\nsamples = 11\nvalue = [7, 4]\nclass = 0", fillcolor="#f4c9aa"] ;
295 -> 297 ;
298 [label="gini = 0.0\nsamples = 2\nvalue = [0, 2]\nclass = 1", fillcolor="#399de5"] ;
297 -> 298 ;
299 [label="Protocol <= 7.5\ngini = 0.346\nsamples = 9\nvalue = [7, 2]\nclass = 0", fillcolor="#eca572"] ;
297 -> 299 ;
300 [label="IP_id <= 47150.5\ngini = 0.219\nsamples = 8\nvalue = [7, 1]\nclass = 0", fillcolor="#e99355"] ;
299 -> 300 ;
301 [label="TCP_seq <= 3594806912.0\ngini = 0.5\nsamples = 2\nvalue = [1, 1]\nclass = 0", fillcolor="#ffffff"] ;
300 -> 301 ;
302 [label="gini = 0.0\nsamples = 1\nvalue = [0, 1]\nclass = 1", fillcolor="#399de5"] ;
301 -> 302 ;
303 [label="gini = 0.0\nsamples = 1\nvalue = [1, 0]\nclass = 0", fillcolor="#e58139"] ;
301 -> 303 ;
304 [label="gini = 0.0\nsamples = 6\nvalue = [6, 0]\nclass = 0", fillcolor="#e58139"] ;
300 -> 304 ;
305 [label="gini = 0.0\nsamples = 1\nvalue = [0, 1]\nclass = 1", fillcolor="#399de5"] ;
299 -> 305 ;
306 [label="Protocol <= 4.5\ngini = 0.415\nsamples = 17\nvalue = [5, 12]\nclass = 1", fillcolor="#8bc6f0"] ;
292 -> 306 ;
307 [label="TCP_chksum <= 3555.5\ngini = 0.165\nsamples = 11\nvalue = [1, 10]\nclass = 1", fillcolor="#4da7e8"] ;
306 -> 307 ;
308 [label="gini = 0.0\nsamples = 1\nvalue = [1, 0]\nclass = 0", fillcolor="#e58139"] ;
307 -> 308 ;
309 [label="gini = 0.0\nsamples = 10\nvalue = [0, 10]\nclass = 1", fillcolor="#399de5"] ;
307 -> 309 ;
310 [label="TCP_chksum <= 11474.5\ngini = 0.444\nsamples = 6\nvalue = [4, 2]\nclass = 0", fillcolor="#f2c09c"] ;
306 -> 310 ;
311 [label="gini = 0.0\nsamples = 3\nvalue = [3, 0]\nclass = 0", fillcolor="#e58139"] ;
310 -> 311 ;
312 [label="TCP_chksum <= 22836.5\ngini = 0.444\nsamples = 3\nvalue = [1, 2]\nclass = 1", fillcolor="#9ccef2"] ;
310 -> 312 ;
313 [label="gini = 0.0\nsamples = 2\nvalue = [0, 2]\nclass = 1", fillcolor="#399de5"] ;
312 -> 313 ;
314 [label="gini = 0.0\nsamples = 1\nvalue = [1, 0]\nclass = 0", fillcolor="#e58139"] ;
312 -> 314 ;
315 [label="dport <= 2835.5\ngini = 0.198\nsamples = 9\nvalue = [1, 8]\nclass = 1", fillcolor="#52a9e8"] ;
285 -> 315 ;
316 [label="gini = 0.0\nsamples = 8\nvalue = [0, 8]\nclass = 1", fillcolor="#399de5"] ;
315 -> 316 ;
317 [label="gini = 0.0\nsamples = 1\nvalue = [1, 0]\nclass = 0", fillcolor="#e58139"] ;
315 -> 317 ;
318 [label="IP_id <= 21382.0\ngini = 0.278\nsamples = 18\nvalue = [15, 3]\nclass = 0", fillcolor="#ea9a61"] ;
284 -> 318 ;
319 [label="IP_id <= 15721.5\ngini = 0.5\nsamples = 4\nvalue = [2, 2]\nclass = 0", fillcolor="#ffffff"] ;
318 -> 319 ;
320 [label="gini = 0.0\nsamples = 2\nvalue = [2, 0]\nclass = 0", fillcolor="#e58139"] ;
319 -> 320 ;
321 [label="gini = 0.0\nsamples = 2\nvalue = [0, 2]\nclass = 1", fillcolor="#399de5"] ;
319 -> 321 ;
322 [label="TCP_seq <= 3201160448.0\ngini = 0.133\nsamples = 14\nvalue = [13, 1]\nclass = 0", fillcolor="#e78b48"] ;
318 -> 322 ;
323 [label="gini = 0.0\nsamples = 10\nvalue = [10, 0]\nclass = 0", fillcolor="#e58139"] ;
322 -> 323 ;
324 [label="TCP_seq <= 3323194496.0\ngini = 0.375\nsamples = 4\nvalue = [3, 1]\nclass = 0", fillcolor="#eeab7b"] ;
322 -> 324 ;
325 [label="gini = 0.0\nsamples = 1\nvalue = [0, 1]\nclass = 1", fillcolor="#399de5"] ;
324 -> 325 ;
326 [label="gini = 0.0\nsamples = 3\nvalue = [3, 0]\nclass = 0", fillcolor="#e58139"] ;
324 -> 326 ;
}
