digraph Tree {
node [shape=box, style="filled", color="black"] ;
0 [label="IP_flags <= 2.5\ngini = 0.278\nsamples = 2997\nvalue = [2497, 500]\nclass = 0", fillcolor="#ea9a61"] ;
1 [label="TCP_sport <= 47362.5\ngini = 0.427\nsamples = 723\nvalue = [223, 500]\nclass = 1", fillcolor="#91c9f1"] ;
0 -> 1 [labeldistance=2.5, labelangle=45, headlabel="True"] ;
2 [label="EAPOL_version <= 1.5\ngini = 0.437\nsamples = 329\nvalue = [223, 106]\nclass = 0", fillcolor="#f1bd97"] ;
1 -> 2 ;
3 [label="BOOTP_xid <= 1098155648.0\ngini = 0.331\nsamples = 282\nvalue = [223, 59]\nclass = 0", fillcolor="#eca26d"] ;
2 -> 3 ;
4 [label="DNS_rd <= 0.5\ngini = 0.185\nsamples = 223\nvalue = [200, 23]\nclass = 0", fillcolor="#e88f50"] ;
3 -> 4 ;
5 [label="Ether_type <= 1024.0\ngini = 0.066\nsamples = 204\nvalue = [197, 7]\nclass = 0", fillcolor="#e68540"] ;
4 -> 5 ;
6 [label="Protocol <= 4.5\ngini = 0.444\nsamples = 6\nvalue = [2, 4]\nclass = 1", fillcolor="#9ccef2"] ;
5 -> 6 ;
7 [label="gini = 0.0\nsamples = 3\nvalue = [0, 3]\nclass = 1", fillcolor="#399de5"] ;
6 -> 7 ;
8 [label="Protocol <= 6.0\ngini = 0.444\nsamples = 3\nvalue = [2, 1]\nclass = 0", fillcolor="#f2c09c"] ;
6 -> 8 ;
9 [label="gini = 0.5\nsamples = 2\nvalue = [1, 1]\nclass = 0", fillcolor="#ffffff"] ;
8 -> 9 ;
10 [label="gini = 0.0\nsamples = 1\nvalue = [1, 0]\nclass = 0", fillcolor="#e58139"] ;
8 -> 10 ;
11 [label="DHCP_options <= 5.0\ngini = 0.03\nsamples = 198\nvalue = [195, 3]\nclass = 0", fillcolor="#e5833c"] ;
5 -> 11 ;
12 [label="BOOTP_xid <= 283774088.0\ngini = 0.02\nsamples = 197\nvalue = [195, 2]\nclass = 0", fillcolor="#e5823b"] ;
11 -> 12 ;
13 [label="gini = 0.0\nsamples = 179\nvalue = [179, 0]\nclass = 0", fillcolor="#e58139"] ;
12 -> 13 ;
14 [label="pck_size <= 330.5\ngini = 0.198\nsamples = 18\nvalue = [16, 2]\nclass = 0", fillcolor="#e89152"] ;
12 -> 14 ;
15 [label="gini = 0.0\nsamples = 2\nvalue = [0, 2]\nclass = 1", fillcolor="#399de5"] ;
14 -> 15 ;
16 [label="gini = 0.0\nsamples = 16\nvalue = [16, 0]\nclass = 0", fillcolor="#e58139"] ;
14 -> 16 ;
17 [label="gini = 0.0\nsamples = 1\nvalue = [0, 1]\nclass = 1", fillcolor="#399de5"] ;
11 -> 17 ;
18 [label="IP_id <= 8.0\ngini = 0.266\nsamples = 19\nvalue = [3, 16]\nclass = 1", fillcolor="#5eafea"] ;
4 -> 18 ;
19 [label="gini = 0.0\nsamples = 16\nvalue = [0, 16]\nclass = 1", fillcolor="#399de5"] ;
18 -> 19 ;
20 [label="gini = 0.0\nsamples = 3\nvalue = [3, 0]\nclass = 0", fillcolor="#e58139"] ;
18 -> 20 ;
21 [label="IP_ttl <= 191.5\ngini = 0.476\nsamples = 59\nvalue = [23, 36]\nclass = 1", fillcolor="#b8dcf6"] ;
3 -> 21 ;
22 [label="gini = 0.0\nsamples = 17\nvalue = [17, 0]\nclass = 0", fillcolor="#e58139"] ;
21 -> 22 ;
23 [label="payload_bytes <= 304.0\ngini = 0.245\nsamples = 42\nvalue = [6, 36]\nclass = 1", fillcolor="#5aade9"] ;
21 -> 23 ;
24 [label="gini = 0.0\nsamples = 36\nvalue = [0, 36]\nclass = 1", fillcolor="#399de5"] ;
23 -> 24 ;
25 [label="gini = 0.0\nsamples = 6\nvalue = [6, 0]\nclass = 0", fillcolor="#e58139"] ;
23 -> 25 ;
26 [label="gini = 0.0\nsamples = 47\nvalue = [0, 47]\nclass = 1", fillcolor="#399de5"] ;
2 -> 26 ;
27 [label="gini = 0.0\nsamples = 394\nvalue = [0, 394]\nclass = 1", fillcolor="#399de5"] ;
1 -> 27 ;
28 [label="gini = 0.0\nsamples = 2274\nvalue = [2274, 0]\nclass = 0", fillcolor="#e58139"] ;
0 -> 28 [labeldistance=2.5, labelangle=-45, headlabel="False"] ;
}
